tree
version=v3
num_class=1
num_tree_per_iteration=1
label_index=0
max_feature_idx=9
objective=regression
feature_names=Operativeduration Hb Bloodloss Urine_protein AKIGrade Hct ALB SBP BaslineeGFR Anion_gap
feature_infos=[1:10.08] [42:186] [10:4000] [0:3] [0:3] [16.600000000000001:60] [21.27:54.100000000000001] [81:205] [6.2000000000000002:137.36000000000001] [2.5:23.399999999999999]
tree_sizes=1204 1328 983 1072 1314 1328 1070 1313 898 1333 1072 1304 904 1319 904 1308 1335 1083 1340 1322 1161 1338 1341 1328 1345 1013 1339 1332 1345 1169 1333 1081 1339 1093 1350 838 1330 1345 1334 1175 909 1340 1347 1343 1353 754 1001 1344 1174 1275 1343 754 1358 1349 1344 1264 672 1264 1342 1322 1338 1345 1357 1358 676 1349 1005 1093 1166 1192 1353 1007 1093 1333 1345 1011 1187 1161 1353 1021 1013 1270 928 917 1336 1021 1339 1350 1190 1335 1012 1178 1352 1366 1350 1353 1359 1348 767 1278

Tree=0
num_leaves=13
num_cat=0
split_feature=6 8 4 1 3 1 7 3 1 7 7 5
split_gain=25.2513 16.4009 10.1755 12.6311 5.99569 3.93296 3.04025 1.87958 1.77085 1.37043 1.12299 0.429501
threshold=26.210000000000004 51.680000000000007 1.0000000180025095e-35 118.50000000000001 1.0000000180025095e-35 127.50000000000001 169.50000000000003 1.0000000180025095e-35 109.50000000000001 170.50000000000003 141.50000000000003 35.45000000000001
decision_type=2 2 2 2 2 2 2 2 2 2 2 2
left_child=10 5 6 8 -5 11 7 -3 -4 -8 -1 -2
right_child=1 2 3 4 -6 -7 9 -9 -10 -11 -12 -13
leaf_value=0.20798400060920605 0.20739576532385379 0.14135515717087971 0.18739576562187701 0.14717837491681501 0.18989576558462409 0.16816499667766857 0.18739576562187701 0.15406243278524903 0.22449253926264037 0.15168148043977561 0.23739576487681896 0.22787195549492525
leaf_weight=34 20 985 22 184 40 26 22 132 31 21 21 21
leaf_count=34 20 985 22 184 40 26 22 132 31 21 21 21
internal_value=0.152662 0.150228 0.147973 0.165194 0.154806 0.19859 0.143861 0.142857 0.209094 0.169954 0.219214 0.217884
internal_weight=0 1504 1437 277 224 67 1160 1117 53 43 55 41
internal_count=1559 1504 1437 277 224 67 1160 1117 53 43 55 41
is_linear=0
shrinkage=1


Tree=1
num_leaves=14
num_cat=0
split_feature=3 1 5 6 4 4 8 7 8 5 6 2 7
split_gain=20.5668 9.20903 12.8877 7.74777 7.21227 5.63237 5.96037 3.9742 2.13242 1.73479 1.52515 1.19451 0.872306
threshold=1.0000000180025095e-35 115.50000000000001 37.850000000000001 27.550000000000001 1.0000000180025095e-35 1.0000000180025095e-35 55.470000000000006 169.50000000000003 53.115000000000009 38.850000000000001 41.755000000000003 225.00000000000003 170.50000000000003
decision_type=2 2 2 2 2 2 2 2 2 2 2 2 2
left_child=1 2 4 -2 -1 6 -5 8 -3 -7 -8 -10 -9
right_child=3 7 -4 5 -6 9 10 12 11 -11 -12 -13 -14
leaf_value=-0.0071888835518620908 0.071751121617853644 0.016364222566286724 0.075218738516171779 0.051796713636981122 0.043475371640589504 0.057935289515031352 -0.0062604409210460709 0.033878982974135358 -0.011644774184397111 0.025865502751642663 0.017841110585464372 0.0013823975073663812 0.0063376129969306616
leaf_weight=128 32 30 30 27 36 37 97 23 953 31 36 76 23
leaf_count=128 32 30 30 27 36 37 97 23 953 31 36 76 23
internal_value=0 -0.00513857 0.0149562 0.0256731 0.00393254 0.019206 0.00895955 -0.00866652 -0.00991641 0.0433152 0.000263287 -0.0106826 0.0201083
internal_weight=0 1299 194 260 164 228 160 1105 1059 68 133 1029 46
internal_count=1559 1299 194 260 164 228 160 1105 1059 68 133 1029 46
is_linear=0
shrinkage=0.1


Tree=2
num_leaves=10
num_cat=0
split_feature=6 8 4 7 3 1 0 7 6
split_gain=17.4326 10.9348 7.38847 4.97805 3.55664 2.95693 2.64247 0.800141 0.392528
threshold=26.210000000000004 51.680000000000007 1.5000000000000002 165.50000000000003 1.0000000180025095e-35 127.50000000000001 2.4350000000000005 141.50000000000003 38.425000000000004
decision_type=2 2 2 2 2 2 2 2 2
left_child=7 5 3 4 -3 8 -5 -1 -2
right_child=1 2 -4 6 -6 -7 -8 -9 -10
leaf_value=0.045817661241573451 0.044169539958238607 -0.0081656147433996819 0.04795420081527145 -0.0063365943405939186 0.007312971765504165 0.011085626998772989 0.035176686424276106 0.070644159827913555 0.063744570669673747
leaf_weight=34 20 1171 27 23 170 26 46 21 21
leaf_count=34 20 1171 27 23 170 26 46 21 21
internal_value=0 -0.00202216 -0.00386331 -0.00485556 -0.00620338 0.0374665 0.0213389 0.0552969 0.0541958
internal_weight=0 1504 1437 1410 1341 67 69 55 41
internal_count=1559 1504 1437 1410 1341 67 69 55 41
is_linear=0
shrinkage=0.1


Tree=3
num_leaves=11
num_cat=0
split_feature=8 6 4 1 2 0 7 1 1 8
split_gain=14.2437 9.14925 6.60098 7.42921 4.66862 2.42581 3.03509 2.42022 1.86058 0.817381
threshold=48.065000000000005 25.060000000000006 1.0000000180025095e-35 118.50000000000001 225.00000000000003 2.4350000000000005 169.50000000000003 126.50000000000001 106.50000000000001 61.615000000000009
decision_type=2 2 2 2 2 2 2 2 2 2
left_child=7 -2 5 8 -5 9 -7 -1 -4 -3
right_child=1 2 3 4 -6 6 -8 -9 -10 -11
leaf_value=0.061953791746726411 0.048564831997667042 -1.9051051802105375e-05 0.019984743405472152 -0.0039900611027290948 0.034406578070239023 -0.0034996515157542742 0.028694076259290019 0.021593017006913823 0.057096865304878779 -0.012040855518624752
leaf_weight=39 35 63 22 190 38 529 31 24 35 553
leaf_count=39 35 63 22 190 38 529 31 24 35 553
internal_value=0 -0.00196152 -0.00317194 0.0104821 0.00240938 -0.00648095 -0.0017175 0.0465783 0.0427729 -0.0108114
internal_weight=0 1496 1461 285 228 1176 560 63 57 616
internal_count=1559 1496 1461 285 228 1176 560 63 57 616
is_linear=0
shrinkage=0.1


Tree=4
num_leaves=14
num_cat=0
split_feature=3 1 5 0 4 1 4 8 7 6 7 6 2
split_gain=12.3442 5.79746 9.72685 4.60817 4.30671 4.07952 2.34184 2.16233 2.03525 1.71758 1.28203 1.26599 0.904597
threshold=1.0000000180025095e-35 115.50000000000001 37.850000000000001 1.925 1.0000000180025095e-35 123.50000000000001 1.0000000180025095e-35 52.115000000000009 144.50000000000003 38.685000000000009 169.50000000000003 41.755000000000003 225.00000000000003
decision_type=2 2 2 2 2 2 2 2 2 2 2 2 2
left_child=1 2 4 -2 -1 8 11 -3 9 -5 12 -7 -9
right_child=3 7 -4 5 -6 6 -8 10 -10 -11 -12 -13 -14
leaf_value=-0.0062079940107651055 -0.016294188557132598 0.019700120737155279 0.064316528886556631 0.018186614414056144 0.032942591690354878 -0.0055700819673282767 0.031805771901163946 -0.0090458250087817257 0.05840360751828632 0.053406998664140705 0.00982336238390062 0.02047233847635133 0.0022206109259035683
leaf_weight=128 31 30 30 45 36 56 43 957 37 20 41 28 77
leaf_count=128 31 30 30 45 36 56 43 957 37 20 41 28 77
internal_value=0 -0.00398099 0.0119629 0.0198896 0.00238604 0.0247879 0.0128264 -0.00678019 0.0396811 0.0290237 -0.00751917 0.00311072 -0.00820684
internal_weight=0 1299 194 260 164 229 127 1105 102 65 1075 84 1034
internal_count=1559 1299 194 260 164 229 127 1105 102 65 1075 84 1034
is_linear=0
shrinkage=0.1


Tree=5
num_leaves=14
num_cat=0
split_feature=6 3 1 5 4 8 4 7 6 6 5 1 8
split_gain=10.7292 6.24342 3.3083 8.58028 3.13123 3.48458 2.05255 1.78402 1.3197 1.06554 1.043 0.812936 0.799777
threshold=26.210000000000004 1.0000000180025095e-35 115.50000000000001 37.850000000000001 1.0000000180025095e-35 55.470000000000006 1.0000000180025095e-35 169.50000000000003 37.695000000000007 41.755000000000003 38.850000000000001 107.50000000000001 53.115000000000009
decision_type=2 2 2 2 2 2 2 2 2 2 2 2 2
left_child=11 2 3 6 5 -3 -2 12 -6 -7 -10 -1 -4
right_child=1 4 7 -5 8 9 -8 -9 10 -11 -12 -13 -14
leaf_value=0.032684126640519791 -0.0071334851495290204 0.038002311278666767 0.0091846705510698519 0.058143456742681315 0.011842293972554416 -0.0062640964600843259 0.023430336404729774 0.012926537899867349 0.056906892426989299 0.013881179028087193 0.026762712995211286 0.057198628286520642 -0.0076553936520727672
leaf_weight=31 118 28 29 29 23 97 27 46 22 36 24 24 1025
leaf_count=31 118 28 29 29 23 97 27 46 22 36 24 24 1025
internal_value=0 -0.00158642 -0.004324 0.00848867 0.0135774 0.00593894 -0.00144229 -0.00635073 0.0314004 -0.00081124 0.0411795 0.0433814 -0.00719205
internal_weight=0 1504 1274 174 230 161 145 1100 69 133 46 55 1054
internal_count=1559 1504 1274 174 230 161 145 1100 69 133 46 55 1054
is_linear=0
shrinkage=0.1


Tree=6
num_leaves=11
num_cat=0
split_feature=6 7 1 5 1 0 4 2 2 1
split_gain=8.69065 5.30668 3.61496 9.27573 2.7876 2.2402 1.58716 1.50542 1.15395 0.658478
threshold=26.210000000000004 169.50000000000003 115.50000000000001 37.750000000000007 124.50000000000001 4.5400000000000009 1.0000000180025095e-35 225.00000000000003 125.00000000000001 107.50000000000001
decision_type=2 2 2 2 2 2 2 2 2 2
left_child=9 2 3 6 -3 7 -2 -4 -6 -1
right_child=1 4 5 -5 8 -7 -8 -9 -10 -11
leaf_value=0.029415714933026221 -0.0048805022156321919 0.048157874931549209 -0.0066164488263359862 0.0554203149345186 -0.0019412485261758169 0.027394897100471317 0.019157029951319977 0.0063838820482037739 0.028045070526145757 0.051478765159845355
leaf_weight=31 143 29 1090 36 33 21 34 97 21 24
leaf_count=31 143 29 1090 36 33 21 34 97 21 24
internal_value=0 -0.00142778 -0.00286336 0.00914816 0.0231502 -0.00498129 -0.000263123 -0.00555408 0.0097201 0.0390432
internal_weight=0 1504 1421 213 83 1208 177 1187 54 55
internal_count=1559 1504 1421 213 83 1208 177 1187 54 55
is_linear=0
shrinkage=0.1


Tree=7
num_leaves=14
num_cat=0
split_feature=3 0 1 5 1 4 4 6 8 8 6 0 7
split_gain=7.3451 3.15429 2.9679 5.20037 2.5774 2.49231 1.5189 1.47501 1.38278 1.23347 0.941994 0.655656 0.96475
threshold=1.0000000180025095e-35 1.925 115.50000000000001 37.850000000000001 123.50000000000001 1.0000000180025095e-35 1.0000000180025095e-35 40.32500000000001 52.115000000000009 50.205000000000005 41.755000000000003 2.0650000000000004 169.50000000000003
decision_type=2 2 2 2 2 2 2 2 2 2 2 2 2
left_child=2 -2 3 5 7 -1 10 9 -4 -3 -6 -10 -13
right_child=1 4 8 -5 6 -7 -8 -9 11 -11 -12 12 -14
leaf_value=-0.0052033325075171895 -0.014594086163466977 0.045088158276948065 0.016102072795232136 0.046617409388224285 -0.005425237105893238 0.02457955280939738 0.025172458415807682 0.054164315015077596 -0.0092646952826789652 0.017279275892109709 0.017038944310375625 -0.0047603554383219143 0.012737360009641359
leaf_weight=128 31 22 30 30 56 36 43 22 344 58 28 698 33
leaf_count=128 31 22 30 30 56 36 43 22 344 58 28 698 33
internal_value=0 0.0153424 -0.00307085 0.00833691 0.019395 0.00133437 0.00988735 0.0312329 -0.00507365 0.0249267 0.00206282 -0.00566461 -0.00397044
internal_weight=0 260 1299 194 229 164 127 102 1105 80 84 1075 731
internal_count=1559 260 1299 194 229 164 127 102 1105 80 84 1075 731
is_linear=0
shrinkage=0.1


Tree=8
num_leaves=9
num_cat=0
split_feature=6 8 4 0 7 2 7 1
split_gain=6.41435 3.70593 3.00387 2.40602 2.64738 1.20383 1.04494 0.558113
threshold=26.210000000000004 47.475000000000009 1.5000000000000002 2.4350000000000005 167.00000000000003 225.00000000000003 141.50000000000003 107.50000000000001
decision_type=2 2 2 2 2 2 2 2
left_child=7 6 3 5 -5 -3 -2 -1
right_child=1 2 -4 4 -6 -7 -8 -9
leaf_value=0.024679049080418004 0.012287070211910067 -0.0078970709648317917 0.030977398653825122 -0.00027693171149072263 0.023361678976638645 0.0083418099855890084 0.043833563583237783 0.044991207122802739
leaf_weight=31 21 668 27 667 51 49 21 24
leaf_count=31 21 668 27 667 51 49 21 24
internal_value=0 -0.00122662 -0.00206797 -0.00268973 0.00140213 -0.0067873 0.0280603 0.0335425
internal_weight=0 1504 1462 1435 718 717 42 55
internal_count=1559 1504 1462 1435 718 717 42 55
is_linear=0
shrinkage=0.1


Tree=9
num_leaves=14
num_cat=0
split_feature=3 0 1 5 6 6 1 4 8 7 4 0 2
split_gain=5.2827 2.29113 2.19993 4.1497 2.00707 2.26455 2.86486 1.85682 0.942595 0.468689 0.540036 0.357172 0.229242
threshold=1.0000000180025095e-35 1.925 115.50000000000001 37.850000000000001 27.550000000000001 35.710000000000008 123.50000000000001 1.0000000180025095e-35 52.115000000000009 144.50000000000003 1.0000000180025095e-35 2.3600000000000003 175.00000000000003
decision_type=2 2 2 2 2 2 2 2 2 2 2 2 2
left_child=2 -2 3 7 -3 -6 -7 11 -4 12 -11 -1 -10
right_child=1 4 8 -5 5 6 -8 -9 9 10 -12 -13 -14
leaf_value=-0.010217102091820515 -0.012502438238551539 0.04012524716315731 0.013154759407043456 0.041412773927052816 -0.010726889222860338 0.036236636476083238 0.0082417057810026586 0.021025976869795057 -0.0065518776922183141 -0.0027999691665172577 0.011047886772190825 0.00035938306975720534 -0.0022916617005868676
leaf_weight=61 31 31 30 30 34 55 109 36 724 164 34 67 153
leaf_count=61 31 31 30 30 34 55 109 36 724 164 34 67 153
internal_value=0 0.0130114 -0.00260428 0.00721729 0.0164652 0.0127608 0.0176302 0.000962016 -0.0043286 -0.00481651 -0.000422055 -0.00468097 -0.00580865
internal_weight=0 260 1299 194 229 198 164 164 1105 1075 198 128 877
internal_count=1559 260 1299 194 229 198 164 164 1105 1075 198 128 877
is_linear=0
shrinkage=0.1


Tree=10
num_leaves=11
num_cat=0
split_feature=6 0 7 8 1 1 5 1 2 1
split_gain=4.43291 2.94334 2.4383 2.53264 2.29828 1.19843 5.24629 0.865874 0.503018 0.435463
threshold=25.060000000000006 4.6850000000000014 148.50000000000003 58.235000000000007 129.50000000000003 115.50000000000001 37.750000000000007 134.50000000000003 225.00000000000003 98.500000000000014
decision_type=2 2 2 2 2 2 2 2 2 2
left_child=9 2 5 7 -5 6 -2 -4 -7 -1
right_child=1 -3 3 4 -6 8 -8 -9 -10 -11
leaf_value=0.019563494080846962 -0.003478915672148428 0.035359433191743769 0.015989452213048937 0.018298420580950651 -0.0040718220914436496 -0.0053267800814952382 0.041585740350907847 0.043533433370646982 0.0028337534698771268 0.038679540501191073
leaf_weight=22 155 22 25 66 151 958 31 21 82 26
leaf_count=22 155 22 25 66 151 958 31 21 82 26
internal_value=0 -0.000950407 -0.00148689 0.00725015 0.00273203 -0.00336114 0.00403186 0.0285639 -0.00468335 0.029918
internal_weight=0 1511 1489 263 217 1226 186 46 1040 48
internal_count=1559 1511 1489 263 217 1226 186 46 1040 48
is_linear=0
shrinkage=0.1


Tree=11
num_leaves=14
num_cat=0
split_feature=3 0 0 1 5 4 1 6 4 7 8 6 1
split_gain=3.81659 1.72338 1.54306 2.37553 2.28472 2.38279 1.38045 1.16404 0.847023 0.799373 0.776095 0.718464 0.535984
threshold=1.0000000180025095e-35 1.925 1.925 115.50000000000001 37.850000000000001 1.0000000180025095e-35 125.50000000000001 40.32500000000001 1.0000000180025095e-35 156.50000000000003 50.205000000000005 41.755000000000003 138.50000000000003
decision_type=2 2 2 2 2 2 2 2 2 2 2 2 2
left_child=2 -2 -1 4 5 -4 7 10 11 -5 -3 -8 -11
right_child=1 6 3 9 -6 -7 8 -9 -10 12 -12 -13 -14
leaf_value=-0.0082295336014942214 -0.011068475054156396 0.032561070893121803 -0.0022597003424045989 -0.0034052493409184718 0.036375051377148464 0.029949047466119136 -0.0062239316650308102 0.042231087710546414 0.018406862965444241 0.016666377039954945 0.01105271625903345 0.013644647278956005 -5.0590001046657568e-05
leaf_weight=321 31 23 98 743 29 30 52 23 41 34 62 28 44
leaf_count=321 31 23 98 743 29 30 52 23 41 34 62 28 44
internal_value=0 0.0110594 -0.00221359 -0.000239031 0.0110312 0.00528922 0.0140549 0.022273 0.00671973 -0.00239424 0.0168726 0.000730071 0.00723629
internal_weight=0 260 1299 978 157 128 229 108 121 821 85 80 78
internal_count=1559 260 1299 978 157 128 229 108 121 821 85 80 78
is_linear=0
shrinkage=0.1


Tree=12
num_leaves=9
num_cat=0
split_feature=6 0 8 2 2 0 7 5
split_gain=3.30165 2.16236 1.61064 1.54269 4.75791 1.15761 0.794613 0.502327
threshold=28.385000000000002 4.6850000000000014 46.630000000000003 225.00000000000003 350.00000000000006 2.4350000000000005 141.50000000000003 31.250000000000004
decision_type=2 2 2 2 2 2 2 2
left_child=6 2 -2 5 -5 -4 7 -1
right_child=1 -3 3 4 -6 -7 -8 -9
leaf_value=0.0028822567991235041 0.020385989591930855 0.030128488350998274 -0.0059413833446210458 0.030981205552816395 -0.0064309710197234422 5.1513320236344047e-05 0.036561456840971243 0.023801951591546338
leaf_weight=22 33 22 669 55 89 622 23 24
leaf_count=22 33 22 669 55 89 622 23 24
internal_value=0 -0.000990315 -0.00145667 -0.00195898 0.0078584 -0.00305402 0.0213851 0.0137969
internal_weight=0 1490 1468 1435 144 1291 69 46
internal_count=1559 1490 1468 1435 144 1291 69 46
is_linear=0
shrinkage=0.1


Tree=13
num_leaves=14
num_cat=0
split_feature=3 0 0 6 4 8 7 4 0 2 0 9 1
split_gain=2.73989 1.2431 1.08453 1.86971 1.02848 1.03875 1.0149 2.21248 0.603826 0.577093 0.830056 0.571217 0.379513
threshold=1.0000000180025095e-35 1.925 1.925 28.385000000000002 1.0000000180025095e-35 55.470000000000006 145.50000000000003 1.0000000180025095e-35 3.7900000000000005 225.00000000000003 2.9500000000000006 11.250000000000002 107.50000000000001
decision_type=2 2 2 2 2 2 2 2 2 2 2 2 2
left_child=2 -2 12 -4 5 -3 11 -8 -7 10 -6 -5 -1
right_child=1 4 3 6 9 8 7 -9 -10 -11 -12 -13 -14
leaf_value=-0.018501076675378359 -0.0094228365728932055 0.022596009482036938 0.024792073230291235 -0.0067217057869160858 0.0014952946454286577 -0.00085584860883261029 -0.00064455944377539768 0.024983012974262239 0.018261507898569108 0.034796044975519184 0.025641008445194791 -0.00077816246350421981 -0.0058982487363835514
leaf_weight=26 31 33 29 231 24 95 134 45 20 22 35 539 295
leaf_count=26 31 33 29 231 24 95 134 45 20 22 35 539 295
internal_value=0 0.00937046 -0.00187554 -0.000220152 0.0119145 0.00695671 -0.000984488 0.00579813 0.00246891 0.0209733 0.015819 -0.00256123 -0.00691904
internal_weight=0 260 1299 978 229 148 949 179 115 81 59 770 321
internal_count=1559 260 1299 978 229 148 949 179 115 81 59 770 321
is_linear=0
shrinkage=0.1


Tree=14
num_leaves=9
num_cat=0
split_feature=6 7 1 0 8 2 7 1
split_gain=2.29082 1.65922 1.23897 1.00588 0.84061 0.816566 0.567645 0.317958
threshold=25.060000000000006 169.50000000000003 124.50000000000001 4.6250000000000009 46.630000000000003 225.00000000000003 170.50000000000003 98.500000000000014
decision_type=2 2 2 2 2 2 2 2
left_child=7 3 -3 4 -2 -6 -4 -1
right_child=1 2 6 -5 5 -7 -8 -9
leaf_value=0.012659336626529695 0.015328431821295195 0.028824057357926525 0.013261499949570361 0.019724824889139694 -0.0029870954247399181 0.0051226074226956436 -0.0073005524277687077 0.028993894045169541
leaf_weight=22 28 31 29 22 1238 138 25 26
leaf_count=22 28 31 29 22 1238 138 25 26
internal_value=0 -0.000683221 0.0128896 -0.00149226 -0.00182472 -0.00217377 0.00374203 0.0215072
internal_weight=0 1511 85 1426 1404 1376 54 48
internal_count=1559 1511 85 1426 1404 1376 54 48
is_linear=0
shrinkage=0.1


Tree=15
num_leaves=14
num_cat=0
split_feature=3 0 0 0 1 4 7 6 6 1 6 9 0
split_gain=1.97083 0.936098 0.850741 2.0959 1.33555 1.73234 1.1166 0.797029 2.22979 1.38352 0.557044 0.256932 0.235271
threshold=1.0000000180025095e-35 1.925 2.4350000000000005 2.5050000000000003 121.50000000000001 1.0000000180025095e-35 141.50000000000003 30.210000000000004 35.710000000000008 123.50000000000001 38.685000000000009 16.550000000000004 1.925
decision_type=2 2 2 2 2 2 2 2 2 2 2 2 2
left_child=2 -2 12 6 5 -5 10 -3 -9 -10 -4 -6 -1
right_child=1 7 3 4 11 -7 -8 8 9 -11 -12 -13 -14
leaf_value=-0.0060217255256443383 -0.0083610925823450095 0.02359403786627022 -0.0057580346614122396 0.0014917872846126558 -0.0046473650592151828 0.030335722228995079 0.032654764474584506 -0.018515874738139766 0.024948133582418618 0.0054936424649636682 0.014369638010182165 0.0048123550270834283 -0.0022732113621064596
leaf_weight=321 31 37 20 91 389 27 26 28 55 109 44 31 350
leaf_count=321 31 37 20 91 389 27 26 28 55 109 44 31 350
internal_value=0 0.00794729 -0.00159068 0.00105462 -0.00130822 0.00809167 0.0151792 0.010155 0.00756516 0.012018 0.00807974 -0.00394915 -0.00406646
internal_weight=0 260 1299 628 538 118 90 229 192 164 64 420 671
internal_count=1559 260 1299 628 538 118 90 229 192 164 64 420 671
is_linear=0
shrinkage=0.1


Tree=16
num_leaves=14
num_cat=0
split_feature=3 4 8 1 5 7 4 2 0 0 7 0 8
split_gain=1.59637 0.821698 0.826679 0.708525 1.81744 0.836588 0.989776 0.547061 0.847559 0.491561 0.453244 0.410259 0.25616
threshold=1.0000000180025095e-35 1.0000000180025095e-35 55.470000000000006 128.50000000000003 39.45000000000001 145.50000000000003 1.0000000180025095e-35 225.00000000000003 2.9500000000000006 3.7900000000000005 106.50000000000001 2.8750000000000004 58.235000000000007
decision_type=2 2 2 2 2 2 2 2 2 2 2 2 2
left_child=3 2 -2 4 5 10 -7 8 -3 11 -1 -4 -5
right_child=1 7 9 12 -6 6 -8 -9 -10 -11 -12 -13 -14
leaf_value=0.0087210197330397712 0.017535482505054184 -0.0028291838588537996 0.001327367893409455 0.0032022415492378299 0.023760798456413407 0.00083092148740624274 0.025852733790874483 0.02883758362043988 0.020751960149833135 0.01451628651469946 -0.0034964375381528489 -0.011365813906821939 -0.0035155506423848932
leaf_weight=34 33 27 87 61 35 43 25 22 35 20 284 36 817
leaf_count=34 33 27 87 61 35 43 25 22 35 20 284 36 817
internal_value=0 0.00715256 0.0032688 -0.00143161 0.0019411 -3.73721e-05 0.0100301 0.01529 0.0104828 -2.35144e-05 -0.00219017 -0.00238771 -0.00304882
internal_weight=0 260 176 1299 421 386 68 84 62 143 318 123 878
internal_count=1559 260 176 1299 421 386 68 84 62 143 318 123 878
is_linear=0
shrinkage=0.1


Tree=17
num_leaves=11
num_cat=0
split_feature=0 8 2 2 4 2 0 1 1 7
split_gain=1.41776 1.26411 1.00921 4.3312 0.757608 0.714109 0.885474 0.670718 0.615342 0.107718
threshold=4.8750000000000009 48.065000000000005 225.00000000000003 350.00000000000006 1.0000000180025095e-35 17.500000000000004 2.4350000000000005 136.50000000000003 126.50000000000001 149.50000000000003
decision_type=2 2 2 2 2 2 2 2 2 2
left_child=1 8 5 7 -5 9 -7 -4 -1 -3
right_child=-2 2 3 4 -6 6 -8 -9 -10 -11
leaf_value=0.021826829197438988 0.024643969049920209 -0.0069878542028065475 0.03418483356013894 -0.012284556802155244 0.0085629443111627009 -0.0037327579931199454 0.0018316828056092406 0.013786467744244468 0.001267139737804731 -0.014641109357277552
leaf_weight=37 23 148 40 72 23 577 567 27 24 21
leaf_count=37 23 148 40 72 23 577 567 27 24 21
internal_value=0 -0.000369018 -0.000952417 0.00649437 -0.00723727 -0.00187121 -0.000974858 0.0259646 0.0137378 -0.00793885
internal_weight=0 1536 1475 162 95 1313 1144 67 61 169
internal_count=1559 1536 1475 162 95 1313 1144 67 61 169
is_linear=0
shrinkage=0.1


Tree=18
num_leaves=14
num_cat=0
split_feature=6 6 1 5 2 2 8 4 0 4 1 0 0
split_gain=1.21035 1.37541 1.6167 1.87941 0.780901 1.10214 0.690927 0.649221 0.458158 0.286484 0.194034 0.150242 0.112972
threshold=29.800000000000001 35.435000000000009 115.50000000000001 37.250000000000007 225.00000000000003 350.00000000000006 58.525000000000013 1.0000000180025095e-35 2.2550000000000003 1.0000000180025095e-35 105.50000000000001 2.6250000000000004 2.5050000000000003
decision_type=2 2 2 2 2 2 2 2 2 2 2 2 2
left_child=8 9 3 7 6 -6 -4 -3 -1 12 -10 -5 -2
right_child=1 2 4 11 5 -7 -8 -9 10 -11 -12 -13 -14
leaf_value=-0.0010160556772635097 -0.0050629887336366619 -0.00056140380709067633 0.0060261100601582303 0.022278987650166861 0.020134990062655473 -0.0017913605014865217 -0.0025152612356064115 0.017611540019512175 0.010997191531693234 -0.019428500205278396 0.022238496225327253 0.034254508279263976 -0.011040539765044263
leaf_weight=21 71 92 105 22 41 52 966 25 34 25 28 20 57
leaf_count=21 71 92 105 22 41 52 966 25 34 25 28 20 57
internal_value=0 -0.000660735 0.000377362 0.00983564 -0.000914619 0.0078751 -0.00167787 0.0033217 0.0117499 -0.00963723 0.0160739 0.0279816 -0.00772487
internal_weight=0 1476 1323 159 1164 93 1071 117 83 153 62 42 128
internal_count=1559 1476 1323 159 1164 93 1071 117 83 153 62 42 128
is_linear=0
shrinkage=0.1


Tree=19
num_leaves=14
num_cat=0
split_feature=0 1 5 4 8 2 2 0 2 0 2 1 6
split_gain=1.07504 1.58777 1.7657 2.04619 0.978348 0.793455 0.603886 0.998824 1.35179 0.520561 0.430975 0.370286 0.326643
threshold=1.925 128.50000000000003 38.550000000000004 1.0000000180025095e-35 52.115000000000009 125.00000000000001 225.00000000000003 3.0750000000000006 350.00000000000006 2.4350000000000005 225.00000000000003 107.50000000000001 42.155000000000008
decision_type=2 2 2 2 2 2 2 2 2 2 2 2 2
left_child=10 2 3 4 -2 -5 12 8 -8 -4 11 -1 -3
right_child=1 6 9 5 -6 -7 7 -9 -10 -11 -12 -13 -14
leaf_value=-0.01477470656150374 0.019026535943798398 -0.0041587694332420677 0.0064814751874655496 0.0064209974929690357 -0.0024841660953603176 0.025583043321967126 0.035176054778553192 -0.0069864140502337753 -0.00029454905201088303 0.025367469740686596 -0.018754448014355843 -0.0029448311667988041 0.00023972859190827286
leaf_weight=29 23 393 20 40 262 47 21 29 22 54 21 302 296
leaf_count=29 23 393 20 40 262 47 21 29 22 54 21 302 296
internal_value=0 0.0014181 0.00615577 0.00334947 -0.000748215 0.0167729 -0.00135851 0.00735571 0.0170283 0.0202631 -0.00486264 -0.00398129 -0.00226914
internal_weight=0 1207 446 372 285 87 761 72 43 74 352 331 689
internal_count=1559 1207 446 372 285 87 761 72 43 74 352 331 689
is_linear=0
shrinkage=0.1


Tree=20
num_leaves=12
num_cat=0
split_feature=0 7 8 1 1 0 6 6 1 6 5
split_gain=0.989647 0.874475 1.0387 1.16181 1.02576 0.918151 0.45 0.407497 0.90308 0.20773 0.199431
threshold=4.8750000000000009 148.50000000000003 58.235000000000007 135.50000000000003 134.50000000000003 2.1750000000000003 25.060000000000006 35.435000000000009 115.50000000000001 38.32500000000001 35.850000000000001
decision_type=2 2 2 2 2 2 2 2 2 2 2
left_child=1 6 4 5 -3 -4 -1 10 -9 -5 -8
right_child=-2 2 3 9 -6 -7 7 8 -10 -11 -12
leaf_value=0.010885024250581347 0.020589641514031785 0.0050084359301575303 -0.0069692440259342021 -0.012530286410557374 0.033287264924982317 0.01462906415309803 -0.0097513469475020171 0.0072732714013769659 -0.0020349303025420733 -0.002667716747770707 -0.0026252099797639946
leaf_weight=29 23 29 26 28 23 81 85 117 955 90 73
leaf_count=29 23 29 26 28 23 81 85 117 955 90 73
internal_value=0 -0.000308308 0.00477857 0.00183472 0.0175164 0.00938088 -0.0014275 -0.0017178 -0.00101902 -0.00500799 -0.00645889
internal_weight=0 1536 277 225 52 107 1259 1230 1072 118 158
internal_count=1559 1536 277 225 52 107 1259 1230 1072 118 158
is_linear=0
shrinkage=0.1


Tree=21
num_leaves=14
num_cat=0
split_feature=2 0 4 7 2 6 8 6 2 1 7 0 3
split_gain=0.809236 1.13665 1.2752 1.40454 1.27327 0.97959 0.657381 0.483362 0.345585 0.3293 0.0900967 0.0697485 0.0202701
threshold=17.500000000000004 1.925 1.0000000180025095e-35 149.50000000000003 225.00000000000003 26.210000000000004 58.525000000000013 37.890000000000008 225.00000000000003 107.50000000000001 149.50000000000003 2.7550000000000003 1.0000000180025095e-35
decision_type=2 2 2 2 2 2 2 2 2 2 2 2 2
left_child=10 8 5 4 -4 -3 -7 -5 9 -2 11 -1 -11
right_child=1 2 3 7 -6 6 -8 -9 -10 12 -12 -13 -14
leaf_value=-0.0048061320234410237 -0.013725226402415761 0.02083389778095095 -0.00030475958706216612 0.010536839896147806 0.020766310828427476 0.0071267368340933767 -0.0012856915624004353 0.027499015203544072 -0.016588999499522507 -0.0021408913985572079 -0.012663591715196768 -0.011156197208911181 -0.0051712305634282535
leaf_weight=128 28 23 141 28 36 108 664 42 21 275 21 20 24
leaf_count=128 28 23 141 28 36 108 664 42 21 275 21 20 24
internal_value=0 0.00079442 0.002447 0.0087231 0.00398088 0.000497067 -0.000108823 0.0207141 -0.00415382 -0.00335523 -0.00653399 -0.00566425 -0.00238413
internal_weight=0 1390 1042 247 177 795 772 70 348 327 169 148 299
internal_count=1559 1390 1042 247 177 795 772 70 348 327 169 148 299
is_linear=0
shrinkage=0.1


Tree=22
num_leaves=14
num_cat=0
split_feature=0 2 0 1 5 0 2 1 0 8 8 0 7
split_gain=0.716066 0.599411 0.812094 1.06935 1.66943 0.592034 0.279924 0.266733 0.0759435 0.0429198 0.0221232 0.019024 0.00666972
threshold=4.8750000000000009 17.500000000000004 1.925 123.50000000000001 37.550000000000004 2.5850000000000004 225.00000000000003 107.50000000000001 2.4350000000000005 92.000000000000014 96.660000000000011 2.6250000000000004 134.50000000000003
decision_type=2 2 2 2 2 2 2 2 2 2 2 2 2
left_child=1 8 6 4 -4 -5 7 -3 10 11 12 -10 -1
right_child=-2 2 3 5 -6 -7 -8 -9 9 -11 -12 -13 -14
leaf_value=-0.0026815316972153432 0.017513997030808873 -0.012352703589047971 0.0031076072672714338 0.0029821468070619491 0.021626461041541617 -0.0028037828383967282 -0.014930099521630578 -0.0021457164161519326 -0.0092463174834847457 -0.012277932092547418 -0.0069272427864017945 -0.0053147747588809585 -0.00477646254003048
leaf_weight=55 23 28 241 317 61 400 21 299 20 20 21 32 21
leaf_count=55 23 28 241 317 61 400 21 299 20 20 21 32 21
internal_value=0 -0.000262254 0.000432332 0.0018567 0.00684817 -0.000245708 -0.00373844 -0.00301971 -0.00588059 -0.00834108 -0.00405425 -0.00682691 -0.00326039
internal_weight=0 1536 1367 1019 302 717 348 327 169 72 97 52 76
internal_count=1559 1536 1367 1019 302 717 348 327 169 72 97 52 76
is_linear=0
shrinkage=0.1


Tree=23
num_leaves=14
num_cat=0
split_feature=6 6 1 0 5 2 7 2 8 4 7 5 0
split_gain=0.64555 0.938706 0.827215 1.16411 1.17842 0.478256 0.321863 0.492848 0.321837 0.302251 0.264912 0.412726 0.127203
threshold=29.800000000000001 35.435000000000009 128.50000000000003 2.4350000000000005 38.550000000000004 175.00000000000003 154.50000000000003 27.500000000000004 52.115000000000009 1.0000000180025095e-35 141.50000000000003 34.250000000000007 1.925
decision_type=2 2 2 2 2 2 2 2 2 2 2 2 2
left_child=10 9 3 5 -5 -3 8 -8 -4 12 11 -1 -2
right_child=1 2 6 4 -6 -7 7 -9 -10 -11 -12 -13 -14
leaf_value=-0.001733510171632386 -0.00089454917114279754 -0.0039130870414712813 -0.01435168504714966 0.005300461916673568 0.023376797573601314 0.010807711971350588 -0.0072139089892583877 0.0086902732548436949 -0.0015147546240489018 -0.01795540822437033 0.016946093318983915 0.015906856182430471 -0.0079059999810693702
leaf_weight=36 36 146 20 155 47 26 27 70 832 25 26 21 92
leaf_count=36 36 146 20 155 47 26 27 70 832 25 26 21 92
internal_value=0 -0.000482545 0.00037506 0.00435821 0.00950634 -0.00168785 -0.0011947 0.00426334 -0.00181609 -0.00789831 0.00858116 0.00476557 -0.00593403
internal_weight=0 1476 1323 374 202 172 949 97 852 153 83 57 128
internal_count=1559 1476 1323 374 202 172 949 97 852 153 83 57 128
is_linear=0
shrinkage=0.1


Tree=24
num_leaves=14
num_cat=0
split_feature=3 6 5 6 4 9 7 0 7 8 1 2 9
split_gain=0.554865 0.46185 0.74372 0.693262 0.555058 0.488612 0.380512 0.283666 0.250976 0.548926 0.520932 0.382826 0.308027
threshold=1.0000000180025095e-35 38.395000000000003 44.250000000000007 30.210000000000004 1.0000000180025095e-35 12.050000000000002 129.50000000000003 2.6250000000000004 145.50000000000003 58.525000000000013 129.50000000000003 55.000000000000007 11.250000000000002
decision_type=2 2 2 2 2 2 2 2 2 2 2 2 2
left_child=8 3 4 -2 5 -3 -5 -8 12 -10 11 -11 -1
right_child=1 2 -4 6 -6 -7 7 -9 9 10 -12 -13 -14
leaf_value=-0.0039724732366461539 0.010550682909684484 -0.0047952314352859623 -0.0061914910961474688 -0.013475664652993574 0.022895403708698175 0.012816193766891956 -0.0091032853990327574 0.0061721317229732394 0.013871742286445464 -0.0020735305126594462 -0.0031986216598462697 0.01444272855555432 -0.00032806556691126576
leaf_weight=341 41 23 28 34 33 50 20 31 34 23 140 36 725
leaf_count=341 41 23 28 34 33 50 20 31 34 23 140 36 725
internal_value=0 0.00421685 0.00830378 -0.000129557 0.0121327 0.00726739 -0.0052812 0.000181772 -0.00084402 0.0021291 0.000122814 0.00800419 -0.00149387
internal_weight=0 260 134 126 106 73 85 51 1299 233 199 59 1066
internal_count=1559 260 134 126 106 73 85 51 1299 233 199 59 1066
is_linear=0
shrinkage=0.1


Tree=25
num_leaves=10
num_cat=0
split_feature=0 8 7 2 4 0 9 8 9
split_gain=0.480629 0.444112 0.404831 0.600657 0.754368 0.520041 0.30991 0.485233 0.334091
threshold=4.8750000000000009 40.415000000000013 148.50000000000003 55.000000000000007 1.0000000180025095e-35 2.4350000000000005 11.250000000000002 54.195000000000007 13.850000000000003
decision_type=2 2 2 2 2 2 2 2 2
left_child=1 -1 6 5 -5 -4 7 -3 -8
right_child=-2 2 3 4 -6 -7 8 -9 -10
leaf_value=0.012497134648125482 0.014348741888028125 -0.018675332106649876 -0.0078588859804069114 0.0022921827190004076 0.017262589150574058 0.0059589663065142103 0.0015629867206537309 -0.0026945321725705936 -0.0024804639425208756
leaf_weight=27 23 20 69 103 50 45 493 380 349
leaf_count=27 23 20 69 103 50 45 493 380 349
internal_value=0 -0.000214857 -0.000442309 0.00309032 0.00718447 -0.00240447 -0.00120174 -0.00349357 -0.00011298
internal_weight=0 1536 1509 267 153 114 1242 400 842
internal_count=1559 1536 1509 267 153 114 1242 400 842
is_linear=0
shrinkage=0.1


Tree=26
num_leaves=14
num_cat=0
split_feature=2 0 6 6 1 2 1 5 9 0 5 6 3
split_gain=0.440206 0.573241 0.751626 1.05495 0.856526 0.232806 0.21636 0.180407 0.0860033 0.0775936 0.0652332 0.0355517 0.0210452
threshold=17.500000000000004 1.925 29.800000000000001 35.435000000000009 128.50000000000003 225.00000000000003 107.50000000000001 35.150000000000013 11.050000000000002 2.4350000000000005 33.050000000000004 40.635000000000012 1.0000000180025095e-35
decision_type=2 2 2 2 2 2 2 2 2 2 2 2 2
left_child=9 5 7 10 -5 6 -2 8 -3 -1 -4 -11 -8
right_child=1 2 3 4 -6 -7 12 -9 -10 11 -12 -13 -14
leaf_value=-0.0029730574739136803 -0.010678302379320874 0.0033454964868724346 -0.013118362314999105 0.0068539615602357627 5.9526122235391865e-05 -0.013134494297472495 -0.0012376523580698467 0.019469851166719482 0.011811276610048178 -0.0094081092454296987 -0.0072199684816102189 -0.0049570329103837997 -0.0043253874837925347
leaf_weight=97 28 20 25 268 603 21 275 21 30 38 75 34 24
leaf_count=97 28 20 25 268 603 21 275 21 30 38 75 34 24
internal_value=0 0.000585924 0.00175951 0.00103326 0.00215012 -0.00292811 -0.00227265 0.0116918 0.00842496 -0.00481914 -0.00869457 -0.00730621 -0.0014855
internal_weight=0 1390 1042 971 871 348 327 71 50 169 100 72 299
internal_count=1559 1390 1042 971 871 348 327 71 50 169 100 72 299
is_linear=0
shrinkage=0.1


Tree=27
num_leaves=14
num_cat=0
split_feature=3 6 6 6 8 8 1 6 5 0 0 6 1
split_gain=0.372666 0.362413 0.673288 0.448869 0.438812 0.951896 0.32196 0.450041 0.184148 0.163803 1.2581 0.699008 0.929194
threshold=1.0000000180025095e-35 38.395000000000003 39.315000000000005 30.210000000000004 79.625000000000014 68.615000000000023 133.50000000000003 35.710000000000008 41.95000000000001 2.4350000000000005 2.5050000000000003 38.045000000000009 138.50000000000003
decision_type=2 2 2 2 2 2 2 2 2 2 2 2 2
left_child=9 3 -3 -2 5 -4 7 -5 -6 -1 11 -11 -13
right_child=1 2 4 6 8 -7 -8 -9 -10 10 -12 12 -14
leaf_value=-0.0017780654732312802 0.0081995885205886718 0.023069759517569434 0.0072436692824765564 -0.010986493870615961 0.0057019948366690771 -0.017583710186021485 -0.014351499906236617 0.0064785523909247581 0.018960113623179495 -0.0045624572783708574 -0.0013616122315022368 0.028048184305867731 0.0048366276440875875
leaf_weight=671 41 22 47 25 22 23 24 36 20 21 538 34 35
leaf_count=671 41 22 47 25 22 23 24 36 20 21 538 34 35
internal_value=0 0.00345585 0.00707618 -0.000394344 0.00393458 -0.000913898 -0.00453965 -0.000679253 0.0120154 -0.000691702 0.000469047 0.0114123 0.0162742
internal_weight=0 260 134 126 112 70 85 61 42 1299 628 90 69
internal_count=1559 260 134 126 112 70 85 61 42 1299 628 90 69
is_linear=0
shrinkage=0.1


Tree=28
num_leaves=14
num_cat=0
split_feature=2 0 4 8 7 2 8 8 6 4 5 0 8
split_gain=0.355942 0.418041 0.671963 0.703259 0.671603 0.943385 0.515731 0.412821 0.210159 0.120255 0.100503 0.0715909 0.0687956
threshold=17.500000000000004 1.925 1.0000000180025095e-35 109.11000000000001 149.50000000000003 225.00000000000003 58.525000000000013 67.710000000000022 32.540000000000006 1.0000000180025095e-35 40.45000000000001 2.4350000000000005 61.615000000000009
decision_type=2 2 2 2 2 2 2 2 2 2 2 2 2
left_child=11 8 3 6 5 -4 -3 -6 -2 12 -11 -1 -10
right_child=1 2 4 -5 7 -7 -8 -9 9 10 -12 -13 -14
leaf_value=-0.0025601832140984193 -0.012425906179705635 0.0056662271256771009 -0.0008831653790218188 0.013770232535898687 0.022990289895284562 0.017254037725635701 -0.0016300295146052229 0.0075300231432685483 -0.0058515055501764572 -0.011873091752640903 -0.0027214737360676134 -0.006722356674678547 -0.00053918690755127608
leaf_weight=97 20 114 141 36 31 36 645 39 27 20 30 72 251
leaf_count=97 20 114 141 36 31 36 645 39 27 20 30 72 251
internal_value=0 0.000526869 0.00152908 0.000113597 0.00608498 0.00280576 -0.000534149 0.0143767 -0.002474 -0.00186717 -0.00638212 -0.00433342 -0.00105513
internal_weight=0 1390 1042 795 247 177 759 70 348 328 50 169 278
internal_count=1559 1390 1042 795 247 177 759 70 348 328 50 169 278
is_linear=0
shrinkage=0.1


Tree=29
num_leaves=12
num_cat=0
split_feature=0 2 2 5 5 7 7 8 1 9 1
split_gain=0.33441 0.307841 1.74254 0.519722 0.444833 0.413722 0.359673 0.603601 0.200313 0.100675 0.0458019
threshold=4.6250000000000009 350.00000000000006 225.00000000000003 39.650000000000013 41.850000000000001 134.50000000000003 103.50000000000001 71.665000000000006 162.50000000000003 10.950000000000001 121.50000000000001
decision_type=2 2 2 2 2 2 2 2 2 2 2
left_child=1 2 6 5 9 -4 7 -1 -8 -3 -11
right_child=-2 4 3 -5 -6 -7 8 -9 -10 10 -12
leaf_value=0.021112481001982816 0.010117221629479901 -0.015107253329504446 0.013074790321938371 0.0052358304000189228 0.0053911371501507589 0.032740508243441581 -0.00069666959283872865 -0.00035010208069395865 -0.0061243027678251063 -0.0038338491814615934 -0.0099065394278753695
leaf_weight=20 32 23 23 31 27 20 1223 38 72 23 27
leaf_count=20 32 23 23 31 27 20 1223 38 72 23 27
internal_value=0 -0.000212018 0.000163847 0.015106 -0.00557561 0.0222216 -0.000653386 0.00705079 -0.000998438 -0.00963181 -0.0071131
internal_weight=0 1527 1427 74 100 43 1353 58 1295 73 50
internal_count=1559 1527 1427 74 100 43 1353 58 1295 73 50
is_linear=0
shrinkage=0.1


Tree=30
num_leaves=14
num_cat=0
split_feature=2 0 0 2 9 1 6 2 0 4 8 7 6
split_gain=0.275411 0.322295 1.51791 1.0578 0.553322 0.611828 0.388752 0.207268 0.682879 0.307756 0.205656 0.236284 0.0996876
threshold=17.500000000000004 2.4350000000000005 2.5050000000000003 22.500000000000004 10.550000000000002 121.50000000000001 38.295000000000009 225.00000000000003 1.925 1.0000000180025095e-35 56.645000000000003 162.50000000000003 34.245000000000012
decision_type=2 2 2 2 2 2 2 2 2 2 2 2 2
left_child=-1 7 3 -3 12 -6 -5 10 -9 -10 -2 -12 -4
right_child=1 2 4 6 5 -7 -8 8 9 -11 11 -13 -14
leaf_value=-0.0038118120758882422 -0.010121302951925568 0.028191450564190746 0.00068064881065352397 -0.0040409462060779335 0.0077666857256935761 -0.00040219058888411624 0.011493435334794376 -0.010917784493150456 0.0031816819161176683 0.019398701377213001 -0.00092179782317978261 -0.01149582643146542 -0.0066515178023048259
leaf_weight=169 28 32 22 24 122 369 49 21 25 22 536 22 118
leaf_count=169 28 32 22 24 122 369 49 21 25 22 536 22 118
internal_value=0 0.000463451 0.00189884 0.0130316 4.63114e-05 0.00162755 0.00638624 -0.00115191 0.00407412 0.0107726 -0.00175834 -0.0013387 -0.00549932
internal_weight=0 1390 736 105 631 491 73 654 68 47 586 558 140
internal_count=1559 1390 736 105 631 491 73 654 68 47 586 558 140
is_linear=0
shrinkage=0.1


Tree=31
num_leaves=11
num_cat=0
split_feature=0 2 2 7 5 5 8 7 9 8
split_gain=0.266784 0.2569 1.32083 0.433294 0.530927 0.354561 0.289029 0.201485 0.074654 0.0407978
threshold=4.6250000000000009 350.00000000000006 225.00000000000003 129.50000000000003 39.750000000000007 41.850000000000001 40.415000000000013 103.50000000000001 10.950000000000001 82.000000000000014
decision_type=2 2 2 2 2 2 2 2 2 2
left_child=1 2 6 -4 -5 8 -1 -8 -3 -10
right_child=-2 5 3 4 -6 -7 7 -9 9 -11
leaf_value=0.011374729602830485 0.0090365225962159464 -0.01342548495968399 0.0027659730049960606 0.028469069117608554 0.0073614228516817098 0.0047018230720250699 0.0051343916780232195 -0.00099400072148837825 -0.0088738329708576199 -0.0030430402536876502
leaf_weight=20 32 23 26 26 22 27 56 1277 30 20
leaf_count=20 32 23 26 26 22 27 56 1277 30 20
internal_value=0 -0.00018937 0.00015399 0.013163 0.0187947 -0.00508913 -0.000557515 -0.000736544 -0.00871044 -0.00654152
internal_weight=0 1527 1427 74 48 100 1353 1333 73 50
internal_count=1559 1527 1427 74 48 100 1353 1333 73 50
is_linear=0
shrinkage=0.1


Tree=32
num_leaves=14
num_cat=0
split_feature=7 2 2 1 9 6 2 6 6 7 8 1 5
split_gain=0.223659 0.335186 0.789583 0.267174 0.393749 0.287128 0.274855 0.258061 0.205674 0.174181 0.543577 0.281448 0.291302
threshold=137.50000000000003 225.00000000000003 350.00000000000006 117.50000000000001 11.550000000000002 39.105000000000011 175.00000000000003 38.895000000000003 37.525000000000013 103.50000000000001 71.560000000000016 109.50000000000001 33.550000000000004
decision_type=2 2 2 2 2 2 2 2 2 2 2 2 2
left_child=9 3 -3 4 -2 -6 7 -5 -4 10 -1 -11 -13
right_child=1 2 8 6 5 -7 -8 -9 -10 11 -12 12 -14
leaf_value=0.017819719975814226 -0.0028593930511680598 0.018055165534544931 -0.0091126548219472164 -0.0032757353576744214 0.017904980221231069 0.0033111723462262983 -0.0074511375688016412 0.0024534463355003187 0.0046181316448686031 -0.0066745754953570144 -0.0019276213505730522 0.0099333606194704771 -0.0010258294339182568
leaf_weight=20 34 38 20 120 28 26 50 228 24 87 46 25 813
leaf_count=20 34 38 20 120 28 26 50 228 24 87 46 25 813
internal_value=0 0.00158209 0.00749608 0.000584262 0.00557057 0.0108783 -0.00051824 0.000477866 -0.00162313 -0.000906791 0.00405642 -0.00126092 -0.000698885
internal_weight=0 568 82 486 88 54 398 348 44 991 66 925 838
internal_count=1559 568 82 486 88 54 398 348 44 991 66 925 838
is_linear=0
shrinkage=0.1


Tree=33
num_leaves=11
num_cat=0
split_feature=0 2 2 8 5 4 8 1 5 0
split_gain=0.220647 0.196341 0.916402 0.38159 0.443329 0.314282 0.217039 0.166531 0.140604 0.0601673
threshold=4.8750000000000009 350.00000000000006 225.00000000000003 89.885000000000005 39.750000000000007 1.0000000180025095e-35 40.415000000000013 109.50000000000001 39.350000000000001 2.9500000000000006
decision_type=2 2 2 2 2 2 2 2 2 2
left_child=1 2 6 4 -4 8 -1 -8 9 -3
right_child=-2 5 3 -5 -6 -7 7 -9 -10 -11
leaf_value=0.0099044435657560832 0.0097220381073977648 -0.0073763363703619692 0.01409875145847244 0.021043861635029318 -0.0051220932709319256 0.005027830219254471 -0.0042639024655099769 -0.00025238230390352197 -0.0021658992062189748 -0.014616397566472492
leaf_weight=20 23 22 28 25 21 26 113 1229 28 24
leaf_count=20 23 22 28 25 21 26 113 1229 28 24
internal_value=0 -0.000145577 0.000152777 0.0109905 0.00586125 -0.00442995 -0.000436057 -0.000590163 -0.00775295 -0.0111538
internal_weight=0 1536 1436 74 49 100 1362 1342 74 46
internal_count=1559 1536 1436 74 49 100 1362 1342 74 46
is_linear=0
shrinkage=0.1


Tree=34
num_leaves=14
num_cat=0
split_feature=2 0 0 2 9 1 5 5 0 8 8 6 7
split_gain=0.197382 0.260019 1.19278 0.860289 0.426211 0.44511 0.322902 0.196199 0.241594 0.159176 0.190224 0.0834666 0.0593139
threshold=17.500000000000004 2.4350000000000005 2.5050000000000003 22.500000000000004 10.550000000000002 121.50000000000001 38.050000000000004 46.750000000000007 1.9100000000000001 53.680000000000007 58.525000000000013 34.245000000000012 149.50000000000003
decision_type=2 2 2 2 2 2 2 2 2 2 2 2 2
left_child=12 7 3 -3 11 -6 -5 9 -9 -2 -11 -4 -1
right_child=1 2 4 6 5 -7 -8 8 -10 10 -12 -13 -14
leaf_value=-0.0025212809094031204 -0.0099416272206739945 0.025221790024079385 0.0008271514839758642 -0.0028740225692412687 0.0066635328793008888 -0.00030403679838091096 0.01080362668260932 -0.00042552046207775776 0.013070937752768042 0.0062180680994060825 -0.001715920996088927 -0.0058820075623817365 -0.0082003995948027649
leaf_weight=148 22 32 22 28 122 369 45 36 21 32 543 118 21
leaf_count=148 22 32 22 28 122 369 45 36 21 32 543 118 21
internal_value=0 0.000392344 0.00168162 0.0115504 3.94324e-05 0.00142721 0.00555741 -0.00105858 0.00454686 -0.00159377 -0.00127438 -0.00482771 -0.00322697
internal_weight=0 1390 736 105 631 491 73 654 57 597 575 140 169
internal_count=1559 1390 736 105 631 491 73 654 57 597 575 140 169
is_linear=0
shrinkage=0.1


Tree=35
num_leaves=8
num_cat=0
split_feature=0 0 7 7 8 9 6
split_gain=0.182706 0.203949 0.252946 0.305741 0.22976 0.201877 0.191147
threshold=4.6250000000000009 4.1250000000000009 170.50000000000003 169.50000000000003 74.710000000000022 15.450000000000001 40.495000000000012
decision_type=2 2 2 2 2 2 2
left_child=1 2 3 5 -5 -1 -3
right_child=-2 6 -4 4 -6 -7 -8
leaf_value=0.00039493589613405857 0.0074782220981433056 -0.011486363212267557 -0.0095342290346269263 0.012440925034960467 -0.00078991240866127478 -0.0032641657426422683 0.0011346315126866103
leaf_weight=1222 32 30 27 35 21 172 20
leaf_count=1222 32 30 27 35 21 172 20
internal_value=0 -0.000156715 5.59209e-05 0.000234496 0.00747936 -5.65458e-05 -0.00643797
internal_weight=0 1527 1477 1450 56 1394 50
internal_count=1559 1527 1477 1450 56 1394 50
is_linear=0
shrinkage=0.1


Tree=36
num_leaves=14
num_cat=0
split_feature=7 8 1 1 9 5 5 0 0 2 8 9 9
split_gain=0.160542 0.284637 1.04636 0.483179 0.296378 0.46422 0.331269 0.190975 0.280029 0.18147 0.161792 0.137413 0.274663
threshold=148.50000000000003 58.235000000000007 134.50000000000003 138.50000000000003 13.65 38.050000000000004 37.350000000000001 4.6250000000000009 4.1250000000000009 175.00000000000003 74.710000000000022 11.250000000000002 13.850000000000003
decision_type=2 2 2 2 2 2 2 2 2 2 2 2 2
left_child=7 2 -2 4 5 -3 -6 8 11 10 -5 -1 -13
right_child=1 3 -4 9 6 -7 -8 -9 -10 -11 -12 12 -14
leaf_value=-0.0019274640077982235 -0.0030892838898580522 -0.0050333032990844614 0.024873658387071413 0.0031852150291396195 0.020961981229484082 0.010239146948066158 0.003364698941131001 0.0087540605571120988 -0.0093362725495050366 -0.011988076063183447 -0.0057927929240335924 0.0018947033814572453 -0.0018122868591620188
leaf_weight=392 32 48 23 34 20 34 23 22 36 24 49 479 343
leaf_count=392 32 48 23 34 20 34 23 22 36 24 49 479 343
internal_value=0 0.00213635 0.00860431 0.000603003 0.00482528 0.00129918 0.0115495 -0.000482023 -0.000644579 -0.00432956 -0.00211505 -0.000386835 0.000347869
internal_weight=0 287 55 232 125 82 43 1272 1250 107 83 1214 822
internal_count=1559 287 55 232 125 82 43 1272 1250 107 83 1214 822
is_linear=0
shrinkage=0.1


Tree=37
num_leaves=14
num_cat=0
split_feature=2 0 0 2 6 9 7 5 0 8 7 7 0
split_gain=0.15113 0.209427 0.949006 0.700224 0.34754 0.369349 0.266791 0.159715 0.197173 0.140816 0.182145 0.0773339 0.0594885
threshold=17.500000000000004 2.4350000000000005 2.5050000000000003 22.500000000000004 30.210000000000004 10.550000000000002 149.50000000000003 46.750000000000007 1.9100000000000001 53.680000000000007 165.50000000000003 125.50000000000001 2.4350000000000005
decision_type=2 2 2 2 2 2 2 2 2 2 2 2 2
left_child=12 7 3 -3 11 -6 -5 9 -9 -2 -11 -4 -1
right_child=1 2 4 6 5 -7 -8 8 -10 10 -12 -13 -14
leaf_value=-0.0012072712722169619 -0.0092933777148242712 0.022637253918219358 0.013200052538886668 0.0010545378801627803 -0.0053570218711683996 0.00071769843408370053 0.014409280577231022 -0.00039340536766556194 0.011799302160562505 -0.00080343087786532779 -0.010517052868381144 0.0047804666295026745 -0.0050013608829128017
leaf_weight=97 22 32 20 52 128 459 21 36 21 555 20 24 72
leaf_count=97 22 32 20 52 128 459 21 36 21 555 20 24 72
internal_value=0 0.000343312 0.00150038 0.0103031 3.55896e-05 -0.000606942 0.00489631 -0.000958833 0.00409864 -0.00144171 -0.0011413 0.00860755 -0.00282369
internal_weight=0 1390 736 105 631 587 73 654 57 597 575 44 169
internal_count=1559 1390 736 105 631 587 73 654 57 597 575 44 169
is_linear=0
shrinkage=0.1


Tree=38
num_leaves=14
num_cat=0
split_feature=7 2 2 1 5 6 7 1 1 0 5 0 8
split_gain=0.131945 0.227924 0.551694 0.209556 0.253476 0.193239 0.184559 0.142295 0.276679 0.639396 0.4922 0.16539 0.162275
threshold=137.50000000000003 225.00000000000003 350.00000000000006 164.50000000000003 47.150000000000013 46.055000000000007 143.50000000000003 109.50000000000001 120.50000000000001 2.4350000000000005 36.250000000000007 2.7550000000000003 110.10000000000001
decision_type=2 2 2 2 2 2 2 2 2 2 2 2 2
left_child=7 3 -3 4 5 -2 -4 11 9 -9 -11 -1 -10
right_child=1 2 6 -5 -6 -7 -8 8 12 10 -12 -13 -14
leaf_value=-0.0010804215336547179 -7.971032971999887e-05 0.014918190695186096 0.0055639124737353997 -0.0085245422267616958 0.011886779858032243 0.0099805840823682969 -0.0074429733950334299 -0.0031083145359880292 -0.001276820294328491 0.002683786363543376 0.023155306566817066 -0.0091216430499604564 0.0045566588647060974
leaf_weight=68 421 38 20 25 20 20 24 50 734 23 24 41 51
leaf_count=68 421 38 20 25 20 20 24 50 734 23 24 41 51
internal_value=0 0.00121517 0.00609193 0.000392337 0.000875899 0.000376539 -0.00153075 -0.000696482 -0.000275236 0.00476329 0.0131373 -0.0041051 -0.00089783
internal_weight=0 568 82 486 461 441 44 991 882 97 47 109 785
internal_count=1559 568 82 486 461 441 44 991 882 97 47 109 785
is_linear=0
shrinkage=0.1


Tree=39
num_leaves=12
num_cat=0
split_feature=0 2 2 5 6 5 7 8 1 8 5
split_gain=0.125341 0.149106 0.620092 0.317365 0.289314 0.25972 0.161813 0.320411 0.146998 0.0508323 0.0822889
threshold=4.8750000000000009 350.00000000000006 225.00000000000003 39.650000000000013 35.300000000000004 41.850000000000001 103.50000000000001 71.665000000000006 162.50000000000003 82.925000000000011 35.050000000000004
decision_type=2 2 2 2 2 2 2 2 2 2 2
left_child=1 2 6 4 -4 9 7 -1 -8 10 -3
right_child=-2 5 3 -5 -6 -7 8 -9 -10 -11 -12
leaf_value=0.015079254116863013 0.0073274916240378563 -0.013409595305777408 0.0058294994756579403 0.0013524363478345256 0.022274724908335056 0.0045364409159110103 -0.00030541461659695855 -0.00055800666787514559 -0.0049239456481364081 -0.0036923176813710096 -0.0047604306812652139
leaf_weight=20 23 22 20 31 23 27 1231 38 73 29 22
leaf_count=20 23 22 20 31 23 27 1231 38 73 29 22
internal_value=0 -0.000109722 0.00015028 0.00906533 0.0146258 -0.00384334 -0.000334091 0.00483415 -0.000563967 -0.00694271 -0.00908501
internal_weight=0 1536 1436 74 43 100 1362 58 1304 73 44
internal_count=1559 1536 1436 74 43 100 1362 58 1304 73 44
is_linear=0
shrinkage=0.1


Tree=40
num_leaves=9
num_cat=0
split_feature=9 8 6 6 4 6 9 9
split_gain=0.122678 0.12834 0.192678 0.276456 0.271325 0.229018 0.162324 0.207631
threshold=17.850000000000005 115.55500000000002 29.800000000000001 35.300000000000004 1.0000000180025095e-35 39.315000000000005 13.65 9.6500000000000004
decision_type=2 2 2 2 2 2 2 2
left_child=1 2 6 4 -4 -5 7 -1
right_child=-2 -3 3 5 -6 -7 -8 -9
leaf_value=0.01013961188672554 -0.0056894116179161784 0.0059557970927877207 -0.0026440035786329062 0.0020389090467708986 -0.014972951498237394 -0.00078856819377835861 0.012584341242909431 -0.0022503738781731379
leaf_weight=21 37 37 119 438 21 828 20 38
leaf_count=21 37 37 119 438 21 828 20 38
internal_value=0 0.00013831 -6.6372e-06 -0.000276643 -0.00449335 0.000189659 0.00479879 0.00215962
internal_weight=0 1522 1485 1406 140 1266 79 59
internal_count=1559 1522 1485 1406 140 1266 79 59
is_linear=0
shrinkage=0.1


Tree=41
num_leaves=14
num_cat=0
split_feature=0 0 1 6 1 9 1 5 6 5 2 5 8
split_gain=0.112532 0.543108 0.533855 0.996472 0.610265 0.247328 0.263966 0.436879 0.410601 0.136641 0.1737 0.136249 0.120977
threshold=2.4350000000000005 2.5050000000000003 138.50000000000003 37.595000000000006 118.50000000000001 10.550000000000002 128.50000000000003 39.250000000000007 42.090000000000011 46.750000000000007 27.500000000000004 44.550000000000004 53.680000000000007
decision_type=2 2 2 2 2 2 2 2 2 2 2 2 2
left_child=9 2 3 -2 -5 -3 7 -7 -8 12 -11 -4 -1
right_child=1 5 11 4 -6 6 8 -9 -10 10 -12 -13 -14
leaf_value=-0.0085920666344463832 -0.0015389965591771949 -0.0038091488119391297 -0.0072100783655927939 0.010615284910992437 0.034193565519083112 0.002055847090863002 -0.003976613376744354 0.017354288879072383 0.0029550455118612278 -0.0015897361556364395 0.0087503673361425168 0.0037976610777980604 -0.0010547392435669226
leaf_weight=22 31 153 22 23 21 168 192 21 154 33 32 23 664
leaf_count=22 31 153 22 23 21 168 192 21 154 33 32 23 664
internal_value=0 0.000819086 0.00702693 0.0121934 0.0218686 -0.000263678 0.000750261 0.00375567 -0.000891424 -0.000881254 0.00350078 -0.0015839 -0.00129646
internal_weight=0 808 120 75 44 688 535 189 346 751 65 45 686
internal_count=1559 808 120 75 44 688 535 189 346 751 65 45 686
is_linear=0
shrinkage=0.1


Tree=42
num_leaves=14
num_cat=0
split_feature=7 2 4 8 8 0 1 2 0 0 5 0 7
split_gain=0.110442 0.225222 0.290348 0.334792 0.276493 0.211644 0.255396 0.210423 0.144146 0.218682 0.108204 0.102351 0.260855
threshold=148.50000000000003 55.000000000000007 1.0000000180025095e-35 61.615000000000009 84.545000000000016 2.4350000000000005 139.25000000000003 225.00000000000003 4.6250000000000009 4.1250000000000009 39.350000000000001 3.7900000000000005 129.50000000000003
decision_type=2 2 2 2 2 2 2 2 2 2 2 2 2
left_child=8 5 3 -3 -5 10 -7 -4 9 11 -2 -1 -13
right_child=1 2 7 4 -6 6 -8 -9 -10 -11 -12 12 -14
leaf_value=-0.00049752499800098215 -0.010530623404095725 0.009152952907606959 0.014717620762863329 -0.0063529910894034071 0.0073771879728883509 0.0099667995271307454 -0.004737213054405792 0.0025604362289110821 0.0076244059103456416 -0.0082218750412317212 -0.0022476631601381562 0.011872219602050989 -0.0030309693965439996
leaf_weight=1167 24 35 35 55 20 27 21 24 22 36 46 23 24
leaf_count=1167 24 35 35 55 20 27 21 24 22 36 46 23 24
internal_value=0 0.00177193 0.00411272 0.00107711 -0.00269161 -0.00158055 0.00353379 0.00977233 -0.000399799 -0.000541025 -0.00508754 -0.000313257 0.00426208
internal_weight=0 287 169 110 75 118 48 59 1272 1250 70 1214 47
internal_count=1559 287 169 110 75 118 48 59 1272 1250 70 1214 47
is_linear=0
shrinkage=0.1


Tree=43
num_leaves=14
num_cat=0
split_feature=2 3 9 6 9 9 0 9 0 2 8 1 2
split_gain=0.0986936 0.133716 0.311271 0.292677 0.307928 0.164692 0.125129 0.500934 0.326231 0.355322 0.242416 0.21192 0.19018
threshold=17.500000000000004 1.0000000180025095e-35 15.850000000000003 38.710000000000008 12.15 13.350000000000003 3.0150000000000001 15.050000000000002 2.4350000000000005 225.00000000000003 56.645000000000003 140.50000000000003 225.00000000000003
decision_type=2 2 2 2 2 2 2 2 2 2 2 2 2
left_child=-1 6 3 5 -5 -3 8 12 10 -10 -2 -9 -8
right_child=1 2 -4 4 -6 -7 7 11 9 -11 -12 -13 -14
leaf_value=-0.0022818417068286791 -0.010166632882491859 -0.0019856560385715363 -0.0084261156851425777 0.00051999965728056141 0.011554493398447946 0.0070613196155486198 -0.0026958022484834792 0.014575999043881894 0.0018501591785300227 0.01238403026489667 -0.00046263830106820349 0.0012405207595573022 -0.010765671501319636
leaf_weight=169 27 89 24 41 66 26 207 22 238 37 553 26 34
leaf_count=169 27 89 24 41 66 26 207 22 238 37 553 26 34
internal_value=0 0.000277433 0.00239252 0.00356211 0.00732632 5.97472e-05 -0.000177386 -0.00197626 0.000430654 0.00326744 -0.000914376 0.00735261 -0.00383429
internal_weight=0 1390 246 222 107 115 1144 289 855 275 580 48 241
internal_count=1559 1390 246 222 107 115 1144 289 855 275 580 48 241
is_linear=0
shrinkage=0.1


Tree=44
num_leaves=14
num_cat=0
split_feature=6 6 4 5 7 8 1 1 8 6 0 1 2
split_gain=0.0981598 0.266418 0.320912 0.178255 0.2065 0.381385 0.846554 0.363514 0.350756 0.365654 0.128276 0.195474 0.104527
threshold=35.710000000000008 29.800000000000001 1.0000000180025095e-35 29.450000000000003 148.50000000000003 58.235000000000007 131.50000000000003 138.50000000000003 50.205000000000005 36.275000000000013 3.1750000000000003 116.50000000000001 225.00000000000003
decision_type=2 2 2 2 2 2 2 2 2 2 2 2 2
left_child=1 10 -3 -2 8 6 -6 -7 -5 -10 11 12 -1
right_child=3 2 -4 4 5 7 -8 -9 9 -11 -12 -13 -14
leaf_value=-0.0084362470145736418 0.0080987801504369579 -0.0021951674937652492 -0.014109175962706409 -0.011465829412918538 -0.0017076977700723904 0.0056082805450635292 0.026423138435930017 -0.0032250052942092429 0.0097780164412041709 -0.00048235072064766165 0.0093520300230011347 0.0085500210709869868 0.0016651726793497801
leaf_weight=21 29 139 27 28 23 88 20 99 36 987 22 20 20
leaf_count=21 29 139 27 28 23 88 20 99 36 987 22 20 20
internal_value=0 -0.00182003 -0.00413299 0.000345946 0.000170433 0.00288452 0.0113764 0.000931835 -0.000423516 -0.000121282 0.00280587 0.000444962 -0.00350873
internal_weight=0 249 166 1310 1281 230 43 187 1051 1023 83 61 41
internal_count=1559 249 166 1310 1281 230 43 187 1051 1023 83 61 41
is_linear=0
shrinkage=0.1


Tree=45
num_leaves=7
num_cat=0
split_feature=1 5 8 1 1 9
split_gain=0.0947903 0.244165 0.194855 0.174197 0.216679 0.081752
threshold=83.500000000000014 29.650000000000002 115.55500000000002 98.500000000000014 103.50000000000001 12.850000000000003
decision_type=2 2 2 2 2 2
left_child=-1 5 3 -3 -5 -2
right_child=1 2 -4 4 -6 -7
leaf_value=-0.0049332325770879643 0.0032913519831543623 -0.0087251093704253432 0.0070726988456413361 0.0099484780914194521 -0.00028542417786707317 0.012014283175535856
leaf_weight=38 22 24 37 21 1396 21
leaf_count=38 22 24 37 21 1396 21
internal_value=0 0.00012325 -9.28599e-05 -0.000276847 -0.000133757 0.00755139
internal_weight=0 1521 1478 1441 1417 43
internal_count=1559 1521 1478 1441 1417 43
is_linear=0
shrinkage=0.1


Tree=46
num_leaves=10
num_cat=0
split_feature=7 7 8 0 9 9 8 0 5
split_gain=0.0939999 0.146718 0.244484 0.243294 0.145208 0.29321 0.255295 0.126131 0.0681474
threshold=170.50000000000003 169.50000000000003 74.710000000000022 2.7550000000000003 16.950000000000003 16.550000000000004 79.475000000000009 2.8350000000000004 42.550000000000004
decision_type=2 2 2 2 2 2 2 2 2
left_child=1 4 3 -3 5 7 -6 -1 -8
right_child=-2 2 -4 -5 6 -7 8 -9 -10
leaf_value=0.00055134771667962189 -0.0054515673388396543 0.0017607248947024347 -0.0033793623505398111 0.0173586101597175 -0.012391882298442607 0.011852519440331631 -0.0037033637220572147 -0.0015679146177606401 0.0044529099855571989
leaf_weight=984 31 20 23 20 26 21 21 393 20
leaf_count=984 31 20 23 20 26 21 21 393 20
internal_value=0 0.000110601 0.00483589 0.00955967 -9.26026e-05 0.00012535 -0.00464032 -5.34962e-05 0.000275306
internal_weight=0 1528 63 40 1465 1398 67 1377 41
internal_count=1559 1528 63 40 1465 1398 67 1377 41
is_linear=0
shrinkage=0.1


Tree=47
num_leaves=14
num_cat=0
split_feature=5 8 2 2 8 5 0 8 8 2 8 7 5
split_gain=0.0875909 0.756816 0.278104 0.446379 0.272177 0.323629 0.213043 0.157291 0.200936 0.12528 0.109659 0.070158 0.0632764
threshold=46.750000000000007 67.420000000000016 350.00000000000006 225.00000000000003 89.885000000000005 39.750000000000007 2.3600000000000003 117.79000000000001 109.11000000000001 27.500000000000004 84.910000000000011 135.50000000000003 35.050000000000004
decision_type=2 2 2 2 2 2 2 2 2 2 2 2 2
left_child=2 -2 3 7 5 -5 9 8 -1 -3 12 -8 -4
right_child=1 6 10 4 -6 -7 11 -9 -10 -11 -12 -13 -14
leaf_value=-0.00039737397804360912 0.017105487164267939 -0.000768921977930492 -0.012153351081845662 0.010277329947400306 0.015897414310333823 -0.0061449340943779268 -0.0025382471226437606 -0.0078655533251111159 0.0064857481608421299 0.008971824542538304 -0.0012553025109416529 -0.0094444143120199445 -0.0054050308927385653
leaf_weight=1175 28 31 24 28 26 21 38 27 44 23 37 24 33
leaf_count=1175 28 31 24 28 26 21 38 27 44 23 37 24 33
internal_value=0 0.00234965 -0.000239116 0.000134855 0.00762739 0.00323922 -0.0012121 -0.000316141 -0.000148927 0.00337991 -0.0054946 -0.0052116 -0.00824643
internal_weight=0 144 1415 1321 75 49 116 1246 1219 54 94 62 57
internal_count=1559 144 1415 1321 75 49 116 1246 1219 54 94 62 57
is_linear=0
shrinkage=0.1


Tree=48
num_leaves=12
num_cat=0
split_feature=6 6 4 5 8 0 1 0 5 0 9
split_gain=0.0802494 0.20998 0.291811 0.139994 0.188377 0.152199 0.135918 0.115498 0.153468 0.107725 0.0428763
threshold=35.435000000000009 30.210000000000004 1.0000000180025095e-35 29.450000000000003 115.55500000000002 4.6250000000000009 115.50000000000001 3.0900000000000003 31.050000000000004 1.925 13.850000000000003
decision_type=2 2 2 2 2 2 2 2 2 2 2
left_child=1 7 9 -2 5 6 -5 8 -1 -3 -11
right_child=3 2 -4 4 -6 -7 -8 -9 -10 10 -12
leaf_value=-0.005724914724539433 0.0070562778227031241 0.0025992912306849448 -0.014364892429591198 0.0028634581476623239 0.0072786645769762504 0.0080020216496094407 -0.00056674666398004892 0.0075937038339260552 0.0042724693413166443 -0.0027294335471464474 -0.0078988259436473963
leaf_weight=28 30 35 23 129 36 23 1105 27 34 68 21
leaf_count=28 30 35 23 129 36 23 1105 27 34 68 21
internal_value=0 -0.00169872 -0.00401969 0.000303022 0.000146334 -5.79335e-05 -0.00020816 0.00213479 -0.000242478 -0.00210082 -0.00394918
internal_weight=0 236 147 1323 1293 1257 1234 89 62 124 89
internal_count=1559 236 147 1323 1293 1257 1234 89 62 124 89
is_linear=0
shrinkage=0.1


Tree=49
num_leaves=13
num_cat=0
split_feature=7 6 6 9 6 6 0 8 9 3 8 1
split_gain=0.0772071 0.117108 0.459841 0.838893 0.248207 0.390605 0.294787 0.198897 0.181755 0.154581 0.14652 0.123927
threshold=170.50000000000003 42.005000000000003 42.445000000000007 12.550000000000002 39.315000000000005 39.045000000000009 2.5050000000000003 58.525000000000013 16.750000000000004 1.0000000180025095e-35 61.365000000000009 117.50000000000001
decision_type=2 2 2 2 2 2 2 2 2 2 2 2
left_child=1 4 3 -3 5 8 9 -4 -1 -6 -8 -9
right_child=-2 2 7 -5 6 -7 10 11 -10 -11 -12 -13
leaf_value=0.00043019991288976219 -0.0049406773861377477 -0.0020408719694504757 0.0082211457321356082 0.021416355906015573 -0.0010857311317800861 0.010483985341239819 -0.013427738917314195 0.0067758163153801279 -0.007421854041486738 0.0076123310860408385 -0.0046315297602953203 -0.00078288783868371451
leaf_weight=601 31 31 29 30 183 38 22 23 31 23 136 381
leaf_count=601 31 31 29 30 183 38 22 23 31 23 136 381
internal_value=0 0.000100236 0.0013668 0.00949547 -0.000504874 0.000637111 -0.00260688 0.000221655 4.50517e-05 -0.000114588 -0.00585632 -0.000352566
internal_weight=0 1528 494 61 1034 670 364 433 632 206 158 404
internal_count=1559 1528 494 61 1034 670 364 433 632 206 158 404
is_linear=0
shrinkage=0.1


Tree=50
num_leaves=14
num_cat=0
split_feature=0 0 1 5 9 6 6 1 7 8 5 5 9
split_gain=0.0805799 0.39055 0.403137 0.860306 0.168283 0.180141 0.494861 0.342191 0.107465 0.171231 0.133672 0.106711 0.100229
threshold=2.4350000000000005 2.5050000000000003 138.50000000000003 38.050000000000004 10.550000000000002 39.315000000000005 42.005000000000003 131.50000000000003 167.00000000000003 54.195000000000007 30.050000000000004 44.550000000000004 13.15
decision_type=2 2 2 2 2 2 2 2 2 2 2 2 2
left_child=8 2 3 -2 -3 7 -7 -6 9 -1 -11 -4 -12
right_child=1 4 11 -5 5 6 -8 -9 -10 10 12 -13 -14
leaf_value=-0.0092065728523514478 0.00015701341236798238 -0.0031496065556531278 -0.0065044724467125808 0.021594481192167021 0.0058405176769915253 -0.005749823100448726 0.0024023400820442475 -0.0021009280847802789 -0.0070625169733200613 0.007610915477077167 0.0004504767678477486 0.0032372373925602955 -0.0020531188658537759
leaf_weight=22 39 153 22 36 139 127 180 89 26 21 426 23 256
leaf_count=22 39 153 22 36 139 127 180 89 26 21 426 23 256
internal_value=0 0.000693114 0.00595736 0.010447 -0.000225068 0.000611295 -0.000970053 0.00274057 -0.000745721 -0.000519187 -0.00024732 -0.00152538 -0.000489289
internal_weight=0 808 120 75 688 535 307 228 751 725 703 45 682
internal_count=1559 808 120 75 688 535 307 228 751 725 703 45 682
is_linear=0
shrinkage=0.1


Tree=51
num_leaves=7
num_cat=0
split_feature=1 5 1 1 8 8
split_gain=0.078574 0.181867 0.147245 0.152656 0.133026 0.0833613
threshold=83.500000000000014 29.650000000000002 98.500000000000014 103.50000000000001 115.55500000000002 67.010000000000005
decision_type=2 2 2 2 2 2
left_child=-1 5 -3 -4 -5 -2
right_child=1 2 3 4 -6 -7
leaf_value=-0.0044914774155538333 0.011244746579322965 -0.0078432074903200082 0.0085181862476193127 -0.00022696179192796385 0.0058480572886765005 0.0024172525566941855
leaf_weight=38 20 24 21 1396 37 23
leaf_count=38 20 24 21 1396 37 23
internal_value=0 0.000112213 -7.43001e-05 5.39349e-05 -7.01051e-05 0.00652306
internal_weight=0 1521 1478 1454 1433 43
internal_count=1559 1521 1478 1454 1433 43
is_linear=0
shrinkage=0.1


Tree=52
num_leaves=14
num_cat=0
split_feature=6 6 4 6 6 7 2 2 9 6 9 0 6
split_gain=0.0777029 0.169584 0.174114 0.103669 0.267192 0.399831 0.284117 0.465135 0.236853 0.174784 0.227168 0.170589 0.140419
threshold=35.300000000000004 29.800000000000001 1.0000000180025095e-35 39.315000000000005 38.805000000000007 139.50000000000003 225.00000000000003 350.00000000000006 15.050000000000002 41.505000000000003 10.850000000000003 2.7550000000000003 42.445000000000007
decision_type=2 2 2 2 2 2 2 2 2 2 2 2 2
left_child=1 -1 -3 4 6 -6 8 -8 -2 10 -5 -12 -11
right_child=3 2 -4 9 5 -7 7 -9 -10 12 11 -13 -14
leaf_value=0.0019078154713672822 -0.0014495935320252709 -0.0022598809246148922 -0.011739189394385272 0.0021370063804810077 0.00084299521710674624 0.016758536740585608 0.018355207970704546 -0.0024514765520247499 0.006256558348768918 0.0033488378128847755 -0.0021529295696945806 -0.0083059804993822726 -0.00023737957760874959
leaf_weight=83 300 123 23 81 38 27 22 21 46 145 142 66 442
leaf_count=83 300 123 23 81 38 27 22 21 46 145 142 66 442
internal_value=0 -0.00170139 -0.0037532 0.000292946 0.00151932 0.00745407 0.000527653 0.0081938 -0.000425076 -0.000342641 -0.00235576 -0.00410534 0.000648483
internal_weight=0 229 146 1330 454 65 389 43 346 876 289 208 587
internal_count=1559 229 146 1330 454 65 389 43 346 876 289 208 587
is_linear=0
shrinkage=0.1


Tree=53
num_leaves=14
num_cat=0
split_feature=2 5 8 2 5 2 0 6 8 0 6 8 8
split_gain=0.0746502 0.181203 0.81528 0.260898 0.254714 0.321619 0.134675 0.113491 0.0983212 0.0964787 0.116208 0.0863956 0.0569996
threshold=35.000000000000007 46.750000000000007 68.050000000000011 350.00000000000006 45.850000000000001 225.00000000000003 3.0150000000000001 32.540000000000006 56.235000000000007 2.8750000000000004 46.32500000000001 84.795000000000016 66.715000000000018
decision_type=2 2 2 2 2 2 2 2 2 2 2 2 2
left_child=7 3 -3 4 5 -2 -4 -1 -9 10 -10 12 -5
right_child=1 2 6 11 -6 -7 -8 8 9 -11 -12 -13 -14
leaf_value=-0.0079224070322445848 0.00040871126914646962 0.022048598532343196 0.0031727155966281488 -0.0038809973364695911 -0.0081598303986773393 0.0073959938180313952 -0.0062185975794608779 0.0062844575615599758 -0.0015187872449526491 0.0052208428075537086 0.0045226026332677392 -0.0012543796769349661 -0.010346267453084389
leaf_weight=22 675 21 37 25 31 73 26 20 501 25 34 39 30
leaf_count=22 675 21 37 25 31 73 26 20 501 25 34 39 30
internal_value=0 0.000548826 0.00498485 0.000121992 0.000722507 0.00109063 -0.000703064 -0.00087247 -0.000605058 -0.000851112 -0.00113485 -0.00485461 -0.00740751
internal_weight=0 957 84 873 779 748 63 602 580 560 535 94 55
internal_count=1559 957 84 873 779 748 63 602 580 560 535 94 55
is_linear=0
shrinkage=0.1


Tree=54
num_leaves=14
num_cat=0
split_feature=8 7 8 1 0 8 2 4 5 6 7 9 5
split_gain=0.0650373 0.3823 0.298721 0.340171 0.662363 0.551382 0.251643 0.282586 0.21813 0.202321 0.160346 0.16192 0.150191
threshold=84.370000000000019 170.50000000000003 93.945000000000007 143.50000000000003 2.4350000000000005 87.745000000000019 225.00000000000003 1.0000000180025095e-35 40.45000000000001 41.755000000000003 103.50000000000001 16.950000000000003 46.750000000000007
decision_type=2 2 2 2 2 2 2 2 2 2 2 2 2
left_child=1 10 3 4 -2 -6 7 9 -9 -4 -1 12 -12
right_child=2 -3 6 -5 5 -7 -8 8 -10 -11 11 -13 -14
leaf_value=0.0062612854277815768 3.4088010355013846e-05 -0.013239960514170968 -0.0028422626271354342 -0.0016198572613202818 0.024184632537487365 0.0064578906239129291 0.0063108208498395078 -0.013094709961759774 -0.0030855623834213477 0.0034138904845652483 -0.00057214227716599034 -0.00702685987085311 0.0042252315815807075
leaf_weight=37 81 23 112 83 28 47 41 33 64 96 807 36 71
leaf_count=37 81 23 112 83 28 47 41 33 64 96 807 36 71
internal_value=0 -0.00050056 0.000833412 0.00355232 0.00630418 0.0130759 -0.00104468 -0.00203345 -0.00649074 4.51927e-05 -0.000192457 -0.000453714 -0.0001842
internal_weight=0 974 585 239 156 75 346 305 97 208 951 914 878
internal_count=1559 974 585 239 156 75 346 305 97 208 951 914 878
is_linear=0
shrinkage=0.1


Tree=55
num_leaves=13
num_cat=0
split_feature=6 9 6 4 9 9 0 5 7 8 8 0
split_gain=0.0619522 0.178332 0.122565 0.159081 0.152354 0.206647 0.11843 0.128922 0.1816 0.319267 0.26192 0.0593905
threshold=35.710000000000008 15.950000000000001 30.210000000000004 1.0000000180025095e-35 11.550000000000002 9.1500000000000004 4.6250000000000009 29.450000000000003 148.50000000000003 50.205000000000005 58.235000000000007 1.925
decision_type=2 2 2 2 2 2 2 2 2 2 2 2
left_child=1 2 4 11 5 -1 7 -2 9 -9 -10 -4
right_child=6 -3 3 -5 -6 -7 -8 8 10 -11 -12 -13
leaf_value=0.0066705510902102111 0.0068590551806015105 -0.0094565916061401384 0.0025936281683647797 -0.0098831232110767261 0.0080986574862993536 -0.0068499071344446678 0.007387307537314685 -0.011288877576589584 0.0099209786718711251 -0.00027033668475215199 0.00098390478188566002 -0.0022278124579315772
leaf_weight=20 28 25 36 23 31 26 23 27 40 1010 182 88
leaf_count=20 28 25 36 23 31 26 23 27 40 1010 182 88
internal_value=0 -0.00144591 -0.000551861 -0.00224482 0.00268015 -0.000971447 0.000274833 0.000147726 -1.53291e-06 -0.000557223 0.00259419 -0.000828039
internal_weight=0 249 224 147 77 46 1310 1287 1259 1037 222 124
internal_count=1559 249 224 147 77 46 1310 1287 1259 1037 222 124
is_linear=0
shrinkage=0.1


Tree=56
num_leaves=6
num_cat=0
split_feature=1 1 8 1 1
split_gain=0.062876 0.14078 0.104695 0.0956982 0.0948563
threshold=83.500000000000014 94.500000000000014 115.55500000000002 98.500000000000014 103.50000000000001
decision_type=2 2 2 2 2
left_child=-1 -2 3 -3 -5
right_child=1 2 -4 4 -6
leaf_value=-0.004017837422801868 0.0075425741234794261 -0.0062909984649159026 0.0052292166831525606 0.0063199985853355858 -0.00015411238261730248
leaf_weight=38 25 25 37 23 1411
leaf_count=38 25 25 37 23 1411
internal_value=0 0.00010038 -2.39883e-05 -0.000157209 -5.02738e-05
internal_weight=0 1521 1496 1459 1434
internal_count=1559 1521 1496 1459 1434
is_linear=0
shrinkage=0.1


Tree=57
num_leaves=13
num_cat=0
split_feature=5 1 8 9 9 7 7 7 7 8 8 6
split_gain=0.0569081 0.300199 0.246577 0.169365 0.178078 0.150496 0.1131 0.104473 0.117524 0.338165 0.138515 0.0408473
threshold=36.95000000000001 121.50000000000001 79.080000000000013 16.150000000000002 15.050000000000002 106.50000000000001 121.50000000000001 170.50000000000003 156.50000000000003 74.710000000000022 50.205000000000005 39.315000000000005
decision_type=2 2 2 2 2 2 2 2 2 2 2 2
left_child=3 2 11 4 5 -1 -7 8 10 -10 -3 -2
right_child=1 7 -4 -5 -6 6 -8 -9 9 -11 -12 -13
leaf_value=0.0056314938556170091 -0.001822351695418114 -0.0079195259381895488 0.012751868308302673 -0.009197398571996019 0.0077999894293801237 -0.0044624719087061329 -0.00038258989269688388 -0.0068985083627260543 0.0091129328281623397 -0.0032787786592962222 -6.775878440005077e-05 0.0044148128302324381
leaf_weight=30 21 23 34 24 24 104 196 22 49 40 971 21
leaf_count=30 21 23 34 24 24 104 196 22 49 40 971 21
internal_value=0 0.00034181 0.00642112 -0.00106793 -0.00051678 -0.00112164 -0.00179695 -7.63145e-05 6.22712e-05 0.00354362 -0.00024944 0.00129623
internal_weight=0 1181 76 378 354 330 300 1105 1083 89 994 42
internal_count=1559 1181 76 378 354 330 300 1105 1083 89 994 42
is_linear=0
shrinkage=0.1


Tree=58
num_leaves=14
num_cat=0
split_feature=0 0 5 5 6 9 1 5 9 8 5 8 8
split_gain=0.0535659 0.304562 0.314379 0.592508 0.238244 0.141127 0.192756 0.31139 0.195157 0.112634 0.105648 0.0992349 0.323792
threshold=2.4350000000000005 2.5050000000000003 42.850000000000001 38.050000000000004 40.895000000000003 11.250000000000002 121.50000000000001 36.95000000000001 16.550000000000004 80.050000000000026 29.200000000000003 81.00500000000001 87.745000000000019
decision_type=2 2 2 2 2 2 2 2 2 2 2 2 2
left_child=10 2 3 -2 -5 11 7 -7 -8 -4 -1 -3 -13
right_child=1 5 9 4 -6 6 8 -9 -10 -11 -12 12 -14
leaf_value=-0.0072808679598181146 9.2035075888419771e-06 -0.0039769094843549006 0.0032817765185609461 0.009787446712808949 0.025037735218647869 0.0010382564528003695 -0.0012177472166535646 0.012649721798516112 0.0063548114959542691 -0.0073311454663053154 -0.00039718612784746753 0.011044206889623423 -0.0037525930241681634
leaf_weight=23 39 138 20 21 20 83 326 32 38 20 728 21 50
leaf_count=23 39 138 20 21 20 83 326 32 38 20 728 21 50
internal_value=0 0.000565113 0.00521386 0.00883313 0.0172266 -0.000245714 0.000700342 0.00426927 -0.000427205 -0.00202468 -0.000608005 -0.00241395 0.000623925
internal_weight=0 808 120 80 41 688 479 115 364 40 751 209 71
internal_count=1559 808 120 80 41 688 479 115 364 40 751 209 71
is_linear=0
shrinkage=0.1


Tree=59
num_leaves=14
num_cat=0
split_feature=9 6 5 8 6 0 9 1 9 1 8 8 2
split_gain=0.0549177 0.218762 0.223535 0.414091 0.222785 0.209494 0.267046 0.170546 0.151819 0.146264 0.434733 0.285706 0.243534
threshold=13.850000000000003 46.205000000000005 47.45000000000001 69.530000000000015 47.170000000000009 3.5100000000000002 14.65 152.50000000000003 13.65 127.50000000000001 59.020000000000003 95.15000000000002 35.000000000000007
decision_type=2 2 2 2 2 2 2 2 2 2 2 2 2
left_child=1 2 7 -4 -3 9 -7 8 -1 11 -11 12 -2
right_child=5 4 3 -5 -6 6 -8 -9 -10 10 -12 -13 -14
leaf_value=-8.9209211071712333e-05 -0.0053975882920591781 0.015051511593628676 0.017751440304564312 0.0002689229150183521 0.0011265304094801346 -0.0037912547867745162 0.011126473704352977 -0.0041544747600496257 0.0069241036591847667 -0.016465396067889576 -0.0018097079872654563 -0.0097087150998413571 0.0061573465079020123
leaf_weight=871 24 20 20 42 27 20 30 102 32 22 253 20 76
leaf_count=871 24 20 20 42 27 20 30 102 32 22 253 20 76
internal_value=0 0.00037512 8.10096e-05 0.00590844 0.00705205 -0.000939065 0.00515938 -0.000278494 0.000159325 -0.00171102 -0.00298216 0.00120202 0.00338416
internal_weight=0 1114 1067 62 47 445 50 1005 903 395 275 120 100
internal_count=1559 1114 1067 62 47 445 50 1005 903 395 275 120 100
is_linear=0
shrinkage=0.1


Tree=60
num_leaves=14
num_cat=0
split_feature=8 7 8 1 0 8 2 4 5 7 8 7 9
split_gain=0.0505255 0.31099 0.221594 0.239815 0.473755 0.438694 0.206844 0.233275 0.179702 0.179547 0.139216 0.120706 0.132109
threshold=84.370000000000019 170.50000000000003 93.945000000000007 143.50000000000003 2.4350000000000005 86.710000000000022 225.00000000000003 1.0000000180025095e-35 40.45000000000001 144.50000000000003 101.575 103.50000000000001 16.950000000000003
decision_type=2 2 2 2 2 2 2 2 2 2 2 2 2
left_child=1 11 3 4 -2 -6 7 9 -9 -4 -8 -1 -13
right_child=2 -3 6 -5 5 -7 10 8 -10 -11 -12 12 -14
leaf_value=0.0054361626266728382 8.4100408648625068e-05 -0.01193119266839779 -0.00092678978314742811 -0.0012664044692888661 0.02379670122638345 0.0065019193545661188 -0.00018529947788920254 -0.011823303259514048 -0.0027385108137423231 0.0084417252948143246 0.011472388658495177 -0.00014654004299847413 -0.0063272954288145743
leaf_weight=37 81 23 185 83 20 55 20 33 64 23 21 878 36
leaf_count=37 81 23 185 83 20 55 20 33 64 23 21 878 36
internal_value=0 -0.000441195 0.000734571 0.00307632 0.00538687 0.0111139 -0.000882994 -0.00177944 -0.00582921 0.000109152 0.00578571 -0.000163309 -0.000389983
internal_weight=0 974 585 239 156 75 346 305 97 208 41 951 914
internal_count=1559 974 585 239 156 75 346 305 97 208 41 951 914
is_linear=0
shrinkage=0.1


Tree=61
num_leaves=14
num_cat=0
split_feature=2 2 4 8 5 0 8 8 4 4 6 5 9
split_gain=0.0502337 0.189247 0.182632 0.182482 0.240445 0.118046 0.08662 0.260046 0.202771 0.188953 0.145643 0.145558 0.0426193
threshold=350.00000000000006 225.00000000000003 1.0000000180025095e-35 89.885000000000005 39.750000000000007 3.2750000000000004 93.945000000000007 92.445000000000007 1.0000000180025095e-35 1.0000000180025095e-35 41.755000000000003 40.45000000000001 13.15
decision_type=2 2 2 2 2 2 2 2 2 2 2 2 2
left_child=1 6 5 4 -3 12 7 8 -1 10 -8 -11 -2
right_child=2 3 -4 -5 -6 -7 9 -9 -10 11 -12 -13 -14
leaf_value=-0.0005256531721527074 -0.0049326856094733659 0.0075172720610031073 0.0046159399287967846 0.011815404376158349 -0.0066379767177360402 0.001054302133222033 -0.0023516154838944207 0.010387540739029647 0.0033214437944519173 -0.010640973111378228 0.0029563974570616363 -0.0024646596606885396 -0.01076952423000793
leaf_weight=888 29 28 29 26 21 24 112 25 162 33 96 64 22
leaf_count=888 29 28 29 26 21 24 112 25 162 33 96 64 22
internal_value=0 0.000151761 -0.00212319 0.00504382 0.00145074 -0.00472899 -0.000114112 0.000307891 6.78989e-05 -0.0016015 9.82366e-05 -0.00524629 -0.00745054
internal_weight=0 1455 104 75 49 75 1380 1075 1050 305 208 97 51
internal_count=1559 1455 104 75 49 75 1380 1075 1050 305 208 97 51
is_linear=0
shrinkage=0.1


Tree=62
num_leaves=14
num_cat=0
split_feature=6 9 9 6 2 3 6 6 1 9 5 1 1
split_gain=0.0522971 0.126694 0.100496 0.13456 0.211193 0.0858617 0.0844424 0.208431 0.221357 0.578131 0.160796 0.140542 0.3004
threshold=35.095000000000006 8.8500000000000032 10.350000000000003 30.210000000000004 225.00000000000003 1.0000000180025095e-35 39.315000000000005 39.045000000000009 128.50000000000003 10.950000000000001 39.050000000000004 133.50000000000003 135.50000000000003
decision_type=2 2 2 2 2 2 2 2 2 2 2 2 2
left_child=1 -1 -3 4 -4 -5 7 8 9 -2 -10 -8 -13
right_child=6 2 3 5 -6 -7 11 -9 10 -11 -12 12 -14
leaf_value=0.0043694403633708139 -0.0039860207451799306 -0.0077430526512519762 0.006482761448714883 -0.0022089823896531014 -0.0061027502454817292 -0.0095831988099962483 -0.0023499807223211974 0.0083184230272682052 0.0044751305333099881 0.0073636310753320946 -0.0025587594840061896 0.0082333242029721011 -0.00016212419817748016
leaf_weight=32 71 30 40 75 20 20 250 39 39 122 195 46 580
leaf_count=32 71 30 40 75 20 20 250 39 39 122 195 46 580
internal_value=0 -0.00144033 -0.00244526 -0.00141989 0.00228759 -0.00376145 0.0002329 0.00132048 0.000681329 0.00318837 -0.00138644 -0.000345656 0.000454794
internal_weight=0 217 185 155 60 95 1342 466 427 193 234 876 626
internal_count=1559 217 185 155 60 95 1342 466 427 193 234 876 626
is_linear=0
shrinkage=0.1


Tree=63
num_leaves=14
num_cat=0
split_feature=5 1 0 4 6 9 9 7 5 9 0 0 0
split_gain=0.0506229 0.176398 0.218895 0.206136 0.15062 0.142549 0.124015 0.106127 0.102896 0.0780863 0.324363 0.166089 0.188653
threshold=36.95000000000001 123.50000000000001 2.2250000000000005 1.0000000180025095e-35 38.295000000000009 16.150000000000002 15.050000000000002 106.50000000000001 29.650000000000002 16.550000000000004 2.9500000000000006 3.0900000000000003 3.2750000000000004
decision_type=2 2 2 2 2 2 2 2 2 2 2 2 2
left_child=5 2 -2 4 -4 6 7 -1 -9 11 -11 -3 -13
right_child=1 9 3 -5 -6 -7 -8 8 -10 10 -12 12 -14
leaf_value=0.0046645997650921348 -0.0051468484423821794 0.0003624900808913014 0.0049925934559472938 -0.00051183681911684943 0.015371565958829943 -0.0084653888246975836 0.0064388371441358077 0.0022095251643773298 -0.0024801117884214537 -0.0014526002172319948 0.013546484065729947 -0.0091944500255570008 -0.0013701668179142605
leaf_weight=30 20 809 29 28 27 24 24 58 242 46 21 38 163
leaf_count=30 20 809 29 28 27 24 24 58 242 46 21 38 163
internal_value=0 0.000322383 0.00425528 0.00649388 0.00999674 -0.00100723 -0.000501595 -0.00100635 -0.00157345 -5.73958e-05 0.00324861 -0.000276705 -0.00284938
internal_weight=0 1181 104 84 56 378 354 330 300 1077 67 1010 201
internal_count=1559 1181 104 84 56 378 354 330 300 1077 67 1010 201
is_linear=0
shrinkage=0.1


Tree=64
num_leaves=6
num_cat=0
split_feature=1 1 8 1 1
split_gain=0.0495856 0.122119 0.0780515 0.0714922 0.0728516
threshold=83.500000000000014 94.500000000000014 115.55500000000002 98.500000000000014 103.50000000000001
decision_type=2 2 2 2 2
left_child=-1 -2 3 -3 -5
right_child=1 2 -4 4 -6
leaf_value=-0.0035680229349772594 0.0070205798475071789 -0.005443307188339532 0.0045090858019082936 0.0055334109651005783 -0.00014029169217681005
leaf_weight=38 25 25 37 23 1411
leaf_count=38 25 25 37 23 1411
internal_value=0 8.91419e-05 -2.66909e-05 -0.000141717 -4.92909e-05
internal_weight=0 1521 1496 1459 1434
internal_count=1559 1521 1496 1459 1434
is_linear=0
shrinkage=0.1


Tree=65
num_leaves=14
num_cat=0
split_feature=9 6 0 5 8 0 2 2 5 8 7 8 9
split_gain=0.0491653 0.177015 0.250845 0.20315 0.303284 0.154764 0.286565 0.237912 0.154112 0.385755 0.2311 0.178207 0.159655
threshold=13.850000000000003 45.470000000000006 2.4350000000000005 47.45000000000001 69.885000000000005 2.8350000000000004 225.00000000000003 225.00000000000003 39.95000000000001 57.88000000000001 124.50000000000001 65.405000000000015 16.050000000000004
decision_type=2 2 2 2 2 2 2 2 2 2 2 2 2
left_child=1 3 -3 5 -5 7 -7 -1 10 -10 -2 -11 -12
right_child=8 2 -4 4 -6 6 -8 -9 9 11 12 -13 -14
leaf_value=-0.00019910217388359287 -0.0035135141844558162 -0.00058630805977277073 0.011062333735632517 0.015721717361884657 0.00063984001346398148 -0.00093466533490222856 -0.0097107132528352937 0.0055362913033871058 -0.015775940888561307 0.0072544245996554804 0.0065109890574240135 -0.002179274466914551 -0.0014329949897286054
leaf_weight=613 63 38 36 20 40 241 44 82 20 22 80 223 37
leaf_count=613 63 38 36 20 40 241 44 82 20 22 80 223 37
internal_value=0 0.000354931 0.0050806 1.86812e-05 0.00566713 -0.000327142 -0.00228956 0.000477592 -0.000888523 -0.00242226 0.00136948 -0.00133217 0.00399879
internal_weight=0 1114 74 1040 60 980 285 695 445 265 180 245 117
internal_count=1559 1114 74 1040 60 980 285 695 445 265 180 245 117
is_linear=0
shrinkage=0.1


Tree=66
num_leaves=10
num_cat=0
split_feature=5 1 6 9 9 9 9 0 9
split_gain=0.0456978 0.146369 0.114389 0.101525 0.108991 0.107253 0.161372 0.0768914 0.102101
threshold=36.050000000000004 112.50000000000001 29.800000000000001 16.050000000000004 15.050000000000002 14.15 13.550000000000002 4.3750000000000009 13.850000000000003
decision_type=2 2 2 2 2 2 2 2 2
left_child=3 -2 -3 4 5 6 -1 8 -4
right_child=1 2 7 -5 -6 -7 -8 -9 -10
leaf_value=-0.0014143401722723243 0.007054347546410657 0.0075966911320574579 0.00042970797074013865 -0.0076372314392673703 0.0065317420056089761 -0.0073573802161699857 0.0066608595828126591 0.004589455982204527 -0.0016349513688658777
leaf_weight=213 31 20 828 22 20 25 28 35 337
leaf_count=213 31 20 828 22 20 25 28 35 337
internal_value=0 0.00026864 9.62167e-05 -0.00109113 -0.000587588 -0.00112288 -0.000476143 -2.87912e-05 -0.000167537
internal_weight=0 1251 1220 308 286 266 241 1200 1165
internal_count=1559 1251 1220 308 286 266 241 1200 1165
is_linear=0
shrinkage=0.1


Tree=67
num_leaves=11
num_cat=0
split_feature=8 8 1 8 9 8 5 7 5 8
split_gain=0.0427335 0.373941 0.176044 0.278343 0.16607 0.150353 0.141888 0.110737 0.0828669 0.113391
threshold=56.645000000000003 58.525000000000013 144.25000000000003 50.205000000000005 12.050000000000002 53.680000000000007 25.600000000000005 139.50000000000003 28.350000000000005 59.625000000000007
decision_type=2 2 2 2 2 2 2 2 2 2
left_child=2 7 3 4 -1 -5 -3 -2 -8 -10
right_child=1 6 -4 5 -6 -7 8 -9 9 -11
leaf_value=-0.0040648075488313815 0.0044493370709697841 -0.0082794427029078913 0.0064126202674663589 -0.014919168952937155 0.0056165229982218234 -0.0041097816800878895 0.0057078784257173542 0.014493142245780855 -0.0069145315814239444 2.2308277626431661e-05
leaf_weight=34 23 21 23 22 37 31 25 21 24 1298
leaf_count=34 23 21 23 22 37 31 25 21 24 1298
internal_value=0 0.000168928 -0.00162263 -0.00311304 0.000980393 -0.0085967 -0.000122927 0.00924297 4.23485e-06 -0.000103625
internal_weight=0 1412 147 124 71 53 1368 44 1347 1322
internal_count=1559 1412 147 124 71 53 1368 44 1347 1322
is_linear=0
shrinkage=0.1


Tree=68
num_leaves=12
num_cat=0
split_feature=8 7 8 0 0 7 2 7 9 9 0
split_gain=0.0399547 0.236619 0.17171 0.272212 0.104023 0.12126 0.169804 0.0954668 0.0957002 0.184587 0.00928699
threshold=84.370000000000019 170.50000000000003 86.710000000000022 2.4350000000000005 4.0150000000000015 163.50000000000003 225.00000000000003 103.50000000000001 17.450000000000003 16.650000000000002 1.925
decision_type=2 2 2 2 2 2 2 2 2 2 2
left_child=1 7 3 10 5 6 -4 -1 9 -9 -2
right_child=2 -3 4 -5 -6 -7 -8 8 -10 -11 -12
leaf_value=0.0048298120706316994 0.0016368040951657229 -0.010414732794236879 -0.0006262164951674528 0.012936186987125049 -0.0055988500961252768 0.0080004830670077354 0.0054906799781248069 -0.00039854065887604456 -0.0064534207284450531 0.0093183360429247835 -0.0013096036971546711
leaf_weight=37 23 23 412 28 31 20 51 869 25 20 20
leaf_count=37 23 23 412 28 31 20 51 869 25 20 20
internal_value=0 -0.000392337 0.000653225 0.00526292 1.64762e-05 0.00037688 4.75669e-05 -0.000149945 -0.000351532 -0.000179938 0.000266382
internal_weight=0 974 585 71 514 483 463 951 914 889 43
internal_count=1559 974 585 71 514 483 463 951 914 889 43
is_linear=0
shrinkage=0.1


Tree=69
num_leaves=12
num_cat=0
split_feature=5 1 9 6 9 8 5 4 9 0 9
split_gain=0.0407498 0.115384 0.0917322 0.088192 0.0825625 0.0941418 0.190579 0.0930067 0.06913 0.227852 0.126666
threshold=36.050000000000004 112.50000000000001 16.050000000000004 29.800000000000001 15.050000000000002 62.085000000000008 29.650000000000002 1.0000000180025095e-35 16.550000000000004 2.9500000000000006 13.850000000000003
decision_type=2 2 2 2 2 2 2 2 2 2 2
left_child=2 -2 4 -3 5 6 -1 -7 10 -10 -5
right_child=1 3 -4 8 -6 7 -8 -9 9 -11 -12
leaf_value=0.0098644298458979898 0.0062784770901705466 0.0066864179912954572 -0.0072527593444895247 0.00039627417610817108 0.0056446024682372808 -0.0031261276063822467 -0.0016248103044095583 0.0023102127026784452 -0.00089288729394502303 0.01096075640525669 -0.0020785460645915436
leaf_weight=22 31 20 22 853 20 163 42 39 50 24 273
leaf_count=22 31 20 22 853 20 163 42 39 50 24 273
internal_value=0 0.00025368 -0.00103037 0.000100591 -0.000551724 -0.00101761 0.00232462 -0.00207654 -9.17285e-06 0.00295154 -0.000203749
internal_weight=0 1251 308 1220 286 266 64 202 1200 74 1126
internal_count=1559 1251 308 1220 286 266 64 202 1200 74 1126
is_linear=0
shrinkage=0.1


Tree=70
num_leaves=14
num_cat=0
split_feature=6 9 8 8 8 6 6 1 9 5 1 1 0
split_gain=0.0390746 0.0982565 0.0956512 0.0733229 0.114039 0.0644167 0.173713 0.174596 0.427133 0.125693 0.116616 0.229309 0.303914
threshold=35.095000000000006 8.8500000000000032 99.030000000000015 71.355000000000018 80.455000000000013 39.315000000000005 39.045000000000009 128.50000000000003 10.950000000000001 39.050000000000004 133.50000000000003 135.50000000000003 2.4350000000000005
decision_type=2 2 2 2 2 2 2 2 2 2 2 2 2
left_child=1 -1 3 -3 -5 6 7 8 -2 -9 -7 12 -12
right_child=5 2 -4 4 -6 10 -8 9 -10 -11 11 -13 -14
leaf_value=0.0038713631540304052 -0.0033724401515095276 -0.0036195616119106206 -0.0086610961612313998 0.0056295672548003495 -0.0019428428802126228 -0.0021297617883654311 0.0075398160890938759 0.0039137264109274095 0.0063830947761088002 -0.0023051876223866992 9.227351245219605e-05 -0.00011386324681584014 0.016488841390237215
leaf_weight=32 71 76 20 30 59 250 39 39 122 195 26 580 20
leaf_count=32 71 76 20 30 59 250 39 39 122 195 26 580 20
internal_value=0 -0.001245 -0.00213 -0.00133835 0.000609655 0.000201316 0.00115123 0.000567724 0.00279427 -0.0012687 -0.000304001 0.000425136 0.00722122
internal_weight=0 217 185 165 89 1342 466 427 193 234 876 626 46
internal_count=1559 217 185 165 89 1342 466 427 193 234 876 626 46
is_linear=0
shrinkage=0.1


Tree=71
num_leaves=10
num_cat=0
split_feature=1 1 5 2 2 6 5 6 5
split_gain=0.0386205 0.179652 0.120684 0.122087 0.15139 0.106738 0.0949301 0.0304275 0.0231575
threshold=162.50000000000003 160.50000000000003 47.150000000000013 350.00000000000006 225.00000000000003 42.195000000000007 50.250000000000007 42.805000000000007 48.350000000000001
decision_type=2 2 2 2 2 2 2 2 2
left_child=1 2 3 4 -1 -5 7 -2 -9
right_child=6 -3 -4 5 -6 -7 -8 8 -10
leaf_value=-0.00018411788680072335 -0.0068018848420858084 0.0082015440041518402 0.0058561092298238214 -0.0019030521827517078 0.0045013243576498985 -0.010136723571922631 0.0037614404467777129 0.0001081153191626072 -0.0047041094512678683
leaf_weight=1246 24 27 34 74 73 20 21 20 20
leaf_count=1246 24 27 34 74 73 20 21 20 20
internal_value=0 0.000119522 -3.12832e-05 -0.000172947 7.51977e-05 -0.0036549 -0.00207265 -0.00398695 -0.002298
internal_weight=0 1474 1447 1413 1319 94 85 64 40
internal_count=1559 1474 1447 1413 1319 94 85 64 40
is_linear=0
shrinkage=0.1


Tree=72
num_leaves=11
num_cat=0
split_feature=8 8 1 8 9 8 5 7 5 8
split_gain=0.0379075 0.305332 0.145537 0.215652 0.142488 0.121172 0.119395 0.087867 0.0712466 0.0885798
threshold=56.645000000000003 58.525000000000013 144.25000000000003 50.205000000000005 12.050000000000002 53.680000000000007 25.600000000000005 139.50000000000003 28.350000000000005 59.625000000000007
decision_type=2 2 2 2 2 2 2 2 2 2
left_child=2 7 3 4 -1 -5 -3 -2 -8 -10
right_child=1 6 -4 5 -6 -7 8 -9 9 -11
leaf_value=-0.0039535871624727459 0.0040885258425513047 -0.0075867359709393765 0.005777666703089262 -0.013386047786017034 0.0050140619982738761 -0.0036821396360474249 0.0053006647964939473 0.013035282794208753 -0.0061078041777363982 2.3320345166035491e-05
leaf_weight=34 23 21 23 22 37 31 25 21 24 1298
leaf_count=34 23 21 23 22 37 31 25 21 24 1298
internal_value=0 0.000159104 -0.00152826 -0.0028834 0.000719695 -0.00771018 -0.000104622 0.00835857 1.20261e-05 -8.7986e-05
internal_weight=0 1412 147 124 71 53 1368 44 1347 1322
internal_count=1559 1412 147 124 71 53 1368 44 1347 1322
is_linear=0
shrinkage=0.1


Tree=73
num_leaves=14
num_cat=0
split_feature=8 7 8 1 0 8 2 5 2 7 8 6 8
split_gain=0.0359377 0.181497 0.144119 0.17955 0.323267 0.288595 0.109039 0.165909 0.110711 0.105855 0.103329 0.0996659 0.0943718
threshold=84.370000000000019 170.50000000000003 93.945000000000007 143.50000000000003 2.4350000000000005 86.710000000000022 225.00000000000003 35.650000000000013 35.000000000000007 141.50000000000003 109.11000000000001 42.975000000000001 101.575
decision_type=2 2 2 2 2 2 2 2 2 2 2 2 2
left_child=1 -1 3 4 -2 -6 7 8 -4 11 -9 -5 -8
right_child=2 -3 6 9 5 -7 12 10 -10 -11 -12 -13 -14
leaf_value=-0.00015980222831608393 0.00012697726398286767 -0.0091498102405634923 -0.0021829511670927917 -0.0032785399948366948 0.019524858156219127 0.00549739907971922 -0.00075928252656012776 -0.0016513863525285976 -0.012578862505033612 -0.0075878996239043782 0.0027533516630756896 0.0046773324469540972 0.0088388889939302502
leaf_weight=951 81 23 21 31 20 55 20 190 20 20 74 32 21
leaf_count=951 81 23 21 31 20 55 20 190 20 20 74 32 21
internal_value=0 -0.000372092 0.000619517 0.00250804 0.0045073 0.00923805 -0.000684981 -0.00133585 -0.00725413 -0.00124962 -0.000416725 0.000762538 0.00415685
internal_weight=0 974 585 239 156 75 346 305 41 83 264 63 41
internal_count=1559 974 585 239 156 75 346 305 41 83 264 63 41
is_linear=0
shrinkage=0.1


Tree=74
num_leaves=14
num_cat=0
split_feature=0 9 6 5 2 9 7 2 9 0 9 2 8
split_gain=0.0353152 0.160883 0.395386 0.215714 0.139533 0.151561 0.133455 0.115237 0.276078 0.363656 0.354883 0.195486 0.124777
threshold=2.8750000000000004 15.050000000000002 42.605000000000011 36.95000000000001 225.00000000000003 13.850000000000003 110.50000000000001 35.000000000000007 14.550000000000002 1.925 10.950000000000001 22.500000000000004 89.225000000000009
decision_type=2 2 2 2 2 2 2 2 2 2 2 2 2
left_child=7 4 3 -3 5 6 -2 11 9 -9 -11 -1 -13
right_child=1 2 -4 -5 -6 -7 -8 8 -10 10 -12 12 -14
leaf_value=0.00021478110521406239 0.0055733232866399564 1.3278416273268787e-05 -0.0080098749413578356 0.012649919502769731 -0.0061434934749788808 -0.005732823556396538 -0.00074126186878795315 -0.0015884248043993396 -0.003043774786659072 -0.00024012751338121138 0.0073291099256585883 -0.0062123808406393567 0.0023856883247693381
leaf_weight=466 39 22 22 35 57 52 236 139 111 95 178 86 21
leaf_count=466 39 22 22 35 57 52 236 139 111 95 178 86 21
internal_value=0 -0.000732272 0.00337749 0.00777262 -0.00157777 -0.000781911 0.000154261 0.000309345 0.00138264 0.00257519 0.00469513 -0.000670292 -0.00452491
internal_weight=0 463 79 57 384 327 275 1096 523 412 273 573 107
internal_count=1559 463 79 57 384 327 275 1096 523 412 273 573 107
is_linear=0
shrinkage=0.1


Tree=75
num_leaves=10
num_cat=0
split_feature=0 2 0 5 8 2 0 6 5
split_gain=0.0377579 0.282147 0.149249 0.0441028 0.334136 0.201537 0.132944 0.114549 0.0928813
threshold=4.3750000000000009 175.00000000000003 4.1250000000000009 46.750000000000007 67.420000000000016 350.00000000000006 2.3600000000000003 42.155000000000008 46.250000000000007
decision_type=2 2 2 2 2 2 2 2 2
left_child=2 -2 3 5 -5 8 -6 -7 -1
right_child=1 -3 -4 4 6 7 -8 -9 -10
leaf_value=0.00033052242647574505 -0.0031740683742100375 0.011966762114316225 -0.0070742133603683525 0.011511863185192593 0.0028945253551851406 -0.0028044944876455704 -0.0039722116441087071 -0.01147470185533166 -0.0051272000084281906
leaf_weight=1220 32 20 30 28 54 64 59 20 32
leaf_count=1220 32 20 30 28 54 64 59 20 32
internal_value=0 0.00264933 -9.14168e-05 5.04139e-05 0.00173245 -0.000127107 -0.000690762 -0.00486883 0.000191028
internal_weight=0 52 1507 1477 141 1336 113 84 1252
internal_count=1559 52 1507 1477 141 1336 113 84 1252
is_linear=0
shrinkage=0.1


Tree=76
num_leaves=12
num_cat=0
split_feature=8 8 2 5 5 1 5 6 8 7 8
split_gain=0.0319557 0.252555 0.137875 0.0999047 0.217106 0.317514 0.0897393 0.0767909 0.0647583 0.123713 0.115474
threshold=56.645000000000003 58.525000000000013 27.500000000000004 41.550000000000004 38.850000000000001 119.50000000000001 25.600000000000005 38.805000000000007 64.595000000000013 119.50000000000001 65.690000000000012
decision_type=2 2 2 2 2 2 2 2 2 2 2
left_child=2 7 -1 4 5 -4 -3 -2 9 -8 -10
right_child=1 6 3 -5 -6 -7 8 -9 10 -11 -12
leaf_value=0.0063142299512401225 0.0036114516647775536 -0.0065804508625574056 -0.0054571406222353493 0.0027791985301990757 -0.010715088595382193 0.0093827464883880964 0.0050093934836608935 0.011975327296005119 0.0067070183344185358 -0.0033318380939629704 9.3082316013619692e-05
leaf_weight=20 23 21 46 27 33 21 21 21 27 116 1183
leaf_count=20 23 21 46 27 33 21 21 21 27 116 1183
internal_value=0 0.000146081 -0.00140317 -0.00261851 -0.00407589 -0.000805833 -9.37716e-05 0.0076033 7.35703e-06 -0.00205326 0.000240666
internal_weight=0 1412 147 127 100 67 1368 44 1347 137 1210
internal_count=1559 1412 147 127 100 67 1368 44 1347 137 1210
is_linear=0
shrinkage=0.1


Tree=77
num_leaves=12
num_cat=0
split_feature=5 0 0 1 8 9 5 8 5 8 9
split_gain=0.0338893 0.137732 0.224234 0.104127 0.0563637 0.275805 0.360373 0.15544 0.151183 0.0755777 0.0323548
threshold=30.050000000000004 2.7550000000000003 2.4350000000000005 98.500000000000014 56.645000000000003 13.450000000000001 41.45000000000001 58.525000000000013 39.650000000000013 59.625000000000007 12.15
decision_type=2 2 2 2 2 2 2 2 2 2 2
left_child=1 2 -1 -2 5 6 -5 10 -7 -9 -6
right_child=3 -3 -4 4 7 8 -8 9 -10 -11 -12
leaf_value=-0.00063490732091254208 -0.00710584790490213 -0.0027687812865887945 0.01258685794942405 -0.0027500618653567999 0.0089407992017056272 -0.003176263413535288 0.012079206040210051 -0.0056978545799527477 -0.014740818096324802 8.6663249780514435e-05 0.0033897528225289922
leaf_weight=29 21 37 23 57 21 26 23 23 20 1258 21
leaf_count=29 21 37 23 57 21 26 23 23 20 1258 21
internal_value=0 0.00189484 0.00521318 -0.000114721 -1.34008e-05 -0.00203437 0.00151335 0.000179073 -0.00820433 -1.71962e-05 0.00616528
internal_weight=0 89 52 1470 1449 126 80 1323 46 1281 42
internal_count=1559 89 52 1470 1449 126 80 1323 46 1281 42
is_linear=0
shrinkage=0.1


Tree=78
num_leaves=14
num_cat=0
split_feature=7 6 0 2 0 0 7 5 4 2 5 0 8
split_gain=0.0321478 0.102703 0.0811188 0.201683 0.16847 0.166367 0.0725982 0.0901937 0.0698215 0.408178 0.342872 0.279871 0.0988271
threshold=137.50000000000003 45.470000000000006 3.7900000000000005 125.00000000000001 4.1250000000000009 3.6250000000000004 130.50000000000003 41.350000000000001 1.0000000180025095e-35 55.000000000000007 40.550000000000004 2.6250000000000004 59.875000000000007
decision_type=2 2 2 2 2 2 2 2 2 2 2 2 2
left_child=2 8 5 -4 -5 6 7 -1 12 10 -10 -11 -2
right_child=1 -3 3 4 -6 -7 -8 -9 9 11 -12 -13 -14
leaf_value=-0.0010380758076558485 0.0025003766504300457 0.0056216579659743929 -0.0058245216126670135 0.011981747262179852 0.00094847869533564778 -0.0094024987226086001 -0.0032336038749302292 0.0010872807329563993 -0.014615220779722389 0.013329977392585894 0.0019402180583585568 0.0020510593679677132 -0.0013535808906033177
leaf_weight=458 86 38 20 25 31 21 82 354 22 33 29 66 294
leaf_count=458 86 38 20 25 31 21 82 354 22 33 29 66 294
internal_value=0 0.000599812 -0.000343787 0.00279547 0.00587405 -0.000604535 -0.000397871 -0.000111504 0.000239755 0.0020666 -0.00520134 0.0058107 -0.000481369
internal_weight=0 568 991 76 56 915 894 812 530 150 51 99 380
internal_count=1559 568 991 76 56 915 894 812 530 150 51 99 380
is_linear=0
shrinkage=0.1


Tree=79
num_leaves=10
num_cat=0
split_feature=1 1 5 5 0 2 5 5 9
split_gain=0.0324036 0.136595 0.0855473 0.0896566 0.110782 0.0902037 0.0698842 0.0241253 0.00707343
threshold=162.50000000000003 160.50000000000003 47.150000000000013 44.250000000000007 3.4750000000000005 350.00000000000006 50.250000000000007 47.850000000000001 13.350000000000003
decision_type=2 2 2 2 2 2 2 2 2
left_child=1 2 3 5 -5 -1 7 -2 -9
right_child=6 -3 -4 4 -6 -7 -8 8 -10
leaf_value=0.00040803035413399587 -0.00085836679367771887 0.0071567492908798163 0.0049347714705885778 -0.0012460015142373667 -0.0085202184882897814 -0.0029327619638850637 0.0031071407831318324 -0.0037088149587031112 -0.0063072591519448915
leaf_weight=1138 22 27 34 164 24 87 21 22 20
leaf_count=1138 22 27 34 164 24 87 21 22 20
internal_value=0 0.00010948 -2.20173e-05 -0.000141289 -0.00217462 0.000170766 -0.00189851 -0.00354099 -0.00494617
internal_weight=0 1474 1447 1413 188 1225 85 64 42
internal_count=1559 1474 1447 1413 188 1225 85 64 42
is_linear=0
shrinkage=0.1


Tree=80
num_leaves=10
num_cat=0
split_feature=0 2 0 8 7 8 1 2 2
split_gain=0.0330042 0.232421 0.112577 0.0419421 0.203276 0.114469 0.126989 0.0939134 0.0837946
threshold=4.3750000000000009 175.00000000000003 4.1250000000000009 84.370000000000019 170.50000000000003 93.945000000000007 122.50000000000001 225.00000000000003 750.00000000000011
decision_type=2 2 2 2 2 2 2 2 2
left_child=2 -2 3 4 8 6 -5 -7 -1
right_child=1 -3 -4 5 -6 7 -8 -9 -10
leaf_value=-2.0525124871196323e-06 -0.0028084291880077217 0.010933546112137265 -0.0061500047237495895 0.0066842501109931618 -0.010346874631941319 -0.001077431814688868 0.001129349606849167 0.0042723717016948234 -0.0062502177154370167
leaf_weight=881 32 20 30 54 20 290 173 37 22
leaf_count=881 32 20 30 54 20 290 173 37 22
internal_value=0 0.00247695 -8.54686e-05 3.77109e-05 -0.000375136 0.000725541 0.00245078 -0.000472102 -0.000154278
internal_weight=0 52 1507 1477 923 554 227 327 903
internal_count=1559 52 1507 1477 923 554 227 327 903
is_linear=0
shrinkage=0.1


Tree=81
num_leaves=13
num_cat=0
split_feature=7 6 0 9 0 8 8 8 0 0 3 2
split_gain=0.0293649 0.0838308 0.0759079 0.163267 0.133484 0.112825 0.0691079 0.0755076 0.0624906 0.214071 0.137423 0.111723
threshold=137.50000000000003 45.470000000000006 3.7900000000000005 10.750000000000002 3.6250000000000004 87.865000000000009 51.680000000000007 56.990000000000009 3.7900000000000005 3.5100000000000002 1.0000000180025095e-35 35.000000000000007
decision_type=2 2 2 2 2 2 2 2 2 2 2 2
left_child=2 8 4 -4 6 -5 -1 -8 9 11 -10 -2
right_child=1 -3 3 5 -6 -7 7 -9 10 -11 -12 -13
leaf_value=0.004167557025084534 -0.0018793203551181114 0.0051103148128420709 -0.0047927155569639241 0.0092702525724289997 -0.0084614790843001424 2.5051898873326454e-05 -0.0064879278962810833 -0.00041719376786247776 -0.0066404755472683832 0.01051672060441758 0.002742417067444573 0.0014011083507752379
leaf_weight=32 165 38 21 33 21 22 21 841 37 21 27 280
leaf_count=32 165 38 21 33 21 22 21 841 37 21 27 280
internal_value=0 0.000573263 -0.00032857 0.00270819 -0.000580804 0.00557217 -0.000395687 -0.000565089 0.000247965 0.000650373 -0.00268207 0.00018477
internal_weight=0 568 991 76 915 55 894 862 530 466 64 445
internal_count=1559 568 991 76 915 55 894 862 530 466 64 445
is_linear=0
shrinkage=0.1


Tree=82
num_leaves=9
num_cat=0
split_feature=5 9 1 5 8 9 1 5
split_gain=0.0284636 0.136484 0.0752211 0.0679844 0.0534062 0.0524221 0.0452055 0.102366
threshold=30.050000000000004 13.550000000000002 98.500000000000014 25.600000000000005 115.55500000000002 11.050000000000002 104.50000000000001 34.050000000000004
decision_type=2 2 2 2 2 2 2 2
left_child=1 3 -2 -1 6 -5 -4 -8
right_child=2 -3 4 5 -6 -7 7 -9
