tree
version=v3
num_class=1
num_tree_per_iteration=1
label_index=0
max_feature_idx=94
objective=regression
feature_names=Age BMI SBP DBP Bloodloss Operativeduration Excision_diameter Scr BaslineeGFR Glu Na WBC RBC PLT Hb MCHC MCH MCV MPV Hct PCT PT.P FIB ALT AST TBIL ALP LDH GGT ADA TG TC HDLC LDLC AG TP ALB UA Pathology Urine_protein AKIGrade Renalcalculi Cardiacarrhythmia PU FLD Hydronephrosis DM CHD HT Anemia Dyslipidemia hyperuricemia Obesity bblocker ACEIARB CCB Aspirin Statins Antibiotic NSAIDs CGs Diuretics Antidiabetic_medication_non-insulin Gender Bloodtransfusion Smokers Drinkers Medicalinsurance Procedure Approach ao la rv ea_ratio lvidd ef ivs lvpwd Urinary_pH Urinary_nitrites Urobilinogen Specific_gravity_of_urine Urinary_glucose Urinary_hematuria fever respiratory_rate Heart_rate BUN Cl P Lipoprotein_a Ca K Mg Anion_gap
feature_infos=[18:89] [16.329999999999998:44.119999999999997] [81:205] [43:150] [10:4000] [1:10.08] [0.80000000000000004:30] [26:761.10000000000002] [6.2000000000000002:137.36000000000001] [2.6000000000000001:27.600000000000001] [122:150] [2.5:26.600000000000001] [1.9199999999999999:6.4299999999999997] [40:914] [42:186] [253:405] [16.399999999999999:39.5] [59:120.59999999999999] [6.7000000000000002:13.800000000000001] [16.600000000000001:60] [0.070000000000000007:0.91000000000000003] [39:272] [0.96999999999999997:8.6199999999999992] [2.7999999999999998:247.19999999999999] [2:159.80000000000001] [2.1000000000000001:114.5] [21:638] [56:3700] [1:474] [3:56] [0.080000000000000002:13.619999999999999] [1.8999999999999999:11.390000000000001] [0.54000000000000004:2.9199999999999999] [0.51000000000000001:7.4800000000000004] [0.45000000000000001:2.6000000000000001] [40.340000000000003:88.760000000000005] [21.27:54.100000000000001] [37:664] [0:2] [0:3] [0:3] [0:1] none [0:1] [0:1] [0:1] [0:1] [0:1] [0:1] [0:1] [0:1] [0:1] [0:1] [0:1] [0:1] [0:1] [0:1] [0:1] [0:1] [0:1] [0:1] [0:1] [0:1] [0:1] [0:1] [0:1] [0:1] [0:1] [1:2] [1:3] [1.8:2.8999999999999999] [2.5:6] [1.5:3.5] [0:1] [3.3999999999999999:5.7000000000000002] [42:77] [0.69999999999999996:1.8999999999999999] [0.10000000000000001:1.3999999999999999] [5:8] [0:2] [0:4] [1:1.05] [0:4] [0:3] [0:1] [5:25] [43:130] [1.1000000000000001:26.199999999999999] [84:116] [0.37:2.3799999999999999] [0:3384] [1.1799999999999999:3] [2.4300000000000002:6.1299999999999999] [0.62:1.3] [2.5:23.399999999999999]
tree_sizes=1215 1333 986 1336 1240 1334 1316 988 1159 1068 1078 1350 1327 994 1330 1326 1097 1323 1332 1087 1320 1347 1248 1361 1352 1336 753 1346 1348 759 1339 762 1360 1354 1375 1345 755 1180 1014 1351 1345 1375 1014 1273 1334 1019 1366 1354 940 1348 844 1367 1281 1355 1021 1370 1350 1364 756 1201 1193 1372 1366 935 1023 846 1274 1372 1366 1190 927 1192 1187 1362 1291 1371 1367 1365 1113 1354 1355 935 1283 1363 1362 1371 1358 1372 1031 1280 1189 1371 1102 1108 1381 1174 1373 1374 1181 1119

Tree=0
num_leaves=13
num_cat=0
split_feature=36 8 40 14 39 14 2 30 38 39 91 12
split_gain=25.2513 16.4009 10.1755 12.6311 5.99569 3.93296 3.04025 2.89311 2.81577 1.87958 1.63009 0.936643
threshold=26.210000000000004 51.680000000000007 1.0000000180025095e-35 118.50000000000001 1.0000000180025095e-35 127.50000000000001 169.50000000000003 1.0250000000000001 1.5000000000000002 1.0000000180025095e-35 2.1050000000000004 3.8850000000000002
decision_type=2 2 2 2 2 2 2 2 2 2 2 2
left_child=10 5 6 7 -5 11 9 -4 -8 -3 -1 -2
right_child=1 2 3 4 -6 -7 8 -9 -10 -11 -12 -13
leaf_value=0.20291300676996243 0.20239576539835957 0.14135515717087971 0.18025290858545673 0.14717837491681501 0.18989576558462409 0.16816499667766857 0.14609141841127279 0.22802076501651733 0.19739576547286539 0.15406243278524903 0.23739576487681896 0.23263386018587209
leaf_weight=29 20 985 21 184 40 26 23 32 20 132 26 21
leaf_count=29 20 985 21 184 40 26 23 32 20 132 26 21
internal_value=0.152662 0.150228 0.147973 0.165194 0.154806 0.19859 0.143861 0.209094 0.169954 0.142857 0.219214 0.217884
internal_weight=0 1504 1437 277 224 67 1160 53 43 1117 55 41
internal_count=1559 1504 1437 277 224 67 1160 53 43 1117 55 41
is_linear=0
shrinkage=1


Tree=1
num_leaves=14
num_cat=0
split_feature=39 14 19 36 40 83 8 2 40 14 8 36 3
split_gain=20.4963 9.23875 13.0437 7.7757 7.12087 6.61116 4.68389 3.99515 2.48401 2.42294 2.13851 2.00348 1.68185
threshold=1.0000000180025095e-35 115.50000000000001 37.850000000000001 27.550000000000001 1.0000000180025095e-35 1.0000000180025095e-35 55.860000000000007 169.50000000000003 1.0000000180025095e-35 135.50000000000003 53.115000000000009 38.685000000000009 92.500000000000014
decision_type=2 2 2 2 2 2 2 2 2 2 2 2 2
left_child=1 2 4 -2 -1 9 -7 10 -8 11 -3 -5 -9
right_child=3 7 -4 5 -6 6 8 12 -10 -11 -12 -13 -14
leaf_value=-0.0071435313438996673 0.071790122147649529 0.016401523848374688 0.075623759229977938 0.029728393469538008 0.043198675662279133 0.045034699857234961 -0.010941157879477199 0.041988720744848253 0.023255640427981103 0.019480703274408977 -0.010683879198323649 0.06923985833471473 0.0034167782618449286
leaf_weight=128 32 30 30 21 36 25 88 20 28 33 1029 33 26
leaf_count=128 32 30 30 21 36 25 88 20 28 33 1029 33 26
internal_value=0 -0.00512976 0.0149974 0.0256291 0.0039072 0.0191503 0.00577449 -0.0086634 -0.00268676 0.0408284 -0.00991659 0.0538743 0.0201872
internal_weight=0 1299 194 260 164 228 141 1105 116 87 1059 54 46
internal_count=1559 1299 194 260 164 228 141 1105 116 87 1059 54 46
is_linear=0
shrinkage=0.1


Tree=2
num_leaves=10
num_cat=0
split_feature=36 8 40 2 24 3 53 32 39
split_gain=17.4436 11.0773 7.51749 4.92737 3.82975 3.13699 3.11616 1.38271 0.737357
threshold=26.210000000000004 51.680000000000007 1.5000000000000002 165.50000000000003 45.500000000000007 92.500000000000014 1.0000000180025095e-35 0.94500000000000006 1.0000000180025095e-35
decision_type=2 2 2 2 2 2 2 2 2
left_child=7 6 3 4 -3 -5 -2 -1 -8
right_child=1 2 -4 5 -6 -7 8 -9 -10
leaf_value=0.034339243918657301 0.011472963845288313 -0.0068917805882114354 0.048392050078621622 0.04159849629633957 0.036151257441157388 -0.0010863010630463108 0.041863640546798711 0.0673001087989126 0.06901795886456967
leaf_weight=20 27 1320 27 36 21 33 20 35 20
leaf_count=20 27 1320 27 36 21 33 20 35 20
internal_value=0 -0.0020228 -0.00387592 -0.00487679 -0.00621773 0.021184 0.0377224 0.0553143 0.0554408
internal_weight=0 1504 1437 1410 1341 69 67 55 40
internal_count=1559 1504 1437 1410 1341 69 67 55 40
is_linear=0
shrinkage=0.1


Tree=3
num_leaves=14
num_cat=0
split_feature=39 14 19 8 40 40 2 83 87 92 15 12 8
split_gain=14.9073 6.71059 10.416 5.2789 5.10846 5.05975 2.71328 2.00898 2.79908 1.93903 1.64212 1.44815 1.40667
threshold=1.0000000180025095e-35 115.50000000000001 37.850000000000001 47.475000000000009 1.0000000180025095e-35 1.0000000180025095e-35 169.50000000000003 1.0000000180025095e-35 5.5150000000000006 4.3150000000000004 328.50000000000006 4.6950000000000012 53.115000000000009
decision_type=2 2 2 2 2 2 2 2 2 2 2 2 2
left_child=1 2 4 -2 -1 7 12 8 -5 -7 -9 -8 -3
right_child=3 6 -4 5 -6 9 11 10 -10 -11 -12 -13 -14
leaf_value=-0.0064913500100374222 0.057400508018003574 0.012925817718108495 0.06695529192686081 0.048060615814250446 0.036147994713650815 0.050842287209298877 0.031951054529501845 0.017987960885310995 0.0013466539567914505 0.016107490956783294 -0.010140246908142143 -0.0038407611101865767 -0.0090414469672477401
leaf_weight=128 36 30 30 23 36 45 26 29 29 25 73 20 1029
leaf_count=128 36 30 30 23 36 45 26 29 29 25 73 20 1029
internal_value=0 -0.0043748 0.0127788 0.0218572 0.00286851 0.0161449 -0.00738639 0.00601208 0.0220086 0.038437 -0.00214301 0.0163894 -0.00841914
internal_weight=0 1299 194 260 164 224 1105 154 52 70 102 46 1059
internal_count=1559 1299 194 260 164 224 1105 154 52 70 102 46 1059
is_linear=0
shrinkage=0.1


Tree=4
num_leaves=13
num_cat=0
split_feature=36 39 83 24 2 8 3 14 33 8 90 13
split_gain=12.6444 7.6727 4.87348 4.27449 3.34314 2.67607 2.47307 1.67657 1.79412 1.66354 1.62175 1.22466
threshold=26.210000000000004 1.0000000180025095e-35 1.0000000180025095e-35 45.500000000000007 165.50000000000003 55.860000000000007 89.500000000000014 121.50000000000001 2.9150000000000005 51.680000000000007 123.50000000000001 303.50000000000006
decision_type=2 2 2 2 2 2 2 2 2 2 2 2
left_child=11 3 7 4 9 -4 -6 -3 -9 -2 -7 -1
right_child=1 2 5 -5 6 10 -8 8 -10 -11 -12 -13
leaf_value=0.058374230180467883 0.017354881231273926 0.051289195048086572 0.033198563933372498 0.03704594715187947 0.045061685783522473 0.016706497486560577 0.0026833730004727843 0.040144609069002087 0.0043235575711285624 -0.0073118675689467271 -0.01001311200506547 0.027354336827993393
leaf_weight=35 28 33 25 24 21 31 40 29 27 1161 85 20
leaf_count=35 28 33 25 24 21 31 40 29 27 1161 85 20
internal_value=0 -0.0017222 0.0150879 -0.00475699 -0.00555961 0.00352306 0.0172726 0.0334098 0.0228737 -0.00673099 -0.00287253 0.0470943
internal_weight=0 1504 230 1274 1250 141 61 89 56 1189 116 55
internal_count=1559 1504 230 1274 1250 141 61 89 56 1189 116 55
is_linear=0
shrinkage=0.1


Tree=5
num_leaves=14
num_cat=0
split_feature=36 14 19 40 4 8 40 30 5 8 91 2 89
split_gain=10.2419 6.58127 12.4288 3.54077 3.47508 2.96434 2.8363 1.95782 1.52317 1.10745 1.10213 0.993512 0.72142
threshold=26.210000000000004 115.50000000000001 37.250000000000007 1.0000000180025095e-35 225.00000000000003 51.680000000000007 1.0000000180025095e-35 1.1050000000000002 2.4350000000000005 58.525000000000013 2.1050000000000004 139.50000000000003 1.1050000000000002
decision_type=2 2 2 2 2 2 2 2 2 2 2 2 2
left_child=10 2 3 9 5 -3 11 -5 -7 -2 -1 -6 -8
right_child=1 4 -4 7 6 8 12 -9 -10 -11 -12 -13 -14
leaf_value=0.028981233054193957 0.017294845469295977 0.022659778594970703 0.061092307964960735 0.0062284395098686218 -0.0092682482231230962 -0.010395795230643224 0.047269226014614113 0.049945722875140965 -0.0030278243486569307 -0.0080082011758349832 0.057335022321114176 0.015049976216895239 0.020409966632723809
leaf_weight=29 20 35 45 20 42 590 20 21 535 128 26 28 20
leaf_count=29 20 35 45 20 42 590 20 21 535 128 26 28 20
internal_value=0 -0.00154998 0.0138608 0.00261522 -0.00438945 -0.00600027 0.0125974 0.0286202 -0.00689192 -0.00458887 0.0423848 0.000459042 0.0338396
internal_weight=0 1504 234 189 1270 1160 110 41 1125 148 55 70 40
internal_count=1559 1504 234 189 1270 1160 110 41 1125 148 55 70 40
is_linear=0
shrinkage=0.1


Tree=6
num_leaves=14
num_cat=0
split_feature=39 14 19 5 40 14 21 40 2 2 36 37 4
split_gain=8.61279 3.97018 6.7772 3.68256 3.20214 3.14119 2.11519 2.28375 1.75666 1.67415 1.46764 1.13128 0.981823
threshold=1.0000000180025095e-35 115.50000000000001 37.850000000000001 1.925 1.0000000180025095e-35 123.50000000000001 126.50000000000001 1.0000000180025095e-35 144.50000000000003 169.50000000000003 38.685000000000009 305.35000000000008 225.00000000000003
decision_type=2 2 2 2 2 2 2 2 2 2 2 2 2
left_child=1 2 4 -2 -1 8 7 -7 10 12 -5 -11 -3
right_child=3 9 -4 5 -6 6 -8 -9 -10 11 -12 -13 -14
leaf_value=-0.0055355965858325364 -0.015732613133807336 -0.0073292497880680686 0.053569250504175825 0.014142414099640316 0.028223112970590592 0.010262197829209842 -0.001524726301431656 0.051824838593602186 0.051455132401472814 -0.003345204076983712 0.046699429675936703 0.028048825574417909 0.0041272672054208362
leaf_weight=128 31 978 30 45 36 39 68 20 37 22 20 24 81
leaf_count=128 31 978 30 45 36 39 68 20 37 22 20 24 81
internal_value=0 -0.0033253 0.00986883 0.0166137 0.00187485 0.0209925 0.0104964 0.0243512 0.0340611 -0.00564174 0.02416 0.0130343 -0.00645297
internal_weight=0 1299 194 260 164 229 127 59 102 1105 65 46 1059
internal_count=1559 1299 194 260 164 229 127 59 102 1105 65 46 1059
is_linear=0
shrinkage=0.1


Tree=7
num_leaves=10
num_cat=0
split_feature=36 2 8 4 40 3 5 26 89
split_gain=7.5916 4.59362 3.13493 3.01584 3.7077 2.45276 1.81187 1.18853 0.988209
threshold=26.210000000000004 169.50000000000003 46.630000000000003 225.00000000000003 1.0000000180025095e-35 83.500000000000014 2.4350000000000005 73.750000000000014 1.1150000000000004
decision_type=2 2 2 2 2 2 2 2 2
left_child=8 2 -2 6 -5 -3 -4 -7 -1
right_child=1 5 3 4 -6 7 -8 -9 -10
leaf_value=0.02595655392198002 0.029871367431920148 0.042169714543749307 -0.0085283581850998987 -0.0011484497371647094 0.033504662298141641 -0.0093457285476767505 -0.0009222992657127475 0.021861321651018586 0.053546861239842009
leaf_weight=34 29 34 654 90 47 23 601 26 21
leaf_count=34 29 34 654 90 47 23 601 26 21
internal_value=0 -0.00133445 -0.00267011 -0.00334805 0.0107398 0.0215327 -0.00488593 0.00721311 0.036491
internal_weight=0 1504 1421 1392 137 83 1255 49 55
internal_count=1559 1504 1421 1392 137 83 1255 49 55
is_linear=0
shrinkage=0.1


Tree=8
num_leaves=12
num_cat=0
split_feature=36 2 39 83 24 14 86 1 92 8 91
split_gain=6.24703 4.05019 2.82529 3.46227 2.39184 2.28087 1.80648 1.50389 1.008 1.00619 0.557542
threshold=25.060000000000006 169.50000000000003 1.0000000180025095e-35 1.0000000180025095e-35 45.500000000000007 124.50000000000001 75.500000000000014 28.135000000000002 4.2650000000000006 53.115000000000009 2.1050000000000004
decision_type=2 2 2 2 2 2 2 2 2 2 2
left_child=10 2 4 6 9 -3 -4 -7 -5 -2 -1
right_child=1 5 3 8 -6 7 -8 -9 -10 -11 -12
leaf_value=0.024738594765464465 0.010983252716370118 0.041697667779461031 0.010873936334761178 0.0074050912781367237 0.0284581643613902 -0.0051332146148471277 0.041572522496183713 0.029424896575510503 -0.010345343076265777 -0.0053468198997193373 0.046293601766228681
leaf_weight=24 39 31 41 63 22 34 36 20 65 1160 24
leaf_count=24 39 31 41 63 22 34 36 20 65 1160 24
internal_value=0 -0.00112824 -0.00239226 0.00847081 -0.00421612 0.0200776 0.0252265 0.00766609 -0.0016088 -0.00481565 0.0355161
internal_weight=0 1511 1426 205 1221 85 77 54 128 1199 48
internal_count=1559 1511 1426 205 1221 85 77 54 128 1199 48
is_linear=0
shrinkage=0.1


Tree=9
num_leaves=11
num_cat=0
split_feature=8 5 4 4 5 14 69 14 40 71
split_gain=5.45023 3.88336 3.13367 6.16034 2.32905 2.98083 2.02789 1.87159 1.0502 0.270446
threshold=48.065000000000005 4.8750000000000009 225.00000000000003 350.00000000000006 2.4350000000000005 115.50000000000001 1.5000000000000002 126.50000000000001 1.0000000180025095e-35 4.2500000000000009
decision_type=2 2 2 2 2 2 2 2 2 2
left_child=7 2 4 6 9 -6 -4 -1 -5 -2
right_child=1 -3 3 8 5 -7 -8 -9 -10 -11
leaf_value=0.042333420576193395 -0.0079177174539793102 0.041486274131706788 0.048375400664602837 -0.011018125681827466 0.017229092081910685 -0.00196899128940833 0.012674338084000808 0.006840823590755463 0.01352710063042848 0.0031158373083757318
leaf_weight=39 651 21 41 72 95 544 26 24 23 23
leaf_count=39 651 21 41 72 95 544 26 24 23 23
internal_value=0 -0.00121336 -0.00182128 0.0113009 -0.00344032 0.000885184 0.0345213 0.0288124 -0.0050756 -0.0075412
internal_weight=0 1496 1475 162 1313 639 67 63 95 674
internal_count=1559 1496 1475 162 1313 639 67 63 95 674
is_linear=0
shrinkage=0.1


Tree=10
num_leaves=11
num_cat=0
split_feature=36 5 14 19 37 2 8 0 10 25
split_gain=4.46803 3.03684 2.70133 7.03246 1.62173 1.41599 2.80954 0.89697 0.49667 0.259761
threshold=25.060000000000006 4.6850000000000014 115.50000000000001 37.250000000000007 356.25000000000006 148.50000000000003 58.235000000000007 74.500000000000014 139.72500000000002 14.990000000000002
decision_type=2 2 2 2 2 2 2 2 2 2
left_child=8 2 3 4 -2 7 -7 -4 -1 -5
right_child=1 -3 5 9 -6 6 -8 -9 -10 -11
leaf_value=0.018000461682677268 -0.0043860770124745999 0.035927829620513045 -0.005684273552554877 0.037821253687143327 0.018024582343130577 0.029973246178456717 -0.00099140530245171656 0.0056687477429707847 0.038633368696485253 0.05374534044946943
leaf_weight=20 152 22 965 20 41 35 180 75 28 21
leaf_count=20 152 22 965 20 41 35 180 75 28 21
internal_value=0 -0.000954165 -0.0014991 0.00836496 0.000374737 -0.00333829 0.00404935 -0.00486555 0.0300363 0.0459775
internal_weight=0 1511 1489 234 193 1255 215 1040 48 41
internal_count=1559 1511 1489 234 193 1255 215 1040 48 41
is_linear=0
shrinkage=0.1


Tree=11
num_leaves=14
num_cat=0
split_feature=39 24 83 8 2 40 5 14 85 4 37 40 5
split_gain=3.91942 2.08144 2.06931 1.54906 1.43111 1.89336 1.29062 1.17709 1.02498 1.10758 0.949936 0.486271 0.468379
threshold=1.0000000180025095e-35 42.500000000000007 1.0000000180025095e-35 55.860000000000007 145.50000000000003 1.0000000180025095e-35 3.7900000000000005 129.50000000000003 18.500000000000004 125.00000000000001 417.55000000000007 1.0000000180025095e-35 2.0650000000000004
decision_type=2 2 2 2 2 2 2 2 2 2 2 2 2
left_child=1 4 8 -4 12 10 11 -7 9 -2 -6 -5 -1
right_child=2 -3 3 6 5 7 -8 -9 -10 -11 -12 -13 -14
leaf_value=-0.0074718280136585246 0.0030142714165978962 0.02523188879368482 0.02302274353363935 -0.0097057712431519467 -0.0038587942998222755 0.034372858857286387 0.020347687925981441 0.0050705895400964297 0.034841198213398455 0.030413097620010376 0.017226649582386018 0.0065716783205668136 -0.0029354925605822621
leaf_weight=335 36 27 34 78 147 29 23 26 40 25 25 24 710
leaf_count=335 36 27 34 78 147 29 23 26 40 25 25 24 710
internal_value=0 -0.00224321 0.0112074 0.00409711 -0.00282641 0.00437036 -0.00105066 0.0205209 0.0224009 0.0142433 -0.00079405 -0.00587578 -0.00438972
internal_weight=0 1299 260 159 1272 227 125 55 101 61 172 102 1045
internal_count=1559 1299 260 159 1272 227 125 55 101 61 172 102 1045
is_linear=0
shrinkage=0.1


Tree=12
num_leaves=14
num_cat=0
split_feature=8 4 4 5 14 19 69 5 40 28 35 23 2
split_gain=3.40279 2.47972 4.17982 1.92626 2.76011 3.26381 1.52821 1.1038 0.985008 0.59738 0.482878 0.413008 0.247369
threshold=46.630000000000003 225.00000000000003 350.00000000000006 2.4350000000000005 123.50000000000001 38.650000000000013 1.5000000000000002 2.5050000000000003 1.0000000180025095e-35 20.500000000000004 72.855000000000004 18.050000000000004 167.00000000000003
decision_type=2 2 2 2 2 2 2 2 2 2 2 2 2
left_child=9 3 6 12 5 -5 11 -6 10 -1 -4 -3 -2
right_child=1 2 8 4 7 -7 -8 -9 -10 -11 -12 -13 -14
leaf_value=0.015968103430889273 -0.0056865801952518469 0.051451516009512401 -0.012983694510026412 0.0059921790200930377 0.009838015597600204 0.04178434278695814 0.010686565964267805 -0.0041565675130289682 0.014442176371812821 0.03816694034771486 0.0051611340790987019 0.031618701914946243 -0.016712009764852979
leaf_weight=27 657 21 55 143 65 31 26 424 26 22 20 21 21
leaf_count=27 657 21 55 143 65 31 26 424 26 22 20 21 21
internal_value=0 -0.000841597 0.0105736 -0.0022802 0.00155246 0.0123689 0.0297401 -0.00229635 -0.00233053 0.0259349 -0.00814507 0.0415351 -0.00602808
internal_weight=0 1510 169 1341 663 174 68 489 101 49 75 42 678
internal_count=1559 1510 169 1341 663 174 68 489 101 49 75 42 678
is_linear=0
shrinkage=0.1


Tree=13
num_leaves=10
num_cat=0
split_feature=36 2 32 5 14 19 37 0 14
split_gain=2.93803 2.06073 1.48787 1.41489 1.13217 4.58913 1.1191 0.753698 0.432424
threshold=25.060000000000006 169.50000000000003 1.0950000000000004 4.6250000000000009 115.50000000000001 37.750000000000007 305.35000000000008 74.500000000000014 98.500000000000014
decision_type=2 2 2 2 2 2 2 2 2
left_child=8 3 -3 4 5 -2 -4 -6 -1
right_child=1 2 6 -5 7 -7 -8 -9 -10
leaf_value=0.014038252288644965 -0.0017519604102526299 0.036074687346168192 -0.0085105306069765772 0.023488336767662654 -0.0040026898399158255 0.038324486727223682 0.018486270439975402 0.0053731866741693153 0.033087477202598865
leaf_weight=22 179 23 28 22 1098 34 34 93 26
leaf_count=22 179 23 28 22 1098 34 34 93 26
internal_value=0 -0.000773737 0.0143524 -0.00167537 -0.00206967 0.00464522 0.00629417 -0.00327057 0.0243566
internal_weight=0 1511 85 1426 1404 213 62 1191 48
internal_count=1559 1511 85 1426 1404 213 62 1191 48
is_linear=0
shrinkage=0.1


Tree=14
num_leaves=14
num_cat=0
split_feature=39 24 5 21 83 2 3 8 37 37 36 48 93
split_gain=2.49006 1.50381 1.50278 1.93403 0.961978 0.950271 1.28353 0.919586 0.848642 0.670583 0.783092 0.56439 0.542893
threshold=1.0000000180025095e-35 45.500000000000007 1.925 123.50000000000001 1.0000000180025095e-35 145.50000000000003 77.500000000000014 58.235000000000007 312.40000000000003 340.50000000000006 38.685000000000009 1.0000000180025095e-35 0.95500000000000007
decision_type=2 2 2 2 2 2 2 2 2 2 2 2 2
left_child=1 5 -2 9 8 -1 -7 -8 -5 12 -11 -6 -4
right_child=2 -3 3 4 11 6 7 -9 -10 10 -12 -13 -14
leaf_value=-0.003525375511554134 -0.011730130209076789 0.023011428490281108 0.036492037121206522 4.6158706148465474e-05 -0.010522529673069082 0.023259394166284596 0.018660723954439164 -0.0018573118406051846 0.025672063497560366 -0.0021083476394414902 0.024947534112826641 0.0076190268275914373 0.017075316763172546
leaf_weight=1048 31 24 36 24 47 29 25 173 28 20 23 27 24
leaf_count=1048 31 24 36 24 47 29 25 173 28 20 23 27 24
internal_value=0 -0.00178799 0.00893305 0.0117303 0.00342127 -0.0022548 0.00361113 0.000733349 0.0138447 0.0218946 0.0123634 -0.00390331 0.0287253
internal_weight=0 1299 260 229 126 1275 227 198 52 103 43 74 60
internal_count=1559 1299 260 229 126 1275 227 198 52 103 43 74 60
is_linear=0
shrinkage=0.1


Tree=15
num_leaves=14
num_cat=0
split_feature=5 14 19 40 4 4 8 2 59 85 30 18 16
split_gain=2.22307 2.92237 2.70914 2.56174 1.52683 1.59232 1.27768 0.856599 0.802638 1.68172 0.755442 0.610391 0.466568
threshold=1.925 121.50000000000001 37.750000000000007 1.0000000180025095e-35 225.00000000000003 350.00000000000006 52.115000000000009 141.50000000000003 1.0000000180025095e-35 16.500000000000004 0.96500000000000008 10.950000000000001 30.450000000000003
decision_type=2 2 2 2 2 2 2 2 2 2 2 2 2
left_child=-1 2 3 6 8 10 -2 -5 11 -10 -6 -3 -7
right_child=1 4 -4 7 5 12 -8 -9 9 -11 -12 -13 -14
leaf_value=-0.0069925488020420416 0.024301045164465906 -0.0054036097466187471 0.031580779409291701 0.012613263218240304 0.012623441219329835 -0.0085645285145989781 -0.0024449771660530642 0.035960827370484671 0.0254673863536325 -0.00047133022003410926 0.040108754746615891 0.0035701484325226778 0.0097026133150966073
leaf_weight=352 20 511 51 33 20 29 167 30 29 181 20 89 27
leaf_count=352 20 511 51 33 20 29 167 30 29 181 20 89 27
internal_value=0 0.00203925 0.0105761 0.00629109 -0.000796926 0.0111275 0.00041556 0.0237312 -0.00221019 0.00311068 0.0263661 -0.0040725 0.000242843
internal_weight=0 1207 301 250 906 96 187 63 810 210 40 600 56
internal_count=1559 1207 301 250 906 96 187 63 810 210 40 600 56
is_linear=0
shrinkage=0.1


Tree=16
num_leaves=11
num_cat=0
split_feature=36 5 2 48 51 94 14 87 5 91
split_gain=1.94758 1.52946 1.10375 1.96878 1.56105 0.505018 0.877477 0.41652 0.334357 0.288641
threshold=25.060000000000006 4.6850000000000014 148.50000000000003 1.0000000180025095e-35 1.0000000180025095e-35 11.250000000000002 120.50000000000001 5.2350000000000012 2.5050000000000003 2.3150000000000004
decision_type=2 2 2 2 2 2 2 2 2 2
left_child=7 2 5 9 -5 8 -7 -1 -2 -4
right_child=1 -3 3 4 -6 6 -8 -9 -10 -11
leaf_value=0.0092680526631219052 -0.0029698455367575993 0.025544174625114963 -0.0098487702132740509 0.0056257929157225361 0.027550105521963405 0.0057405416986771995 -0.0024742074239139378 0.028045941834096557 -0.009016478571052455 0.0028366798767820002
leaf_weight=21 242 22 71 124 44 161 676 27 147 24
leaf_count=21 242 22 71 124 44 161 676 27 147 24
internal_value=0 -0.00062996 -0.00101668 0.00486168 0.0113679 -0.0022777 -0.00089407 0.0198306 -0.00525482 -0.00664402
internal_weight=0 1511 1489 263 168 1226 837 48 389 95
internal_count=1559 1511 1489 263 168 1226 837 48 389 95
is_linear=0
shrinkage=0.1


Tree=17
num_leaves=14
num_cat=0
split_feature=5 40 14 4 36 8 9 15 2 21 8 14 4
split_gain=1.72237 2.2506 2.23164 1.30062 1.284 1.05516 1.14195 0.910664 1.00439 0.781195 0.660767 0.34942 0.130541
threshold=1.925 1.0000000180025095e-35 126.50000000000001 225.00000000000003 26.210000000000004 58.525000000000013 4.8150000000000004 333.50000000000006 141.50000000000003 116.75000000000001 109.11000000000001 107.50000000000001 175.00000000000003
decision_type=2 2 2 2 2 2 2 2 2 2 2 2 2
left_child=11 4 7 9 -2 6 -6 8 -3 -4 -7 -1 -13
right_child=1 2 3 -5 5 10 -8 -9 -10 -11 -12 12 -14
leaf_value=-0.015950740738348526 0.022279704672594866 0.0040463909697838326 0.012339037121273579 0.020961993373930454 -0.0082510477048344921 -0.0030908289956786332 0.013985018248119988 0.033683175574007788 0.029420381039381029 -0.0054501774134459325 0.010595876149631837 -0.0045516605048636803 -0.012078703224658966
leaf_weight=33 24 39 32 32 32 756 83 38 26 108 37 294 25
leaf_count=33 24 39 32 32 32 756 83 38 26 108 37 294 25
internal_value=0 0.00179497 0.00974441 0.00277334 -0.000550626 -0.00115407 0.00779759 0.0213854 0.014196 -0.00138407 -0.00245223 -0.00615492 -0.00514155
internal_weight=0 1207 275 172 932 908 115 103 65 140 793 352 319
internal_count=1559 1207 275 172 932 908 115 103 65 140 793 352 319
is_linear=0
shrinkage=0.1


Tree=18
num_leaves=14
num_cat=0
split_feature=5 36 40 14 36 4 8 7 36 35 14 4 2
split_gain=1.39512 1.88025 1.39833 1.63495 1.01003 0.96001 0.886759 1.05049 0.546243 0.437334 0.28303 0.105738 0.0742882
threshold=1.925 27.550000000000001 1.0000000180025095e-35 126.50000000000001 35.965000000000011 225.00000000000003 58.525000000000013 93.500000000000014 42.005000000000003 60.480000000000011 107.50000000000001 175.00000000000003 159.50000000000003
decision_type=2 2 2 2 2 2 2 2 2 2 2 2 2
left_child=10 9 6 4 -4 -5 7 -3 -8 -2 -1 12 -12
right_child=1 2 3 5 -6 -7 8 -9 -10 -11 11 -13 -14
leaf_value=-0.01435566662782521 0.0081003596030530482 0.026271472110048585 -0.00059804942458868032 -0.0018472416421575267 0.025246163902263488 0.017903126776218414 -0.0042407730859317797 0.0023245397872394989 0.0012453155480193587 0.026354319580963681 -0.003633404468148397 -0.010870832882821561 -0.0095529028983867698
leaf_weight=33 21 23 20 137 62 30 506 90 283 35 271 25 23
leaf_count=33 21 23 20 137 62 30 506 90 283 35 271 25 23
internal_value=0 0.00161547 0.00074489 0.00737881 0.0189427 0.00170073 -0.00108642 0.00719869 -0.00227301 0.0195091 -0.00553942 -0.0046274 -0.00409649
internal_weight=0 1207 1151 249 82 167 902 113 789 56 352 319 294
internal_count=1559 1207 1151 249 82 167 902 113 789 56 352 319 294
is_linear=0
shrinkage=0.1


Tree=19
num_leaves=11
num_cat=0
split_feature=5 8 4 4 69 25 71 26 59 28
split_gain=1.21392 1.04311 0.934185 2.63991 0.942666 0.591266 0.584511 0.825364 0.528115 0.439213
threshold=4.6850000000000014 46.630000000000003 225.00000000000003 350.00000000000006 1.5000000000000002 15.415000000000001 4.0500000000000007 66.250000000000014 1.0000000180025095e-35 20.500000000000004
decision_type=2 2 2 2 2 2 2 2 2 2
left_child=1 9 6 4 -4 -5 8 -8 -3 -1
right_child=-2 2 3 5 -6 -7 7 -9 -10 -11
leaf_value=0.005228486716747284 0.021019379767002883 -0.0035739573525470436 0.030995344352431415 -0.010662837471042214 0.0066543876551664804 0.0052603809545055417 -0.0018213130587131762 0.016525721622676386 0.0011471291694512464 0.024601850319992416
leaf_weight=25 27 897 41 58 26 39 61 41 322 22
leaf_count=25 27 897 41 58 26 39 61 41 322 22
internal_value=0 -0.000370446 -0.000834664 0.00628374 0.0215496 -0.00426072 -0.0017184 0.00555348 -0.00232688 0.0142969
internal_weight=0 1532 1485 164 67 97 1321 102 1219 47
internal_count=1559 1532 1485 164 67 97 1321 102 1219 47
is_linear=0
shrinkage=0.1


Tree=20
num_leaves=14
num_cat=0
split_feature=39 24 21 5 7 5 24 34 20 37 5 5 71
split_gain=1.07397 1.00137 0.905055 0.808151 0.727852 0.755529 0.728863 0.727247 0.483057 0.447695 0.418493 1.52134 1.68598
threshold=1.0000000180025095e-35 45.500000000000007 123.50000000000001 1.925 91.050000000000011 3.1900000000000008 17.650000000000002 1.2050000000000003 0.23500000000000001 365.30000000000007 2.4350000000000005 2.5050000000000003 3.6500000000000008
decision_type=2 2 2 2 2 2 2 2 2 2 2 2 2
left_child=1 10 3 -2 5 6 -4 -5 -9 -6 -1 12 -12
right_child=2 -3 4 7 9 -7 -8 8 -10 -11 11 -13 -14
leaf_value=-0.0032903370559495648 -0.0058335153064468792 0.019062594386438529 -0.01069121974121247 0.0034526643540823097 -0.014980884227487777 0.021975573832574098 0.013333879249251408 0.015459815874371841 0.032960856550683579 0.0022397530909914237 0.00499286108157214 -0.0017140135390262953 0.038022059313952923
leaf_weight=665 21 24 28 33 36 23 23 46 24 26 68 522 20
leaf_count=665 21 24 28 33 36 23 23 46 24 26 68 522 20
internal_value=0 -0.00117423 0.00586666 0.0120455 0.000232978 0.00692923 0.000143629 0.0156908 0.0214602 -0.00775933 -0.00155516 0.00033646 0.0124995
internal_weight=0 1299 260 124 136 74 51 103 70 62 1275 610 88
internal_count=1559 1299 260 124 136 74 51 103 70 62 1275 610 88
is_linear=0
shrinkage=0.1


Tree=21
num_leaves=14
num_cat=0
split_feature=14 19 8 40 4 19 34 89 59 85 14 2 93
split_gain=0.935943 1.56804 1.15174 0.952235 1.1313 0.497168 0.480936 0.375405 0.503971 1.94838 0.494186 0.411022 0.786103
threshold=128.50000000000003 39.45000000000001 48.810000000000009 1.0000000180025095e-35 125.00000000000001 38.550000000000004 1.3950000000000002 1.1850000000000003 1.0000000180025095e-35 16.500000000000004 150.50000000000003 156.50000000000003 0.89500000000000013
decision_type=2 2 2 2 2 2 2 2 2 2 2 2 2
left_child=1 2 -1 5 -5 -4 -3 8 11 -10 -11 -2 -13
right_child=7 6 3 4 -6 -7 -8 -9 9 10 -12 12 -14
leaf_value=0.017397796111397964 -0.0030381458646042206 0.01186248566955328 -0.0029223747645634787 -0.0010491470192024049 0.021535301102059229 0.010701189357145079 0.03285911293700338 -0.0049253608796122452 0.028156703391245437 -0.0039555211114170761 0.0081245497916825112 -0.005717882876880416 0.021042509483439581
leaf_weight=43 487 24 351 47 42 29 20 281 28 115 48 23 21
leaf_count=43 487 24 351 47 42 29 20 281 28 115 48 23 21
internal_value=0 0.0032909 0.0017341 0.000297982 0.00960868 -0.00188268 0.0214064 -0.00182427 -0.000617333 0.00378786 -0.0003982 -0.00220188 0.00705412
internal_weight=0 556 512 469 89 380 44 1003 722 191 163 531 44
internal_count=1559 556 512 469 89 380 44 1003 722 191 163 531 44
is_linear=0
shrinkage=0.1


Tree=22
num_leaves=13
num_cat=0
split_feature=5 5 14 19 2 14 7 86 14 9 4 81
split_gain=0.86916 0.723198 1.1551 1.5641 1.35223 0.580364 0.541013 0.589948 0.235272 0.122702 0.0706331 0.0750889
threshold=4.8750000000000009 1.925 123.50000000000001 37.550000000000004 148.50000000000003 119.50000000000001 53.500000000000007 69.500000000000014 114.00000000000001 5.0650000000000004 175.00000000000003 1.0095000000000003
decision_type=2 2 2 2 2 2 2 2 2 2 2 2
left_child=1 8 3 4 -3 -5 -4 -8 9 -1 11 -10
right_child=-2 2 6 5 -6 -7 7 -9 10 -11 -12 -13
leaf_value=-0.005623411573469639 0.019295609207904858 -0.0010089687342124602 0.010589642847250951 0.026315459558232265 0.016675165499112122 0.0061098913174299973 0.0040419693961739542 -0.0029055826744121133 -0.0086356055434970626 -0.016445807636376809 -0.0085276629099098507 -0.0024235069487910533
leaf_weight=20 23 217 38 44 54 21 150 660 21 22 24 265
leaf_count=20 23 217 38 44 54 21 150 660 21 22 24 265
internal_value=0 -0.000288932 0.000894187 0.00585625 0.00251481 0.0197875 -0.00107191 -0.001619 -0.00426851 -0.0112923 -0.00331691 -0.00287964
internal_weight=0 1536 1184 336 271 65 848 810 352 42 310 286
internal_count=1559 1536 1184 336 271 65 848 810 352 42 310 286
is_linear=0
shrinkage=0.1


Tree=23
num_leaves=14
num_cat=0
split_feature=24 39 83 36 19 90 0 37 14 19 26 8 31
split_gain=0.772558 0.718412 0.738074 0.646226 0.701249 0.51871 0.434073 0.357401 0.929109 0.970591 0.317857 0.29392 0.367506
threshold=45.500000000000007 1.0000000180025095e-35 1.0000000180025095e-35 38.685000000000009 43.150000000000013 82.500000000000014 71.500000000000014 242.50000000000003 128.50000000000003 39.550000000000004 91.500000000000014 59.625000000000007 6.245000000000001
decision_type=2 2 2 2 2 2 2 2 2 2 2 2 2
left_child=1 7 3 -3 -5 -4 -7 11 9 -9 -10 -1 -13
right_child=-2 2 5 4 -6 6 -8 8 10 -11 -12 12 -14
leaf_value=-0.01621244493406266 0.016169228144632331 0.0015437966260390405 0.014247432719592168 0.026720677595585586 0.0037267825433186124 -0.005897379813857539 0.0061788247816201135 0.0026286542505051316 -0.0031216706347056977 0.022941195183935073 0.0027493259265880896 -0.0048881201427025921 0.008146777558916558
leaf_weight=20 29 39 23 36 21 92 44 247 631 26 108 219 24
leaf_count=20 29 39 23 36 21 92 44 247 631 26 108 219 24
internal_value=0 -0.000306476 0.00453888 0.0114627 0.0182492 0.000358492 -0.00199037 -0.00127555 -0.000422034 0.00456318 -0.00226366 -0.00455979 -0.00360072
internal_weight=0 1530 255 96 57 159 136 1275 1012 273 739 263 243
internal_count=1559 1530 255 96 57 159 136 1275 1012 273 739 263 243
is_linear=0
shrinkage=0.1


Tree=24
num_leaves=14
num_cat=0
split_feature=36 36 14 5 37 37 4 16 2 35 40 28 5
split_gain=0.712979 1.07321 0.864282 0.977468 1.31288 0.735751 0.452352 0.385842 0.431922 0.3845 0.201297 0.117709 0.0694989
threshold=29.800000000000001 35.435000000000009 128.50000000000003 2.4350000000000005 263.05000000000007 204.50000000000003 175.00000000000003 33.050000000000004 169.50000000000003 63.835000000000001 1.0000000180025095e-35 46.500000000000007 2.6250000000000004
decision_type=2 2 2 2 2 2 2 2 2 2 2 2 2
left_child=5 10 3 6 -5 -1 -3 8 -4 -7 11 -2 -9
right_child=1 2 7 4 -6 9 -8 12 -10 -11 -12 -13 -14
leaf_value=-0.0076920122653245928 -0.0054899462661107514 -0.0032230700008979403 -0.0011787384304159177 -0.0023739829095024054 0.014814850697952995 0.0081945554174196258 0.011093507397275132 -0.0060686787357553847 0.010151853423033442 0.024281764061500632 -0.016643851749598981 -0.01367852813120754 -0.013849953639631471
leaf_weight=20 107 146 868 66 136 39 26 22 35 24 25 21 24
leaf_count=20 107 146 868 66 136 39 26 22 35 24 25 21 24
internal_value=0 -0.00050712 0.000409871 0.00448128 0.0091987 0.00901819 -0.00105894 -0.00119467 -0.000739568 0.014323 -0.0084364 -0.00683339 -0.0101285
internal_weight=0 1476 1323 374 202 83 172 949 903 63 153 128 46
internal_count=1559 1476 1323 374 202 83 172 949 903 63 153 128 46
is_linear=0
shrinkage=0.1


Tree=25
num_leaves=14
num_cat=0
split_feature=4 5 7 36 24 18 19 14 9 5 4 17 2
split_gain=0.674707 0.834638 0.949894 0.894801 0.823217 0.815046 0.587733 0.205328 0.173377 0.111984 0.0841315 0.0715858 0.0644693
threshold=17.500000000000004 1.925 55.500000000000007 26.210000000000004 16.700000000000003 9.6250000000000018 40.050000000000004 107.50000000000001 5.0950000000000006 2.4350000000000005 175.00000000000003 88.65000000000002 159.50000000000003
decision_type=2 2 2 2 2 2 2 2 2 2 2 2 2
left_child=9 7 4 8 -3 -5 -6 -2 -4 -1 12 -11 -9
right_child=1 2 3 5 6 -7 -8 10 -10 11 -12 -13 -14
leaf_value=-0.0037484483634957024 -0.011147941925264604 -0.00010036365487254584 0.022068431340157985 -0.0026960643388506574 0.034877886381000277 0.0032756147805643693 0.010634687328711152 -0.0018275375838075253 0.0095768599584698678 -0.012906736907150065 -0.0083087179610884052 -0.0064386712979863994 -0.0073443931977912463
leaf_weight=97 32 26 20 403 20 528 20 268 25 28 25 44 23
leaf_count=97 32 26 20 403 20 528 20 268 25 28 25 44 23
internal_value=0 0.000725388 0.0021415 0.00135635 0.0137522 0.000690667 0.0227563 -0.00351481 0.0151287 -0.00596621 -0.00274183 -0.00895403 -0.00226358
internal_weight=0 1390 1042 976 66 931 40 348 45 169 316 72 291
internal_count=1559 1390 1042 976 66 931 40 348 45 169 316 72 291
is_linear=0
shrinkage=0.1


Tree=26
num_leaves=7
num_cat=0
split_feature=5 23 24 2 37 2
split_gain=0.585706 0.570231 1.72267 0.46033 0.782273 0.285347
threshold=4.6250000000000009 61.000000000000007 43.500000000000007 140.50000000000003 442.50000000000006 103.50000000000001
decision_type=2 2 2 2 2 2
left_child=1 2 3 5 -5 -1
right_child=-2 -3 -4 4 -6 -7
leaf_value=0.0051656958460438232 0.013389401116000954 -0.013931330346968024 0.029144748221151529 0.0010479713551909125 0.015765846039100393 -0.0017596165802891185
leaf_weight=63 32 30 20 303 41 1070
leaf_count=63 32 30 20 303 41 1070
internal_value=0 -0.00028059 -7.02801e-06 -0.000401771 0.00280214 -0.00137454
internal_weight=0 1527 1497 1477 344 1133
internal_count=1559 1527 1497 1477 344 1133
is_linear=0
shrinkage=0.1


Tree=27
num_leaves=14
num_cat=0
split_feature=4 4 81 88 8 11 71 37 9 15 18 58 9
split_gain=0.530133 1.34249 0.648269 0.640676 0.435648 0.397947 0.538925 0.436364 0.374402 0.440734 0.310137 0.767505 0.313755
threshold=225.00000000000003 350.00000000000006 1.0165000000000002 105.95000000000002 46.630000000000003 8.1950000000000021 4.0500000000000007 326.20000000000005 4.9250000000000007 339.50000000000006 10.950000000000001 1.0000000180025095e-35 8.5500000000000025
decision_type=2 2 2 2 2 2 2 2 2 2 2 2 2
left_child=4 2 3 -2 -1 10 7 -7 -3 -10 12 -12 -6
right_child=1 8 -4 -5 5 6 -8 -9 9 -11 11 -13 -14
leaf_value=0.009754490209982182 0.01231847510362665 0.0071892167814075958 0.001765419791142146 0.035092205758250894 -0.002688360472744275 -0.0027704843927253658 0.018850112380459905 0.0077482010946947752 -0.010912326186508784 0.0062058076439868845 -0.0058567069835766261 0.0080600894761953465 0.0062459241445517039
leaf_weight=39 30 30 24 21 952 98 20 66 53 21 67 97 41
leaf_count=39 30 30 24 21 952 98 20 66 53 21 67 97 41
internal_value=0 0.00512014 0.0153181 0.0216959 -0.000664135 -0.000967137 0.00335259 0.00146265 -0.00223418 -0.00605448 -0.00165411 0.00237457 -0.00231947
internal_weight=0 179 75 51 1380 1341 184 164 104 74 1157 164 993
internal_count=1559 179 75 51 1380 1341 184 164 104 74 1157 164 993
is_linear=0
shrinkage=0.1


Tree=28
num_leaves=14
num_cat=0
split_feature=4 5 40 59 12 28 11 37 87 36 2 5 17
split_gain=0.487752 0.590519 0.775363 0.834593 0.94913 0.722431 0.649076 0.554116 0.409592 0.181794 0.114841 0.0920397 0.0584204
threshold=17.500000000000004 1.925 1.0000000180025095e-35 1.0000000180025095e-35 4.4350000000000014 18.950000000000003 8.1950000000000021 325.05000000000007 3.7800000000000007 32.540000000000006 159.50000000000003 2.4350000000000005 88.65000000000002
decision_type=2 2 2 2 2 2 2 2 2 2 2 2 2
left_child=11 9 6 4 -4 -5 8 -8 -3 -2 -11 -1 -13
right_child=1 2 3 5 -6 -7 7 -9 -10 10 -12 12 -14
leaf_value=-0.0030621215660897923 -0.012205810353480048 0.0073531211327159942 0.010973287717483585 0.0052112231699509492 -0.0035470501246103615 0.026174318308808977 0.00089874184199583698 0.013890994414803079 -0.0017346253604440982 -0.0018479728623656034 -0.0088996826498769221 -0.011352217011153699 -0.0055091211625205522
leaf_weight=97 20 54 84 31 97 35 74 59 608 303 25 28 44
leaf_count=97 20 54 84 31 97 35 74 59 608 303 25 28 44
internal_value=0 0.000616755 0.0018079 0.00670179 0.00319167 0.016328 0.000287411 0.00666222 -0.000993329 -0.00294984 -0.00238545 -0.00507272 -0.00778144
internal_weight=0 1390 1042 247 181 66 795 133 662 348 328 169 72
internal_count=1559 1390 1042 247 181 66 795 133 662 348 328 169 72
is_linear=0
shrinkage=0.1


Tree=29
num_leaves=7
num_cat=0
split_feature=5 23 24 2 48 14
split_gain=0.428235 0.451795 1.23024 0.318848 0.554114 0.319183
threshold=4.8750000000000009 56.500000000000007 43.500000000000007 137.50000000000003 1.0000000180025095e-35 109.50000000000001
decision_type=2 2 2 2 2 2
left_child=1 2 3 5 -5 -1
right_child=-2 -3 -4 4 -6 -7
leaf_value=-0.0066502049373572368 0.01354407904588658 -0.011273368479709866 0.024698596110101792 -0.0017733819610832027 0.0047154539567500669 -0.0007297350744483479
leaf_weight=102 23 36 20 246 283 849
leaf_count=102 23 36 20 246 283 849
internal_value=0 -0.000202808 6.2885e-05 -0.00027003 0.00169796 -0.00136474
internal_weight=0 1536 1500 1480 529 951
internal_count=1559 1536 1500 1480 529 951
is_linear=0
shrinkage=0.1


Tree=30
num_leaves=14
num_cat=0
split_feature=4 5 7 18 2 92 2 24 36 2 2 5 8
split_gain=0.384679 0.454319 0.658128 0.563797 0.623463 0.564026 0.56066 0.677033 0.137454 0.102617 0.085731 0.0565856 0.0513231
threshold=17.500000000000004 1.925 57.500000000000007 9.6250000000000018 165.50000000000003 4.8850000000000007 145.50000000000003 17.650000000000002 32.540000000000006 159.50000000000003 144.50000000000003 2.3600000000000003 64.595000000000013
decision_type=2 2 2 2 2 2 2 2 2 2 2 2 2
left_child=10 8 6 4 -4 -5 7 -3 -2 12 11 -1 -10
right_child=1 2 3 5 -6 -7 -8 -9 9 -11 -12 -13 -14
leaf_value=-0.0016536289891322471 -0.010629071878793184 -0.0057342874817550189 -0.0030009097857971226 0.0021133141128335214 0.011121419408043627 0.014596717370053134 0.024865454388782383 0.015886888861035307 -0.0049679536288842942 -0.0082476618206128484 -0.010041054483493402 -0.0056054013948494069 -0.0010815888422863887
leaf_weight=74 20 28 388 503 34 39 20 30 39 25 24 71 264
leaf_count=74 20 28 388 503 34 39 20 30 39 25 24 71 264
internal_value=0 0.000547725 0.00159251 0.000877639 -0.00186309 0.00301157 0.0104276 0.00544908 -0.00258064 -0.00208988 -0.00450495 -0.00358863 -0.00158181
internal_weight=0 1390 1042 964 422 542 78 58 348 328 169 145 303
internal_count=1559 1390 1042 964 422 542 78 58 348 328 169 145 303
is_linear=0
shrinkage=0.1


Tree=31
num_leaves=7
num_cat=0
split_feature=5 23 24 59 85 22
split_gain=0.334587 0.359798 0.957439 0.311547 0.710363 0.352544
threshold=4.6250000000000009 61.000000000000007 43.500000000000007 1.0000000180025095e-35 16.500000000000004 3.2650000000000001
decision_type=2 2 2 2 2 2
left_child=1 2 3 5 -5 -1
right_child=-2 -3 -4 4 -6 -7
leaf_value=0.00017504008149956662 0.010119894965464483 -0.011055336825083943 0.021738240905106069 0.013381443332942508 0.00051895723733863118 -0.0035962030706759361
leaf_weight=696 32 30 20 49 347 385
leaf_count=696 32 30 20 49 347 385
internal_value=0 -0.000212074 5.22606e-06 -0.00028906 0.00211053 -0.00116809
internal_weight=0 1527 1497 1477 396 1081
internal_count=1559 1527 1497 1477 396 1081
is_linear=0
shrinkage=0.1


Tree=32
num_leaves=14
num_cat=0
split_feature=4 4 22 8 12 36 36 11 5 8 26 40 87
split_gain=0.321436 0.984806 0.530675 0.441498 0.328733 0.292105 0.501739 0.426026 0.664355 0.372123 0.233806 0.226771 0.102541
threshold=225.00000000000003 350.00000000000006 2.8650000000000007 83.595000000000013 4.7650000000000006 27.550000000000001 35.435000000000009 9.6950000000000021 2.7550000000000003 47.475000000000009 77.100000000000009 1.0000000180025095e-35 6.535000000000001
decision_type=2 2 2 2 2 2 2 2 2 2 2 2 2
left_child=5 2 -2 -4 10 -1 11 9 -9 -8 -3 12 -7
right_child=1 4 3 -5 -6 6 7 8 -10 -11 -12 -13 -14
leaf_value=0.0081288435355466055 0.023936942668148765 -0.010671440212588226 -0.0016929178066285595 0.017760275490581991 0.0071824609577931745 -0.0026855402302180665 0.010858199346278396 -0.00073531830464215839 0.020995154619837801 -0.00081367020257819538 0.00039515643679936021 -0.015765007145025513 -0.0090519796983760514
leaf_weight=38 27 42 28 20 27 80 28 34 24 1117 35 22 37
leaf_count=38 27 42 28 20 27 80 28 34 24 1117 35 22 37
internal_value=0 0.00398691 0.0127214 0.00641258 -0.00231196 -0.000517143 -0.000761963 -0.000104703 0.0082566 -0.000528245 -0.00564117 -0.00645034 -0.00469886
internal_weight=0 179 75 48 104 1380 1342 1203 58 1145 77 139 117
internal_count=1559 179 75 48 104 1380 1342 1203 58 1145 77 139 117
is_linear=0
shrinkage=0.1


Tree=33
num_leaves=14
num_cat=0
split_feature=11 14 19 75 72 34 2 72 59 85 8 37 2
split_gain=0.289537 0.291771 0.923184 0.494405 0.49004 0.459642 0.365114 0.357765 0.319565 1.20026 0.348147 0.284184 0.108075
threshold=3.3750000000000004 123.50000000000001 37.550000000000004 61.500000000000007 2.6500000000000008 1.4950000000000003 163.50000000000003 2.9500000000000006 1.0000000180025095e-35 16.500000000000004 55.470000000000006 307.05000000000007 147.50000000000003
decision_type=2 2 2 2 2 2 2 2 2 2 2 2 2
left_child=-1 2 3 4 -2 11 -5 8 10 -10 -3 -4 -9
right_child=1 7 5 6 -6 -7 -8 12 9 -11 -12 -13 -14
leaf_value=0.010898766443763938 -0.0008423528789232174 -0.011145581527509624 -0.0015207069756632502 -0.0032854580081107089 0.014623297680809628 0.024052161284034021 0.01077762668428477 -0.0053025107560890983 0.019731136991509371 -0.00015789086199283862 -0.0010770997428391088 0.013790327555465479 -0.013735444529447706
leaf_weight=24 42 36 22 240 40 23 20 55 35 228 746 27 21
leaf_count=24 42 36 22 240 40 23 20 55 35 228 746 27 21
internal_value=0 -0.000170404 0.00209826 -6.84336e-05 0.00670187 0.01239 -0.00220368 -0.00100825 -0.000526475 0.00248894 -0.00154061 0.00691599 -0.00763266
internal_weight=0 1535 414 342 82 72 260 1121 1045 263 782 49 76
internal_count=1559 1535 414 342 82 72 260 1121 1045 263 782 49 76
is_linear=0
shrinkage=0.1


Tree=34
num_leaves=14
num_cat=0
split_feature=4 24 39 21 59 34 91 0 29 5 71 25 2
split_gain=0.277548 0.316584 0.334949 0.581248 0.573127 0.412478 0.259657 0.344245 0.300063 0.0664098 0.0594238 0.0238348 0.0157346
threshold=17.500000000000004 45.500000000000007 1.0000000180025095e-35 123.50000000000001 1.0000000180025095e-35 1.2750000000000001 2.2350000000000008 59.500000000000007 13.250000000000002 2.4350000000000005 3.5500000000000003 12.165000000000001 139.50000000000003
decision_type=2 2 2 2 2 2 2 2 2 2 2 2 2
left_child=9 2 6 5 -5 -4 8 -8 -2 12 11 -11 -1
right_child=1 -3 3 4 -6 -7 7 -9 -10 10 -12 -13 -14
leaf_value=-0.0014086556484619144 -0.0013030846131159429 0.011187924023855616 0.0011052386888133531 -0.0044812973213847725 0.012446895144879818 0.013394816138730271 -0.0015679072098994361 0.0029852504491891313 -0.0088375408225311123 -0.0070538677298463892 -0.010759782767854631 -0.0026532101328484714 -0.0044032201928569962
leaf_weight=74 396 27 44 100 25 72 321 344 61 20 20 32 23
leaf_count=74 396 27 44 100 25 72 321 344 61 20 20 32 23
internal_value=0 0.000465245 0.000252837 0.00363527 -0.00109566 0.00873325 -0.000473693 0.00078741 -0.00230878 -0.00382657 -0.00612744 -0.00434577 -0.00211871
internal_weight=0 1390 1363 241 125 116 1122 665 457 169 72 52 97
internal_count=1559 1390 1363 241 125 116 1122 665 457 169 72 52 97
is_linear=0
shrinkage=0.1


Tree=35
num_leaves=14
num_cat=0
split_feature=4 4 19 9 35 9 2 0 46 92 13 87 37
split_gain=0.255527 0.75338 0.491619 0.429213 0.297886 0.341793 0.265496 0.775316 0.243498 0.628674 0.359091 0.340799 0.453966
threshold=225.00000000000003 350.00000000000006 40.750000000000007 5.0650000000000004 72.50500000000001 4.955000000000001 103.50000000000001 58.500000000000007 1.0000000180025095e-35 4.8650000000000011 175.50000000000003 3.8050000000000002 264.25000000000006
decision_type=2 2 2 2 2 2 2 2 2 2 2 2 2
left_child=6 2 3 -2 5 -3 7 -1 11 10 -10 12 -8
right_child=1 4 -4 -5 -6 -7 8 -9 9 -11 -12 -13 -14
leaf_value=-0.002226869794723921 0.027988757743012339 0.0056499063525171506 0.00039927471015188437 0.008926882794238972 0.0068627857241413699 -0.0093468612958465449 -0.0026136592005301888 0.02209778165444732 -0.010650014062412083 0.019435317367315293 0.0026961626538000668 -0.0017796807058505883 0.011438730002591331
leaf_weight=38 21 21 27 27 28 55 45 20 24 20 126 1060 47
leaf_count=38 21 21 27 27 28 55 45 20 24 20 126 1060 47
internal_value=0 0.00355474 0.0111943 0.0172665 -0.00195453 -0.00520302 -0.000461086 0.00616094 -0.000751614 0.00278131 0.000560774 -0.00127297 0.00456528
internal_weight=0 179 75 48 104 76 1380 58 1322 170 150 1152 92
internal_count=1559 179 75 48 104 76 1380 58 1322 170 150 1152 92
is_linear=0
shrinkage=0.1


Tree=36
num_leaves=7
num_cat=0
split_feature=5 23 24 1 2 7
split_gain=0.232126 0.287009 0.618869 0.25489 0.428192 0.302786
threshold=4.6250000000000009 61.000000000000007 43.500000000000007 28.035000000000004 160.50000000000003 54.500000000000007
decision_type=2 2 2 2 2 2
left_child=1 2 3 5 -5 -1
right_child=-2 -3 -4 4 -6 -7
leaf_value=0.0053428186133985308 0.0084291338629554954 -0.0098611638283667476 0.017490281350910665 0.0009473793549391662 0.01236882208521772 -0.0012610367248815115
leaf_weight=74 32 30 20 241 38 1124
leaf_count=74 32 30 20 241 38 1124
internal_value=0 -0.000176642 1.74366e-05 -0.000219163 0.00250299 -0.000853119
internal_weight=0 1527 1497 1477 279 1198
internal_count=1559 1527 1497 1477 279 1198
is_linear=0
shrinkage=0.1


Tree=37
num_leaves=12
num_cat=0
split_feature=65 87 26 14 76 34 88 76 71 36 36
split_gain=0.225486 0.629257 0.509037 0.370937 0.488694 0.328511 0.33659 0.4529 0.322648 0.295753 0.346587
threshold=1.0000000180025095e-35 3.6350000000000002 107.50000000000001 120.50000000000001 1.1500000000000001 0.76500000000000012 99.950000000000017 1.0500000000000003 4.0500000000000007 25.060000000000006 35.710000000000008
decision_type=2 2 2 2 2 2 2 2 2 2 2
left_child=5 -2 3 4 -3 -1 7 -7 -5 -8 -11
right_child=1 2 -4 8 -6 6 9 -9 -10 10 -12
leaf_value=-0.013598990434547887 0.017431892120415193 0.01157169023422863 0.013779683517701603 -0.0019148305478884514 -0.0063605356163212237 -0.000690437481558371 0.010096912752108082 0.018070163782580164 0.0066163718432653701 -0.0070642674172025485 -0.00070412466494957227
leaf_weight=20 24 55 29 391 21 31 23 22 50 96 797
leaf_count=20 24 55 29 391 21 31 23 22 50 96 797
internal_value=0 0.00158415 0.00088755 0.000164394 0.00661673 -0.000913011 -0.000651174 0.00709698 -0.000947574 -0.00109948 -0.00138786
internal_weight=0 570 546 517 76 989 969 53 441 916 893
internal_count=1559 570 546 517 76 989 969 53 441 916 893
is_linear=0
shrinkage=0.1


Tree=38
num_leaves=10
num_cat=0
split_feature=11 13 18 58 75 8 2 89 18
split_gain=0.221264 0.225985 0.234982 0.402076 0.434687 0.332615 0.39998 0.275749 0.194746
threshold=3.3750000000000004 130.50000000000003 9.6250000000000018 1.0000000180025095e-35 60.500000000000007 53.680000000000007 169.50000000000003 1.0650000000000002 10.050000000000002
decision_type=2 2 2 2 2 2 2 2 2
left_child=-1 -2 5 8 -5 7 -7 -3 -4
right_child=1 2 3 4 -6 6 -8 -9 -10
leaf_value=0.0095275526827511697 -0.0086003656348874503 -0.018495849231258035 0.002444283988714577 0.008521400688859147 0.0013605372191324767 -0.0013561138109811856 0.010286978019341347 -0.001890152581036091 -0.0035522031287880534
leaf_weight=24 31 20 74 105 440 612 31 20 202
leaf_count=24 31 20 74 105 440 612 31 20 202
internal_value=0 -0.000148965 2.52328e-05 0.00116531 0.00274015 -0.00134519 -0.000794783 -0.010193 -0.00194445
internal_weight=0 1535 1504 821 545 683 643 40 276
internal_count=1559 1535 1504 821 545 683 643 40 276
is_linear=0
shrinkage=0.1


Tree=39
num_leaves=14
num_cat=0
split_feature=91 36 70 93 22 13 14 63 34 9 82 92 21
split_gain=0.201343 0.541611 0.429677 0.676548 0.740082 0.615378 0.311249 0.677658 0.377968 0.301133 0.242328 0.264592 0.226087
threshold=2.2350000000000008 29.800000000000001 2.4500000000000006 0.85500000000000009 2.9550000000000005 187.50000000000003 121.50000000000001 1.0000000180025095e-35 1.175 5.9150000000000009 1.0000000180025095e-35 4.495000000000001 132.50000000000003
decision_type=2 2 2 2 2 2 2 2 2 2 2 2 2
left_child=9 -2 6 4 -4 -5 7 -3 -8 12 11 -11 -1
right_child=1 2 3 5 -6 -7 8 -9 -10 10 -12 -13 -14
leaf_value=0.0017585218201033902 0.017224489208310843 -0.00097883866231344399 0.0023391548078507186 0.011156062642004583 0.029543611146509649 -0.0010721757255341168 0.0059779792251464202 0.015445465758842017 -0.0028718491486333453 -0.0056077460459287194 0.00062595314494418833 -0.018571226075291634 -0.0024956416424314603
leaf_weight=268 20 89 20 54 20 173 54 35 454 74 44 20 234
leaf_count=268 20 89 20 54 20 173 54 35 454 74 44 20 234
internal_value=0 0.00094837 0.000586276 0.0039498 0.0159414 0.00183674 -0.000834706 0.00365705 -0.00193112 -0.0013618 -0.00549896 -0.00836593 -0.000224495
internal_weight=0 919 899 267 40 227 632 124 508 640 138 94 502
internal_count=1559 919 899 267 40 227 632 124 508 640 138 94 502
is_linear=0
shrinkage=0.1


Tree=40
num_leaves=14
num_cat=0
split_feature=22 22 10 9 13 33 2 0 16 93 33 6 8
split_gain=0.208368 0.516244 0.314457 0.332087 0.313656 0.412894 0.574886 0.302379 0.519666 0.712431 0.284367 0.26885 0.21406
threshold=3.2650000000000001 3.2150000000000003 143.01500000000001 4.8450000000000006 173.50000000000003 2.1150000000000007 134.50000000000003 71.500000000000014 30.650000000000002 0.92500000000000016 2.2650000000000001 10.650000000000002 53.115000000000009
decision_type=2 2 2 2 2 2 2 2 2 2 2 2 2
left_child=1 7 4 -4 -2 6 -6 12 9 -9 -7 -10 -1
right_child=2 -3 3 -5 5 10 -8 8 11 -11 -12 -13 -14
leaf_value=0.01001118187326938 -0.010457487292146184 0.013168743013220869 -0.01534063010942191 -0.0029380560030120538 -0.00014279157682700993 -0.011391786047257484 0.018076177863885875 0.0027695810118119322 -0.008438949192511952 0.026299322909802539 -0.00033114605670056437 0.0046849244192393646 -0.00045899836085101764
leaf_weight=20 29 33 30 77 43 25 29 31 27 22 331 37 825
leaf_count=20 29 33 30 77 43 25 29 31 27 22 331 37 825
internal_value=0 0.000870403 -0.00153555 -0.00641541 -0.000393002 0.000288937 0.0071954 0.000448527 0.0052131 0.0125366 -0.00110788 -0.00085171 -0.000211183
internal_weight=0 995 564 107 457 428 72 962 117 53 356 64 845
internal_count=1559 995 564 107 457 428 72 962 117 53 356 64 845
is_linear=0
shrinkage=0.1


Tree=41
num_leaves=14
num_cat=0
split_feature=4 26 94 36 36 87 55 91 26 2 19 5 75
split_gain=0.175936 0.235192 0.472025 0.235129 0.447094 0.386508 0.225237 0.135607 0.0698953 0.0408865 0.0161227 0.0143859 0.00798399
threshold=17.500000000000004 120.50000000000001 12.250000000000002 25.060000000000006 35.435000000000009 3.6700000000000004 1.0000000180025095e-35 2.1150000000000007 92.200000000000017 140.50000000000003 39.550000000000004 2.3350000000000004 61.500000000000007
decision_type=2 2 2 2 2 2 2 2 2 2 2 2 2
left_child=8 3 -3 7 6 -6 -5 -2 9 10 11 -1 -12
right_child=1 2 -4 4 5 -7 -8 -9 -10 -11 12 -13 -14
leaf_value=-0.0013922385913319887 0.001884176004916133 -0.0059416406508535149 0.012953985539766458 -0.0031663987053707392 0.0079668258173059611 8.1340347429967937e-05 -0.012386809384984458 0.013118673703588902 -0.0080453462912070499 -0.006299689851169076 -0.0022666917822789403 -0.0049425562954552122 -1.8403855210635812e-05
leaf_weight=25 22 20 39 120 66 1068 34 21 24 21 22 21 56
leaf_count=25 22 20 39 120 66 1068 34 21 24 21 22 21 56
internal_value=0 0.000370417 0.00654869 9.65489e-05 -0.000146302 0.000540284 -0.00520207 0.00737079 -0.00304662 -0.00221925 -0.00152821 -0.00301304 -0.000652536
internal_weight=0 1390 59 1331 1288 1134 154 43 169 145 124 46 78
internal_count=1559 1390 59 1331 1288 1134 154 43 169 145 124 46 78
is_linear=0
shrinkage=0.1


Tree=42
num_leaves=10
num_cat=0
split_feature=11 16 1 2 15 76 0 88 5
split_gain=0.175504 0.17454 0.229612 0.368659 0.284906 0.266499 0.343722 0.238489 0.127001
threshold=3.3750000000000004 33.050000000000004 28.035000000000004 160.50000000000003 349.50000000000006 1.1500000000000001 74.500000000000014 105.95000000000002 2.6250000000000004
decision_type=2 2 2 2 2 2 2 2 2
left_child=-1 2 5 4 -4 6 -2 -7 -3
right_child=1 8 3 -5 -6 7 -8 -9 -10
leaf_value=0.0084853308498471346 -0.00053709341445048553 -0.0012397123684716081 0.00011013224754688881 0.011671890436003033 0.012045495514757932 -0.0071102658090309153 0.0056574262824436337 0.0011708298366731749 -0.010716773908083829
leaf_weight=24 941 31 220 39 22 105 99 52 26
leaf_count=24 941 31 220 39 22 105 99 52 26
internal_value=0 -0.00013267 7.67383e-05 0.00264923 0.00119517 -0.000527163 5.25772e-05 -0.00436748 -0.00556258
internal_weight=0 1535 1478 281 242 1197 1040 157 57
internal_count=1559 1535 1478 281 242 1197 1040 157 57
is_linear=0
shrinkage=0.1


Tree=43
num_leaves=13
num_cat=0
split_feature=65 87 26 34 7 8 14 86 3 71 19 93
split_gain=0.168941 0.454788 0.391869 0.268541 0.257217 0.295077 0.242608 0.385261 0.230276 0.215448 0.186437 0.178251
threshold=1.0000000180025095e-35 3.6350000000000002 107.50000000000001 0.76500000000000012 90.200000000000017 59.875000000000007 120.50000000000001 70.500000000000014 67.500000000000014 4.0500000000000007 44.850000000000001 1.0550000000000004
decision_type=2 2 2 2 2 2 2 2 2 2 2 2
left_child=3 -2 6 -1 5 -5 7 -3 -6 -8 -10 -7
right_child=1 2 -4 4 8 11 9 -9 10 -11 -12 -13
leaf_value=-0.012260032827034592 0.014844012958928943 -0.0042288238648325203 0.012090508490479712 0.010755325952130888 0.007307053355616518 0.00055832715691064383 -0.0015451753885015402 0.01064780966881532 -0.0052631627455271349 0.0054261800162494185 0.00094970884743989219 -0.0057133340193029989
leaf_weight=20 24 27 29 27 20 603 391 49 207 50 63 49
leaf_count=20 24 27 29 27 20 603 391 49 207 50 63 49
internal_value=0 0.00137121 0.000779001 -0.000790284 -0.00055355 0.00051121 0.000144506 0.00536269 -0.00304656 -0.000754772 -0.00381349 8.69907e-05
internal_weight=0 570 546 989 969 679 517 76 290 441 270 652
internal_count=1559 570 546 989 969 679 517 76 290 441 270 652
is_linear=0
shrinkage=0.1


Tree=44
num_leaves=14
num_cat=0
split_feature=22 22 4 34 10 4 11 5 5 78 9 2 28
split_gain=0.168952 0.415873 0.472388 0.824324 0.33465 0.577575 0.368868 0.33822 0.629003 0.309678 0.259651 0.292203 0.265863
threshold=3.2650000000000001 3.1750000000000003 27.500000000000004 1.405 142.39500000000001 225.00000000000003 8.1950000000000021 2.6250000000000004 2.4350000000000005 5.7500000000000009 4.4750000000000005 105.50000000000001 9.6500000000000021
decision_type=2 2 2 2 2 2 2 2 2 2 2 2 2
left_child=1 4 -3 -4 7 6 -6 8 -1 -9 -2 -12 -13
right_child=10 2 3 -5 5 -7 -8 9 -10 -11 11 12 -14
leaf_value=-0.0013844680877864585 -0.006274470455553076 -0.0019492377915802145 0.0018299238634822163 0.029588953396305441 0.00030490239921294104 0.014865980894469165 0.012059643949735268 0.00047038700498122031 0.010545600921504271 -0.0075650615110778464 0.010552362790432476 -0.0092462414015446696 -0.00028674277206103922
leaf_weight=266 91 28 23 20 336 34 29 76 53 130 23 36 414
leaf_count=266 91 28 23 20 336 34 29 76 53 130 23 36 414
internal_value=0 0.000783767 0.008159 0.0147411 0.000217056 0.00240005 0.00123884 -0.00144202 0.000597644 -0.00460053 -0.00138271 -0.00044159 -0.0010035
internal_weight=0 995 71 43 924 399 365 525 319 206 564 473 450
internal_count=1559 995 71 43 924 399 365 525 319 206 564 473 450
is_linear=0
shrinkage=0.1


Tree=45
num_leaves=10
num_cat=0
split_feature=26 2 0 9 70 2 40 88 7
split_gain=0.154426 0.181417 0.46636 0.194144 0.224531 0.306401 0.191217 0.0888776 0.0742086
threshold=38.050000000000004 103.50000000000001 58.500000000000007 3.9550000000000005 2.3500000000000001 138.50000000000003 1.0000000180025095e-35 105.25000000000001 78.975000000000009
decision_type=2 2 2 2 2 2 2 2 2
left_child=7 2 8 -3 6 -6 -5 -1 -2
right_child=1 3 -4 4 5 -7 -8 -9 -10
leaf_value=-0.010562852102642259 -0.0049560408358229327 -0.0077593266963958745 0.018029347015544771 -0.0028610964649778479 -0.00046707945828729919 0.0031070374460406523 0.0027203872944228354 -0.0014677100328051231 0.0035552303385061566
leaf_weight=21 20 32 20 338 618 392 75 22 21
leaf_count=21 20 32 20 338 618 392 75 22 21
internal_value=0 0.000167618 0.00551026 -5.63687e-05 0.000116853 0.000920103 -0.00184751 -0.00590952 -0.000596609
internal_weight=0 1516 61 1455 1423 1010 413 43 41
internal_count=1559 1516 61 1455 1423 1010 413 43 41
is_linear=0
shrinkage=0.1


Tree=46
num_leaves=14
num_cat=0
split_feature=59 85 76 87 3 89 19 86 90 10 7 14 11
split_gain=0.148142 0.422298 1.12875 0.33499 0.285472 0.357889 0.265994 0.20688 0.202932 0.20011 0.110618 0.0579467 0.0929839
threshold=1.0000000180025095e-35 16.500000000000004 1.0500000000000003 3.2800000000000007 94.500000000000014 0.89500000000000013 26.050000000000004 64.500000000000014 1090.0000000000002 141.13000000000002 90.750000000000014 129.50000000000003 7.0950000000000006
decision_type=2 2 2 2 2 2 2 2 2 2 2 2 2
left_child=6 2 -2 -3 5 -5 -1 11 9 -9 -6 -8 -13
right_child=1 3 -4 4 10 -7 7 8 -10 -11 -12 12 -14
leaf_value=-0.010587002648613774 -0.0025881128686089674 0.012964637810364367 0.026650061243107422 0.010378800427197883 -0.00285604857839644 -0.00051457197394225076 -0.0012392807389712997 -0.0014017641551035643 -0.0077462392929191996 0.0015180877165962905 -0.013247590392295804 -0.0038469669288115614 -0.011753305296103161
leaf_weight=26 31 20 23 34 20 267 36 392 32 585 21 51 21
leaf_count=26 31 20 23 34 20 267 36 392 32 585 21 51 21
internal_value=0 0.00161582 0.00986518 0.000385251 -0.000350386 0.000715909 -0.000588085 -0.000355344 8.9901e-05 0.000346561 -0.00817855 -0.00451508 -0.00615298
internal_weight=0 416 54 362 342 301 1143 1117 1009 977 41 108 72
internal_count=1559 416 54 362 342 301 1143 1117 1009 977 41 108 72
is_linear=0
shrinkage=0.1


Tree=47
num_leaves=14
num_cat=0
split_feature=91 36 70 18 34 92 5 18 9 9 5 71 35
split_gain=0.142648 0.395557 0.297838 0.536751 0.802676 0.345753 0.269048 0.264756 0.25724 0.263635 0.366805 0.191311 0.30187
threshold=2.2350000000000008 29.800000000000001 2.4500000000000006 10.725000000000001 1.4550000000000003 4.2250000000000005 4.3750000000000009 10.225000000000001 5.7350000000000012 5.3650000000000011 2.4350000000000005 3.3500000000000001 68.695000000000007
decision_type=2 2 2 2 2 2 2 2 2 2 2 2 2
left_child=8 -2 6 5 -5 -4 7 -3 9 11 -11 12 -1
right_child=1 2 3 4 -6 -7 -8 -9 -10 10 -12 -13 -14
leaf_value=-0.00050286801099922059 0.014707763586193323 0.00034972815247526982 -0.0039463142148451888 -0.0011290065962748486 0.026263094831096092 0.0042530637674240606 0.010719213252887131 -0.0041202903712952111 -0.0046332520536326808 -0.001684386508581652 0.013115507389610523 -0.0022765837756019546 0.011147217265485475
leaf_weight=86 20 418 80 20 23 144 20 194 159 33 34 298 30
leaf_count=86 20 418 80 20 23 144 20 194 159 33 34 298 30
internal_value=0 0.000798255 0.000488811 0.00328917 0.0135226 0.00132471 -0.00069425 -0.00106724 -0.00114624 6.42495e-06 0.00582601 -0.000935392 0.00251009
internal_weight=0 919 899 267 43 224 632 612 640 481 67 414 116
internal_count=1559 919 899 267 43 224 632 612 640 481 67 414 116
is_linear=0
shrinkage=0.1


Tree=48
num_leaves=9
num_cat=0
split_feature=23 24 39 35 20 70 7 10
split_gain=0.139683 0.316121 0.153364 0.432284 0.433386 0.147542 0.276096 0.165558
threshold=61.000000000000007 43.500000000000007 1.0000000180025095e-35 73.845000000000013 0.23500000000000001 2.3500000000000001 47.500000000000007 142.12500000000003
decision_type=2 2 2 2 2 2 2 2
left_child=1 2 5 4 -4 7 -7 -1
right_child=-2 -3 3 -5 -6 6 -8 -9
leaf_value=-0.00023634825020880354 -0.0066455169235386195 0.012319448155661425 -0.0029944952042375243 0.013277175465238192 0.0060486179110698741 0.011268833377041368 -7.4369142643092087e-05 -0.0045253320691655535
leaf_weight=198 31 21 131 31 89 22 871 165
leaf_count=198 31 21 131 31 89 22 871 165
internal_value=0 0.000134824 -3.49684e-05 0.00222168 0.000663855 -0.000485938 0.000205083 -0.00218589
internal_weight=0 1528 1507 251 220 1256 893 363
internal_count=1559 1528 1507 251 220 1256 893 363
is_linear=0
shrinkage=0.1


Tree=49
num_leaves=14
num_cat=0
split_feature=22 22 12 11 14 19 22 5 94 28 5 10 30
split_gain=0.143472 0.318258 0.23611 0.397569 0.255989 0.323391 0.235298 0.259083 0.241652 0.241022 0.305918 0.152696 0.143316
threshold=3.2650000000000001 3.2150000000000003 5.4250000000000007 6.2650000000000006 128.50000000000003 38.550000000000004 3.4750000000000005 3.0750000000000006 17.850000000000005 13.65 2.6750000000000003 141.13000000000002 0.75500000000000012
decision_type=2 2 2 2 2 2 2 2 2 2 2 2 2
left_child=1 2 4 -4 5 -1 7 -2 9 12 -11 -6 -8
right_child=6 -3 3 -5 11 -7 8 -9 -10 10 -12 -13 -14
leaf_value=0.00097657976816682853 -0.0023320889020318628 0.010378509288950061 -0.0018351728253182956 0.015998923783190549 -0.0031420404026942816 0.0099275665965919604 0.0020343851065263152 -0.0125330278512967 -0.010910674524493517 -0.0010782831451180269 0.0050380438730451178 8.5738655231337068e-05 -0.0071310836562326471
leaf_weight=229 93 33 25 25 230 49 24 34 20 191 143 404 59
leaf_count=229 93 33 25 25 230 49 24 34 20 191 143 404 59
internal_value=0 0.000722252 0.000391009 0.00708188 2.41849e-05 0.00255427 -0.00127419 -0.00506305 -0.000173075 0.000341917 0.00154038 -0.00108522 -0.00448083
internal_weight=0 995 962 50 912 278 564 127 437 417 334 634 83
internal_count=1559 995 962 50 912 278 564 127 437 417 334 634 83
is_linear=0
shrinkage=0.1


Tree=50
num_leaves=8
num_cat=0
split_feature=11 17 5 34 13 20 11
split_gain=0.137661 0.151316 0.179044 0.165828 0.164549 0.143014 0.10338
threshold=3.3750000000000004 96.750000000000014 4.8750000000000009 1.3550000000000002 130.50000000000003 0.36500000000000005 6.4850000000000012
decision_type=2 2 2 2 2 2 2
left_child=-1 2 4 -3 -2 -6 -5
right_child=1 3 -4 6 5 -7 -8
leaf_value=0.0075150401976619222 -0.0078898065486170642 -0.010512889590713063 0.0095204698666930196 -0.0042047812408877927 0.00028038425396578325 -0.0070685887554039553 0.0046775183649151583
leaf_weight=24 26 28 20 38 1376 27 20
leaf_count=24 26 28 20 38 1376 27 20
internal_value=0 -0.000117499 0.000124383 -0.00419293 -7.12256e-06 0.000138957 -0.00114192
internal_weight=0 1535 1449 86 1429 1403 58
internal_count=1559 1535 1449 86 1429 1403 58
is_linear=0
shrinkage=0.1


Tree=51
num_leaves=14
num_cat=0
split_feature=58 75 25 91 68 26 90 4 74 93 32 36 14
split_gain=0.131051 0.322036 0.520482 0.508333 0.664254 0.228101 0.213974 0.390803 0.257045 0.187041 0.367947 0.162234 0.192287
threshold=1.0000000180025095e-35 61.500000000000007 10.180000000000001 2.2350000000000008 1.5000000000000002 120.50000000000001 70.500000000000014 125.00000000000001 4.8500000000000005 0.87500000000000011 1.1050000000000002 38.805000000000007 116.50000000000001
decision_type=2 2 2 2 2 2 2 2 2 2 2 2 2
left_child=9 2 -2 -4 -5 6 7 -3 -8 10 -1 -11 -13
right_child=1 5 3 4 -6 -7 8 -9 -10 11 -12 12 -14
leaf_value=0.014447924286304488 -0.0033218145444490286 -6.9282850634087533e-05 0.00025604511784917827 0.017026716635411825 -0.0008367160253692418 0.0078393258281390776 -0.0007760161270752939 0.013374537696002116 -0.0082340948910277819 -0.0051787128571295256 -0.00072211953507277625 0.0069857277608077447 -0.0017128942589995197
leaf_weight=21 70 85 67 68 30 33 610 29 50 126 67 28 275
leaf_count=21 70 85 67 68 30 33 610 29 50 126 67 28 275
internal_value=0 0.000645815 0.00390359 0.00696891 0.0115583 -0.000302855 -0.000650003 0.00335064 -0.00134102 -0.00130162 0.002898 -0.00216308 -0.000909061
internal_weight=0 1042 235 165 98 807 774 114 660 517 88 429 303
internal_count=1559 1042 235 165 98 807 774 114 660 517 88 429 303
is_linear=0
shrinkage=0.1


Tree=52
num_leaves=13
num_cat=0
split_feature=59 8 12 8 19 29 94 14 5 27 16 15
split_gain=0.12419 0.338372 0.592852 0.321443 0.207234 0.17434 0.178147 0.233938 0.19534 0.170943 0.383053 0.188446
threshold=1.0000000180025095e-35 57.270000000000003 4.3450000000000006 108.51500000000001 26.050000000000004 5.5000000000000009 9.8500000000000032 115.50000000000001 3.1900000000000008 126.95000000000002 29.750000000000004 350.50000000000006
decision_type=2 2 2 2 2 2 2 2 2 2 2 2
left_child=4 2 -2 9 -1 -6 8 -8 -7 10 -3 -11
right_child=1 3 -4 -5 5 6 7 -9 -10 11 -12 -13
leaf_value=-0.0093641094361933391 -0.0014926509158685805 0.013922499087639154 0.020511032392581306 0.010939426564921936 0.0089195054711308334 -0.0018171619628954382 0.0040709033705449349 -0.00057011189618105904 -0.010310130617565874 -0.0024884202660420368 -0.0019343482735656344 0.0052703247318277137
leaf_weight=26 25 25 24 27 20 151 126 787 33 240 39 36
leaf_count=26 25 25 24 27 20 151 126 787 33 240 39 36
internal_value=0 0.00147944 0.00928466 0.000437325 -0.000538449 -0.000333017 -0.000501705 7.03787e-05 -0.00334036 -0.000396666 0.00425973 -0.00147641
internal_weight=0 416 49 367 1143 1117 1097 913 184 340 64 276
internal_count=1559 416 49 367 1143 1117 1097 913 184 340 64 276
is_linear=0
shrinkage=0.1


Tree=53
num_leaves=14
num_cat=0
split_feature=16 11 72 11 7 24 17 35 86 5 7 0 85
split_gain=0.122139 0.292198 0.234614 0.231794 0.317237 0.28613 0.209931 0.41523 0.224021 0.165001 0.155905 0.283366 0.147151
threshold=28.550000000000004 3.3750000000000004 2.9500000000000006 7.3450000000000006 81.750000000000014 15.950000000000001 86.450000000000017 73.720000000000013 69.500000000000014 2.7550000000000003 95.500000000000014 63.500000000000007 18.500000000000004
decision_type=2 2 2 2 2 2 2 2 2 2 2 2 2
left_child=3 -2 6 9 -5 -6 7 -3 -8 10 11 -1 -11
right_child=1 2 -4 4 5 -7 8 -9 -10 12 -12 -13 -14
leaf_value=-0.0034291998980216145 0.012399766629096122 0.0018102821196174944 -0.0048568355671116427 -0.0038487063135973932 0.016365781731226228 0.00023759383581240068 0.0031655859920143069 0.017807075569871815 -0.0005294546277292083 -0.012415639949696404 -0.0099843776423949749 0.008278551498129413 -0.0022492250542806387
leaf_weight=79 20 86 85 42 22 22 202 20 874 35 20 28 24
leaf_count=79 20 86 85 42 22 22 202 20 874 35 20 28 24
internal_value=0 0.000406912 0.0002176 -0.00192535 0.00236777 0.00830169 0.000582513 0.00482855 0.000164224 -0.00391034 -0.00188027 -0.000365489 -0.00828015
internal_weight=0 1287 1267 272 86 44 1182 106 1076 186 127 107 59
internal_count=1559 1287 1267 272 86 44 1182 106 1076 186 127 107 59
is_linear=0
shrinkage=0.1


Tree=54
num_leaves=10
num_cat=0
split_feature=32 36 36 37 12 23 16 55 87
split_gain=0.11844 0.231037 0.233561 0.208774 0.203044 0.394544 0.229928 0.139971 0.0661152
threshold=0.7350000000000001 28.385000000000002 35.300000000000004 256.70000000000005 3.7450000000000006 15.750000000000002 33.050000000000004 1.0000000180025095e-35 6.995000000000001
decision_type=2 2 2 2 2 2 2 2 2
left_child=-1 3 7 -2 5 -4 -6 8 -3
right_child=1 2 4 -5 6 -7 -8 -9 -10
leaf_value=-0.0066928288863541997 -0.0019655332015827299 -0.0012802651527397634 3.2908857704173084e-05 0.01065696670036567 0.00030366673593139326 0.017034173703619412 -0.0066161717465147377 -0.0098206478396370527 -0.0075633023772388704
leaf_weight=26 20 103 39 38 1211 21 50 31 20
leaf_count=26 20 103 39 38 1211 21 50 31 20
internal_value=0 0.000113512 -0.000129926 0.00630438 0.000299722 0.00598335 2.92877e-05 -0.00381541 -0.0023019
internal_weight=0 1533 1475 58 1321 60 1261 154 123
internal_count=1559 1533 1475 58 1321 60 1261 154 123
is_linear=0
shrinkage=0.1


Tree=55
num_leaves=14
num_cat=0
split_feature=65 87 26 27 22 53 75 18 36 35 90 32 17
split_gain=0.117638 0.292564 0.251544 0.218257 0.225231 0.195712 0.166833 0.242211 0.162498 0.505793 0.159065 0.14756 0.139059
threshold=1.0000000180025095e-35 3.6350000000000002 107.50000000000001 257.00000000000006 4.6650000000000009 1.0000000180025095e-35 63.500000000000007 8.7500000000000018 39.315000000000005 71.270000000000024 83.500000000000014 1.6050000000000002 88.550000000000011
decision_type=2 2 2 2 2 2 2 2 2 2 2 2 2
left_child=3 -2 6 4 8 -6 7 -3 9 -1 -8 -10 -5
right_child=1 2 -4 12 5 -7 10 -9 11 -11 -12 -13 -14
leaf_value=5.8422325104721177e-06 0.011950200788366299 -0.0055236261102254505 0.0097319224789128491 0.00068020576902199541 -0.011275870298452088 -0.00066157702635791802 0.00416364788931484 0.0028438112759090473 -0.0026272056833540787 0.013820085677735764 -0.0031015427418119423 0.0010532905807331611 0.012472545201890171
leaf_weight=308 24 40 29 20 38 32 36 256 391 29 185 151 20
leaf_count=308 24 40 29 20 38 32 36 256 391 29 185 151 20
internal_value=0 0.00114422 0.000669235 -0.000659461 -0.000964449 -0.00642362 0.000160883 0.00171308 -0.000529703 0.00119461 -0.00191807 -0.00160183 0.00657638
internal_weight=0 570 546 989 949 70 517 296 879 337 221 542 40
internal_count=1559 570 546 989 949 70 517 296 879 337 221 542 40
is_linear=0
shrinkage=0.1


Tree=56
num_leaves=14
num_cat=0
split_feature=72 31 4 81 91 2 10 86 0 7 71 4 5
split_gain=0.111292 0.316327 0.312814 0.486017 0.455131 0.430687 0.422286 0.188056 0.352406 0.208028 0.196777 0.381685 0.178999
threshold=2.5500000000000003 3.3650000000000007 225.00000000000003 1.0195000000000001 2.2150000000000003 137.50000000000003 141.45500000000001 69.500000000000014 75.500000000000014 87.550000000000026 4.0500000000000007 90.000000000000014 2.6250000000000004
decision_type=2 2 2 2 2 2 2 2 2 2 2 2 2
left_child=1 -1 7 4 6 -6 -4 8 9 -2 -9 -12 -3
right_child=2 12 3 -5 5 -7 -8 10 -10 -11 11 -13 -14
leaf_value=0.010272228241559458 0.004079987643168817 -0.00049697826694967246 -0.0064741013641469187 -0.0077526955753758862 0.0055601307961704403 0.022947759414091707 0.012285038914997132 -0.0011402521056608217 0.013678466516117064 -0.0037948169296776707 -0.0020856474317904367 0.013147835163720723 -0.0049695152480896216
leaf_weight=22 86 258 30 24 29 28 20 777 26 55 38 29 137
leaf_count=22 86 258 30 24 29 28 20 777 26 55 38 29 137
internal_value=0 -0.00139821 0.000510556 0.00510835 0.00799307 0.0141014 0.00102955 -8.52019e-05 0.00298086 0.00100826 -0.000691876 0.00450795 -0.00204821
internal_weight=0 417 1142 131 107 57 50 1011 167 141 844 67 395
internal_count=1559 417 1142 131 107 57 50 1011 167 141 844 67 395
is_linear=0
shrinkage=0.1


Tree=57
num_leaves=14
num_cat=0
split_feature=26 58 18 6 75 2 28 27 18 19 0 14 11
split_gain=0.111314 0.125532 0.308873 0.324243 0.572529 0.247552 0.317685 0.234549 0.166522 0.195067 0.173107 0.164854 0.14405
threshold=38.050000000000004 1.0000000180025095e-35 9.6250000000000018 11.650000000000002 61.500000000000007 159.50000000000003 20.500000000000004 131.50000000000003 10.050000000000002 46.750000000000007 73.500000000000014 125.50000000000001 4.1050000000000013
decision_type=2 2 2 2 2 2 2 2 2 2 2 2 2
left_child=-1 8 5 7 -5 12 -7 -4 9 11 -10 -2 -3
right_child=1 2 3 4 -6 6 -8 -9 10 -11 -12 -13 -14
leaf_value=-0.005017268684148507 0.0033339970049564727 0.0047674616364141303 0.006126480368619556 0.01417037610155107 0.0024575511966980026 -0.0016955271151502906 0.01385810381276921 -0.0009665504361237254 -0.0022831788569135673 0.0081844602639240954 -0.011471378434773374 -0.0021034878815202238 -0.0024255034826994931
leaf_weight=43 80 30 57 55 173 29 24 256 189 29 23 184 387
leaf_count=43 80 30 57 55 173 29 24 256 189 29 23 184 387
internal_value=0 0.00014231 0.000785438 0.0024146 0.00528301 -0.00108983 0.00534763 0.000325152 -0.00114522 0.000399411 -0.00328001 -0.000455765 -0.00190802
internal_weight=0 1516 1011 541 228 470 53 313 505 293 212 264 417
internal_count=1559 1516 1011 541 228 470 53 313 505 293 212 264 417
is_linear=0
shrinkage=0.1


Tree=58
num_leaves=7
num_cat=0
split_feature=23 24 87 87 16 11
split_gain=0.113293 0.183725 0.134893 0.196225 0.179266 0.068751
threshold=61.000000000000007 43.500000000000007 3.2050000000000005 3.3350000000000004 26.750000000000004 6.455000000000001
decision_type=2 2 2 2 2 2
left_child=1 2 5 -4 -5 -1
right_child=-2 -3 3 4 -6 -7
leaf_value=-0.0088967719664797187 -0.0059849462592073029 0.0094104378035159003 0.00999515590898227 -0.0043520202573166574 0.00030577628806917686 -0.0010306486277841032
leaf_weight=25 31 21 20 88 1354 20
leaf_count=25 31 21 20 88 1354 20
internal_value=0 0.000121422 -8.0198e-06 0.000157966 2.1528e-05 -0.00540072
internal_weight=0 1528 1507 1462 1442 45
internal_count=1559 1528 1507 1462 1442 45
is_linear=0
shrinkage=0.1


Tree=59
num_leaves=12
num_cat=0
split_feature=93 32 36 36 72 35 18 40 13 83 30
split_gain=0.109253 0.178573 0.187471 0.191751 0.198175 0.173535 0.163785 0.135247 0.110787 0.0673768 0.0367785
threshold=1.0550000000000004 0.7350000000000001 28.385000000000002 35.435000000000009 2.5500000000000003 70.605000000000004 9.7500000000000018 1.0000000180025095e-35 287.50000000000006 1.0000000180025095e-35 1.2050000000000003
decision_type=2 2 2 2 2 2 2 2 2 2 2
left_child=1 -1 8 7 -5 9 -7 -4 -3 10 -2
right_child=5 2 3 4 -6 6 -8 -9 -10 -11 -12
leaf_value=-0.0086906489302319562 -0.0059987494039232848 0.0099170531757408753 -0.0020153604755972676 -0.001535311501441585 0.0013501468222698134 -0.0046735220244559254 0.006626399948486481 -0.010683544104297955 0.00081821079669601243 -0.0095598520835240702 -0.00024543250910937788
leaf_weight=22 25 32 126 326 882 23 29 21 23 30 20
leaf_count=22 25 32 126 326 882 23 29 21 23 30 20
internal_value=0 0.000249301 0.000388789 0.000156478 0.000571455 -0.00281101 0.00162836 -0.00325367 0.00611208 -0.00588897 -0.00344172
internal_weight=0 1432 1410 1355 1208 127 52 147 55 75 45
internal_count=1559 1432 1410 1355 1208 127 52 147 55 75 45
is_linear=0
shrinkage=0.1


Tree=60
num_leaves=12
num_cat=0
split_feature=9 22 26 25 39 54 10 5 0 9 8
split_gain=0.109393 0.106512 0.23476 0.233103 0.314638 0.201901 0.296676 0.287683 0.232634 0.171064 0.102229
threshold=11.365000000000002 3.2650000000000001 120.50000000000001 7.5300000000000002 1.0000000180025095e-35 1.0000000180025095e-35 142.74500000000003 2.4350000000000005 79.500000000000014 4.8350000000000009 68.050000000000011
decision_type=2 2 2 2 2 2 2 2 2 2 2
left_child=1 2 3 10 -5 6 8 -7 -3 -8 -1
right_child=-2 5 -4 4 -6 7 9 -9 -10 -11 -12
leaf_value=-0.011137324373703451 -0.0055275181507957842 0.00063094667324314598 0.010735796766517603 0.00026889434857818578 0.0061985156986410599 -0.0048116044828202574 -0.011030396029818805 0.010222907183425767 -0.0095703663483921748 -0.0033143765881986304 -0.0026277726371821096
leaf_weight=20 35 326 23 785 101 20 40 35 24 102 48
leaf_count=20 35 326 23 785 101 20 40 35 24 102 48
internal_value=0 0.000126944 0.000752483 0.000511795 0.000944844 -0.000990334 -0.00163269 0.00475581 -6.85719e-05 -0.0054879 -0.00513058
internal_weight=0 1524 977 954 886 547 492 55 350 142 68
internal_count=1559 1524 977 954 886 547 492 55 350 142 68
is_linear=0
shrinkage=0.1


Tree=61
num_leaves=14
num_cat=0
split_feature=0 55 26 65 13 39 83 87 70 86 5 7 2
split_gain=0.106154 0.116462 0.252099 0.335151 0.351755 0.234873 0.466869 0.569101 0.265408 0.179245 0.170348 0.162551 0.132923
threshold=30.500000000000004 1.0000000180025095e-35 68.300000000000011 1.0000000180025095e-35 262.50000000000006 1.0000000180025095e-35 1.0000000180025095e-35 5.6150000000000011 2.4500000000000006 80.500000000000014 2.6250000000000004 92.15000000000002 145.50000000000003
decision_type=2 2 2 2 2 2 2 2 2 2 2 2 2
left_child=-1 5 9 11 -5 12 7 -7 -8 10 -3 -4 -2
right_child=1 2 3 4 -6 6 8 -9 -10 -11 -12 -13 -14
leaf_value=-0.0055263843921506232 -0.00035118909171855079 -0.002566087017093148 0.00047736738425041753 0.011063387261259779 -0.0034642691388726238 0.023982698267156429 -0.0027068993518463316 0.0036727627185550895 0.0097295942610468381 0.0041774023180117924 -0.0096293523577192144 -0.0065612005868780554 0.0033965127187877684
leaf_weight=34 883 76 92 50 25 22 78 37 22 21 62 51 106
leaf_count=34 883 76 92 50 25 22 78 37 22 21 62 51 106
internal_value=0 0.000123211 -0.00140174 0.000806694 0.00622084 0.000624003 0.00419135 0.011246 2.91292e-05 -0.00442967 -0.00573944 -0.00203289 5.04857e-05
internal_weight=0 1525 377 218 75 1148 159 59 100 159 138 143 989
internal_count=1559 1525 377 218 75 1148 159 59 100 159 138 143 989
is_linear=0
shrinkage=0.1


Tree=62
num_leaves=14
num_cat=0
split_feature=30 12 30 26 10 34 32 32 72 4 31 92 32
split_gain=0.105045 0.274975 0.220959 0.377536 0.498171 0.204153 0.214196 0.193909 0.190726 0.24309 0.189037 0.146503 0.140414
threshold=1.8650000000000004 3.9250000000000003 1.5950000000000004 77.100000000000009 141.86500000000004 1.2850000000000004 0.80500000000000016 1.2350000000000001 2.4500000000000006 225.00000000000003 3.7650000000000001 4.2550000000000008 1.1250000000000002
decision_type=2 2 2 2 2 2 2 2 2 2 2 2 2
left_child=2 -2 5 -4 -5 6 -1 -3 12 -10 -8 -9 -7
right_child=1 7 3 4 -6 8 10 11 9 -11 -12 -13 -14
leaf_value=-0.012170941713266076 0.0078607655755520145 -0.00042786024767944283 0.00015468898514212157 0.0023012259085662666 0.023475595018826428 0.0044338404920629482 0.0042757893218852896 -0.010514338824053317 0.0008369075764519771 0.0071711317014032565 -0.0025504703179045352 -0.0029670553251889943 -0.0043747164087964098
leaf_weight=20 27 150 76 25 20 22 48 43 633 67 262 64 102
leaf_count=20 27 150 76 25 20 22 48 43 633 67 262 64 102
internal_value=0 -0.00173925 0.000387409 0.00445288 0.0117121 -3.88669e-05 -0.00214062 -0.00274781 0.000802854 0.00144318 -0.0014935 -0.00600008 -0.00281191
internal_weight=0 284 1275 121 45 1154 330 257 824 700 310 107 124
internal_count=1559 284 1275 121 45 1154 330 257 824 700 310 107 124
is_linear=0
shrinkage=0.1


Tree=63
num_leaves=9
num_cat=0
split_feature=23 24 22 15 37 14 15 26
split_gain=0.0937489 0.142757 0.113814 0.292134 0.369932 0.197106 0.153657 0.138183
threshold=61.000000000000007 43.500000000000007 2.3750000000000004 329.50000000000006 293.25000000000006 166.50000000000003 326.50000000000006 68.300000000000011
decision_type=2 2 2 2 2 2 2 2
left_child=1 2 3 4 -1 6 -4 -5
right_child=-2 -3 5 7 -6 -7 -8 -9
leaf_value=0.00082635671869866209 -0.0054442842521013751 0.008298577862747368 -0.0021211554797186867 -0.0016061705979108325 0.016720238334016393 -0.0077861667530877256 0.00046814981248058537 0.0045814761200596637
leaf_weight=32 31 21 305 137 27 35 922 49
leaf_count=32 31 21 305 137 27 35 922 49
internal_value=0 0.000110453 -3.64786e-06 0.00196872 0.00809983 -0.000386556 -0.000175484 2.39084e-05
internal_weight=0 1528 1507 245 59 1262 1227 186
internal_count=1559 1528 1507 245 59 1262 1227 186
is_linear=0
shrinkage=0.1


Tree=64
num_leaves=10
num_cat=0
split_feature=9 37 71 24 76 87 10 90 93
split_gain=0.0934793 0.0984236 0.298273 0.144635 0.137326 0.219227 0.194009 0.13406 0.0782547
threshold=3.9050000000000007 446.70000000000005 3.7500000000000004 45.500000000000007 1.1500000000000001 3.2050000000000005 140.54000000000002 275.50000000000006 0.91500000000000015
decision_type=2 2 2 2 2 2 2 2 2
left_child=-1 3 7 4 5 -2 -6 8 -3
right_child=1 2 -4 -5 6 -7 -8 -9 -10
leaf_value=-0.0051096731030598423 -0.0067465790451910262 0.0015392475724220278 0.0065239566878450136 0.0082129666176827057 -0.0072634585790166796 0.00087740100486639622 -0.0002881942304620993 -0.010918205822526943 -0.0058308264209178083
leaf_weight=35 39 25 27 23 55 1146 145 30 34
leaf_count=35 39 25 27 23 55 1146 145 30 34
internal_value=0 0.000117348 -0.00268247 0.000348015 0.000217405 0.000626485 -0.00220639 -0.00547543 -0.00270791
internal_weight=0 1524 116 1408 1385 1185 200 89 59
internal_count=1559 1524 116 1408 1385 1185 200 89 59
is_linear=0
shrinkage=0.1


Tree=65
num_leaves=8
num_cat=0
split_feature=9 9 21 7 70 22 22
split_gain=0.0858483 0.103477 0.109304 0.270234 0.226991 0.125951 0.144837
threshold=11.365000000000002 9.1450000000000014 116.25000000000001 54.500000000000007 2.5500000000000003 4.6650000000000009 4.3600000000000003
decision_type=2 2 2 2 2 2 2
left_child=1 2 3 -1 -5 6 -4
right_child=-2 -3 5 4 -6 -7 -8
leaf_value=0.011590644875104772 -0.0048966760840266944 0.0054100599075253639 -0.00054931389866634051 -2.4359961236768867e-05 0.0078764318453613674 -0.0062419696141181417 0.0080482384395145351
leaf_weight=24 35 36 966 400 40 38 20
leaf_count=24 35 36 966 400 40 38 20
internal_value=0 0.000112456 -1.57114e-05 0.00125752 0.000693894 -0.000592644 -0.000374921
internal_weight=0 1524 1488 464 440 1024 986
internal_count=1559 1524 1488 464 440 1024 986
is_linear=0
shrinkage=0.1


Tree=66
num_leaves=13
num_cat=0
split_feature=88 1 55 6 36 88 9 91 1 0 25 4
split_gain=0.0846151 0.122875 0.0997028 0.228368 0.19555 0.268078 0.16332 0.528268 0.181669 0.545862 0.125798 0.112695
threshold=109.75000000000001 25.920000000000005 1.0000000180025095e-35 3.4000000000000004 35.875000000000007 99.950000000000017 8.5500000000000025 2.2650000000000001 30.855000000000004 54.500000000000007 11.005000000000001 225.00000000000003
decision_type=2 2 2 2 2 2 2 2 2 2 2 2
left_child=2 -2 6 -4 10 -6 8 -8 11 -10 -5 -1
right_child=1 -3 3 4 5 -7 7 -9 9 -11 -12 -13
leaf_value=-0.00054986297292188046 0.008622654329088552 -0.0013238685757286199 0.0085540317542230088 -0.012154509872198106 0.0097511125085431912 -0.0019833153877637038 -0.0031750025681284225 0.017118918672001559 -0.0054428640310652558 0.017383651634339581 -0.0027573615013222613 0.0028197276892627148
leaf_weight=938 27 23 21 29 21 267 29 23 20 22 28 111
leaf_count=938 27 23 21 29 21 267 29 23 20 22 28 111
internal_value=0 0.00404725 -0.000134104 -0.00157056 -0.00218684 -0.00112768 0.000325863 0.00580115 6.48958e-05 0.00651388 -0.00753837 -0.00019331
internal_weight=0 50 1509 366 345 288 1143 52 1091 42 57 1049
internal_count=1559 50 1509 366 345 288 1143 52 1091 42 57 1049
is_linear=0
shrinkage=0.1


Tree=67
num_leaves=14
num_cat=0
split_feature=93 30 8 30 94 28 90 5 27 92 52 12 38
split_gain=0.0836403 0.130252 0.120733 0.115237 0.192029 0.265529 0.33984 0.322918 0.260551 0.241184 0.176198 0.173248 0.213713
threshold=1.0550000000000004 1.0050000000000001 65.405000000000015 1.8450000000000004 11.250000000000002 19.150000000000002 89.500000000000014 2.4350000000000005 186.25000000000003 4.2750000000000012 1.0000000180025095e-35 3.9350000000000005 1.5000000000000002
decision_type=2 2 2 2 2 2 2 2 2 2 2 2 2
left_child=3 -2 -3 4 8 6 -6 -7 10 -10 -1 -5 -13
right_child=1 2 -4 11 5 7 -8 -9 9 -11 -12 12 -14
leaf_value=-0.001389465575951947 -0.0067826026587216705 0.0066688174312002956 -0.0022664714876408391 0.0065567338899911749 0.0052348792353750099 9.8548056773358481e-05 -0.0014131907981463985 0.0065684601447800464 0.010325626090967231 -0.0017868015098370491 -0.0083758437466557797 -0.0063826717986997343 -0.00012410519203829171
leaf_weight=302 45 20 62 23 98 135 357 180 35 31 41 89 141
leaf_count=302 45 20 62 23 98 135 357 180 35 31 41 89 141
internal_value=0 -0.00245954 -8.71327e-05 0.00021813 0.000633684 0.00156381 1.87012e-05 0.00379564 -0.00111741 0.00463646 -0.00222457 -0.00171839 -0.0025459
internal_weight=0 127 82 1432 1179 770 455 315 409 66 343 253 230
internal_count=1559 127 82 1432 1179 770 455 315 409 66 343 253 230
is_linear=0
shrinkage=0.1


Tree=68
num_leaves=14
num_cat=0
split_feature=24 87 39 1 5 33 75 1 24 1 21 94 90
split_gain=0.0867468 0.225833 0.146289 0.107152 0.325855 0.194028 0.179768 0.17695 0.197397 0.254956 0.188468 0.127293 0.103409
threshold=23.200000000000003 3.9650000000000003 1.0000000180025095e-35 22.275000000000002 2.7550000000000003 3.3750000000000004 63.500000000000007 22.485000000000003 21.400000000000002 25.365000000000006 119.50000000000001 13.350000000000003 169.50000000000003
decision_type=2 2 2 2 2 2 2 2 2 2 2 2 2
left_child=3 -2 -3 4 5 -1 -7 -5 10 -10 -9 12 -6
right_child=1 2 -4 7 11 6 -8 8 9 -11 -12 -13 -14
leaf_value=-0.00078900486884882931 0.0081774941692128785 -0.0017467118321174103 -0.0092759312566129438 0.010069150705821813 -0.014782733461331755 0.013687283308245242 0.00027953467564657331 0.0021992867786802947 0.015350483064539731 0.0015786938231918256 -0.00073956008286338391 -0.00050813467629874751 -0.006078853472792663
leaf_weight=163 20 154 31 20 21 20 20 326 20 41 660 24 39
leaf_count=163 20 154 31 20 21 20 20 326 20 41 660 24 39
internal_value=0 -0.00191706 -0.00300836 0.000290249 -0.00142502 0.000742505 0.00698341 0.000751619 0.000573633 0.00609403 0.000232107 -0.00666319 -0.00912521
internal_weight=0 205 185 1354 287 203 40 1067 1047 61 986 84 60
internal_count=1559 205 185 1354 287 203 40 1067 1047 61 986 84 60
is_linear=0
shrinkage=0.1


Tree=69
num_leaves=12
num_cat=0
split_feature=33 31 14 19 36 34 10 29 33 90 11
split_gain=0.0800805 0.237289 0.11463 0.242366 0.167042 0.151997 0.0877103 0.0802753 0.0415521 0.0550461 0.0367052
threshold=4.1950000000000012 6.8250000000000011 162.50000000000003 47.150000000000013 42.155000000000008 1.2850000000000004 143.00500000000002 12.250000000000002 4.6250000000000009 302.50000000000006 6.6050000000000013
decision_type=2 2 2 2 2 2 2 2 2 2 2
left_child=1 2 3 5 -5 -1 10 8 9 -2 -4
right_child=7 -3 6 4 -6 -7 -8 -9 -10 -11 -12
leaf_value=-0.0017194591144149085 -0.0097766675176503871 0.0089855458659197519 -0.0030782801461437313 0.0015547525193098757 0.01432442333723884 0.00065797589061116109 0.0019437797777118249 0.0022107297593417269 -0.0015421314739044113 -0.0026033753517549487 -0.0081605607170301183
leaf_weight=377 23 30 27 21 20 938 20 24 29 20 30
leaf_count=377 23 30 27 21 20 938 20 24 29 20 30
internal_value=0 0.000183592 -6.77754e-07 0.000212451 0.00778386 -2.36157e-05 -0.00375396 -0.00279787 -0.0044674 -0.00644025 -0.00575316
internal_weight=0 1463 1433 1356 41 1315 77 96 72 43 57
internal_count=1559 1463 1433 1356 41 1315 77 96 72 43 57
is_linear=0
shrinkage=0.1


Tree=70
num_leaves=9
num_cat=0
split_feature=26 2 8 9 29 8 88 8
split_gain=0.0778578 0.110597 0.311229 0.106924 0.101754 0.117992 0.0473975 0.0267062
threshold=38.050000000000004 103.50000000000001 72.300000000000026 3.9050000000000007 5.5000000000000009 84.370000000000019 105.25000000000001 93.455000000000013
decision_type=2 2 2 2 2 2 2 2
left_child=6 2 -2 -3 -5 -6 -1 -4
right_child=1 3 7 4 5 -7 -8 -9
leaf_value=-0.0075942456411818675 0.01414864115317219 -0.0062901743355690057 0.0016988657612819224 0.0057286964376426991 -0.00075738462838620608 0.0011539027252041871 -0.00095236873431448757 -0.0034689382370561364
leaf_weight=21 21 27 20 31 890 507 22 20
leaf_count=21 21 27 20 31 890 507 22 20
internal_value=0 0.000119018 0.00429049 -5.58686e-05 6.2007e-05 -6.37392e-05 -0.00419608 -0.000885036
internal_weight=0 1516 61 1455 1428 1397 43 40
internal_count=1559 1516 61 1455 1428 1397 43 40
is_linear=0
shrinkage=0.1


Tree=71
num_leaves=12
num_cat=0
split_feature=0 2 8 87 82 87 10 18 22 92 7
split_gain=0.0754787 0.0836983 0.259014 0.103897 0.208945 0.317621 0.159662 0.260601 0.159631 0.159483 0.0345781
threshold=30.500000000000004 103.50000000000001 71.560000000000016 6.0150000000000006 1.0000000180025095e-35 5.0650000000000004 142.95000000000002 10.950000000000001 3.4750000000000005 4.955000000000001 76.910000000000011
decision_type=2 2 2 2 2 2 2 2 2 2 2
left_child=-1 2 -2 4 9 -6 8 -8 -5 -3 -4
right_child=1 3 10 6 5 -7 7 -9 -10 -11 -12
leaf_value=-0.0046599850428345451 0.01306307663442567 -2.1456690651839676e-05 -0.0036519820702129177 -0.0036707587287990551 -0.0014626477024814284 0.015172123901235561 -0.00034532146251796446 0.0093173901575165953 0.00062659269680680587 0.0066138255079031781 0.0021579033206216994
leaf_weight=34 20 775 21 262 22 24 181 33 129 38 20
leaf_count=34 20 775 21 262 22 24 181 33 129 38 20
internal_value=0 0.000103895 0.00373325 -4.73282e-05 0.000659661 0.00721636 -0.00105114 0.00114472 -0.00225296 0.00028868 -0.000817892
internal_weight=0 1525 61 1464 859 46 605 214 391 813 41
internal_count=1559 1525 61 1464 859 46 605 214 391 813 41
is_linear=0
shrinkage=0.1


Tree=72
num_leaves=12
num_cat=0
split_feature=9 24 9 24 9 18 21 3 14 8 9
split_gain=0.0763031 0.0869542 0.130079 0.23498 0.11322 0.100258 0.226177 0.512012 0.236572 0.192143 0.134415
threshold=11.365000000000002 24.500000000000004 4.5850000000000009 45.500000000000007 4.9850000000000012 9.6250000000000018 167.50000000000003 89.500000000000014 143.50000000000003 53.680000000000007 8.2050000000000018
decision_type=2 2 2 2 2 2 2 2 2 2 2
left_child=1 5 -3 4 -4 9 8 -8 -7 -1 -11
right_child=-2 2 3 -5 -6 6 7 -9 -10 10 -12
leaf_value=-0.0075604995234391167 -0.0046164312321759233 -0.0078053060802631084 0.0030835501994051114 0.0087257387878542595 -0.0045241800051394705 0.0019834862327343748 0.0007543559344485402 0.018782561912160853 -0.0019336086600179364 -0.00041489106074020098 0.0079267114092363058
leaf_weight=37 35 32 26 22 79 428 50 23 241 566 20
leaf_count=37 35 32 26 22 79 428 50 23 241 566 20
internal_value=0 0.00010602 -0.00210718 -0.00067143 -0.00264036 0.000363822 0.00114912 0.00643448 0.000572395 -0.000571481 -0.000130195
internal_weight=0 1524 159 127 105 1365 742 73 669 623 586
internal_count=1559 1524 159 127 105 1365 742 73 669 623 586
is_linear=0
shrinkage=0.1


Tree=73
num_leaves=14
num_cat=0
split_feature=86 86 86 11 27 29 33 30 11 89 2 30 0
split_gain=0.0770283 0.105003 0.177097 0.412467 0.244658 0.161082 0.175554 0.178147 0.157527 0.215085 0.151024 0.0904258 0.0613173
threshold=59.500000000000007 65.500000000000014 69.500000000000014 4.8850000000000007 134.75000000000003 11.500000000000002 2.8350000000000004 1.1150000000000004 7.5050000000000008 0.84500000000000008 167.00000000000003 0.94500000000000006 64.500000000000014
decision_type=2 2 2 2 2 2 2 2 2 2 2 2 2
left_child=-1 5 3 -3 -5 6 11 -8 10 -10 -4 -2 -7
right_child=1 2 8 4 -6 12 7 -9 9 -11 -12 -13 -14
leaf_value=0.0058752701236781755 -0.0091712188610637742 0.016235291434846165 -0.00052352110433590785 0.010566108323456277 -0.0016636039346701944 -0.0041482889042843297 0.011229013362899424 -0.0018112788823517888 0.011309378073466096 0.0010584288248123102 -0.0064560968646158777 -0.00053445451690263491 -0.011622135820133347
leaf_weight=22 22 22 924 21 74 23 20 22 22 294 45 27 21
leaf_count=22 22 22 924 21 74 23 20 22 22 294 45 27 21
internal_value=0 -8.40962e-05 0.000172386 0.00389708 0.00103981 -0.00274771 -0.000345769 0.00439838 -0.00016675 0.0017721 -0.000799028 -0.00441219 -0.00771535
internal_weight=0 1537 1402 117 95 135 91 42 1285 316 969 49 44
internal_count=1559 1537 1402 117 95 135 91 42 1285 316 969 49 44
is_linear=0
shrinkage=0.1


Tree=74
num_leaves=13
num_cat=0
split_feature=58 94 90 11 88 89 32 15 90 59 22 25
split_gain=0.0754571 0.174502 0.149799 0.174823 0.159375 0.124819 0.170082 0.132175 0.12229 0.108002 0.0479905 0.0126079
threshold=1.0000000180025095e-35 17.050000000000004 1075.0000000000002 3.5750000000000006 103.25000000000001 0.95500000000000007 0.96500000000000008 350.50000000000006 78.500000000000014 1.0000000180025095e-35 3.3350000000000004 19.325000000000006
decision_type=2 2 2 2 2 2 2 2 2 2 2 2
left_child=5 2 3 -2 -5 9 -7 8 -8 10 11 -1
right_child=1 -3 -4 4 -6 6 7 -9 -10 -11 -12 -13
leaf_value=0.0019489815476117656 0.010236530437250622 -0.0060726817497291051 -0.0054991789338355128 0.002780498903855089 -5.7074294663944316e-05 0.006139384423946276 0.0029262147112157234 0.0068367042268315959 -0.0021212653902741869 -0.0087630272808703873 -0.0058165201044175774 -0.0014840437099337578
leaf_weight=20 20 39 37 282 664 38 57 21 304 34 20 23
leaf_count=20 20 39 37 282 664 38 57 21 304 34 20 23
internal_value=0 0.000490048 0.000745229 0.000984404 0.000788798 -0.000987678 -0.00024096 -0.000875654 -0.00132429 -0.00422089 -0.00176958 0.000112712
internal_weight=0 1042 1003 966 946 517 420 382 361 97 63 43
internal_count=1559 1042 1003 966 946 517 420 382 361 97 63 43
is_linear=0
shrinkage=0.1


Tree=75
num_leaves=14
num_cat=0
split_feature=59 8 12 8 86 90 23 55 88 2 88 8 1
split_gain=0.0690113 0.254032 0.396982 0.194229 0.158427 0.132447 0.213908 0.132396 0.19196 0.260907 0.195598 0.165003 0.343132
threshold=1.0000000180025095e-35 57.270000000000003 4.3450000000000006 108.51500000000001 64.500000000000014 230.50000000000003 17.100000000000005 1.0000000180025095e-35 102.95000000000002 159.50000000000003 107.15000000000002 95.680000000000021 30.855000000000004
decision_type=2 2 2 2 2 2 2 2 2 2 2 2 2
left_child=4 2 -2 5 -1 -3 -7 11 9 -9 -10 12 -6
right_child=1 3 -4 -5 7 6 -8 8 10 -11 -12 -13 -14
leaf_value=-0.0040092057475836062 -0.00095333973597735175 -0.002069807380037566 0.017052273454222208 0.0083634979971167114 0.00094789421140984743 -0.0016917755864277431 0.0062366546668358967 -0.0015454507564815383 -0.0063691514453629297 0.01118556622069181 0.0012606290377637683 -0.0020424584440696596 0.013956420090315598
leaf_weight=110 25 203 24 27 589 74 63 60 112 22 48 181 21
leaf_count=110 25 203 24 27 589 74 63 60 112 22 48 181 21
internal_value=0 0.00110284 0.00786574 0.000199895 -0.000401384 -0.000448391 0.00195414 -1.72022e-05 -0.00206396 0.00187019 -0.00408022 0.000608988 0.00139573
internal_weight=0 416 49 367 1143 340 137 1033 242 82 160 791 610
internal_count=1559 416 49 367 1143 340 137 1033 242 82 160 791 610
is_linear=0
shrinkage=0.1


Tree=76
num_leaves=14
num_cat=0
split_feature=4 8 8 12 5 27 4 1 15 21 70 36 88
split_gain=0.0686765 0.0875323 0.212324 0.270174 0.479008 0.172934 0.197964 0.157663 0.286813 0.505303 0.387493 0.198384 0.292441
threshold=17.500000000000004 84.370000000000019 93.945000000000007 4.6950000000000012 2.4350000000000005 134.75000000000003 225.00000000000003 28.065000000000001 331.50000000000006 125.83500000000002 2.5500000000000003 39.295000000000009 99.050000000000011
decision_type=2 2 2 2 2 2 2 2 2 2 2 2 2
left_child=-1 7 3 4 -3 -4 -7 11 9 -9 -10 12 -2
right_child=1 2 5 -5 -6 6 -8 8 10 -11 -12 -13 -14
leaf_value=-0.0019034662159899776 0.0099512937336018494 0.0003238444354364594 -0.0053316780158262382 -0.0012900410075737557 0.012108244012509074 -0.00038328985189130726 0.0079456606823386563 0.02105740695842542 -0.0027064072293939596 -0.00026799706369638445 0.011926521626777355 -0.0026613453424401958 -0.00022662981943620807
leaf_weight=169 31 68 58 71 70 211 33 20 102 25 22 363 316
leaf_count=169 31 68 58 71 70 211 33 20 102 25 22 363 316
internal_value=0 0.000231429 0.00127221 0.00372251 0.00630144 -0.000423525 0.000743167 -0.000373624 0.00237147 0.00920996 -0.000110242 -0.00102703 0.000682637
internal_weight=0 1390 511 209 138 302 244 879 169 45 124 710 347
internal_count=1559 1390 511 209 138 302 244 879 169 45 124 710 347
is_linear=0
shrinkage=0.1


Tree=77
num_leaves=14
num_cat=0
split_feature=22 22 12 11 94 22 18 18 5 71 10 5 0
split_gain=0.0714511 0.203694 0.155991 0.234351 0.144485 0.151493 0.170581 0.384577 0.163982 0.147957 0.131913 0.236374 0.195495
threshold=3.2650000000000001 3.2150000000000003 5.4250000000000007 6.2650000000000006 16.150000000000002 3.4750000000000005 10.225000000000001 9.6250000000000018 2.5050000000000003 3.4500000000000006 141.71000000000001 3.0750000000000006 74.500000000000014
decision_type=2 2 2 2 2 2 2 2 2 2 2 2 2
left_child=1 2 10 -4 5 8 7 -7 -2 -8 11 -1 -12
right_child=4 -3 3 -5 -6 6 9 -9 -10 -11 12 -13 -14
leaf_value=-8.1899875636237329e-05 0.00035305208314144823 0.0082348621817249241 -0.0011630379720299971 0.012529325413517653 -0.0054535548010232653 -0.00042194657986761917 0.0021103858009779027 0.0077257696868400678 -0.0071368929021915998 -0.0060708626503280056 0.00035726524311758114 -0.0060057687506302367 0.0071696719762099825
leaf_weight=277 57 33 25 25 62 210 35 80 60 60 500 89 46
leaf_count=277 57 33 25 25 62 210 35 80 60 60 500 89 46
internal_value=0 0.000509694 0.000244693 0.00568314 -0.000899194 -0.000336703 0.000620947 0.0018257 -0.00348795 -0.00305672 -5.34673e-05 -0.0015224 0.000931204
internal_weight=0 995 962 50 564 502 385 290 117 95 912 366 546
internal_count=1559 995 962 50 564 502 385 290 117 95 912 366 546
is_linear=0
shrinkage=0.1


Tree=78
num_leaves=11
num_cat=0
split_feature=23 93 20 11 8 24 86 19 39 5
split_gain=0.0674923 0.0785435 0.120422 0.136894 0.390638 0.174192 0.0913796 0.111722 0.0904229 0.0821389
threshold=61.000000000000007 1.0250000000000001 0.35500000000000004 7.3450000000000006 60.245000000000012 10.950000000000001 81.500000000000014 38.750000000000007 1.0000000180025095e-35 2.7550000000000003
decision_type=2 2 2 2 2 2 2 2 2 2
left_child=1 2 3 5 -5 -1 7 9 -9 -3
right_child=-2 6 -4 4 -6 -7 -8 8 -10 -11
leaf_value=-0.0060671629235477427 -0.0046193941766696596 -0.0025433561890027844 -0.0053379395160542721 0.010347628990626511 0.00079638592136695933 0.00023623308317148231 0.0033905285466783522 -0.0030747404886642474 -0.010325720232157481 0.0056605707580709595
leaf_weight=46 31 26 36 51 267 934 29 95 21 23
leaf_count=46 31 26 36 51 267 934 29 95 21 23
internal_value=0 9.37181e-05 0.000367129 0.000525359 0.00232819 -5.96406e-05 -0.00178634 -0.00269621 -0.00438742 0.00130747
internal_weight=0 1528 1334 1298 318 980 194 165 116 49
internal_count=1559 1528 1334 1298 318 980 194 165 116 49
is_linear=0
shrinkage=0.1


Tree=79
num_leaves=14
num_cat=0
split_feature=10 90 19 35 72 87 5 21 36 14 19 8 27
split_gain=0.0689985 0.153975 0.195646 0.179407 0.13124 0.104306 0.211774 0.341492 0.352576 0.10438 0.138482 0.602344 0.105356
threshold=138.97500000000002 76.500000000000014 36.750000000000007 62.155000000000008 2.7500000000000004 3.8050000000000002 2.0650000000000004 127.50000000000001 38.470000000000006 168.50000000000003 46.750000000000007 67.420000000000016 132.50000000000003
decision_type=2 2 2 2 2 2 2 2 2 2 2 2 2
left_child=1 -1 3 -3 -4 6 -2 8 -8 10 12 -12 -7
right_child=5 2 4 -5 -6 9 7 -9 -10 -11 11 -13 -14
leaf_value=-0.010113831697963179 -0.0036089336845062433 -0.004460354207549244 -0.0016593715920526064 0.0069225925377880545 -0.010470305759967729 0.0017153771802498605 0.0017150095966644585 -0.0026141795392268926 0.01952843674272299 -0.0057385001772819397 0.018305559996092183 -0.00063197238774130669 -0.00065038972765400045
leaf_weight=20 31 20 73 45 22 237 20 27 25 31 22 71 915
leaf_count=20 31 20 73 45 22 237 20 27 25 31 22 71 915
internal_value=0 -0.00184138 -0.00080732 0.00342015 -0.0036998 0.000240354 0.00330147 0.00627678 0.0116114 -6.7425e-06 0.000135976 0.00384787 -0.000163682
internal_weight=0 180 160 65 95 1379 103 72 45 1276 1245 93 1152
internal_count=1559 180 160 65 95 1379 103 72 45 1276 1245 93 1152
is_linear=0
shrinkage=0.1


Tree=80
num_leaves=14
num_cat=0
split_feature=4 4 26 19 9 7 18 26 9 31 81 26 11
